tree
version=v3
num_class=9
num_tree_per_iteration=9
label_index=0
max_feature_idx=102
objective=multiclass num_class:9
feature_names=Column_0 Column_1 Column_2 Column_3 Column_4 Column_5 Column_6 Column_7 Column_8 Column_9 Column_10 Column_11 Column_12 Column_13 Column_14 Column_15 Column_16 Column_17 Column_18 Column_19 Column_20 Column_21 Column_22 Column_23 Column_24 Column_25 Column_26 Column_27 Column_28 Column_29 Column_30 Column_31 Column_32 Column_33 Column_34 Column_35 Column_36 Column_37 Column_38 Column_39 Column_40 Column_41 Column_42 Column_43 Column_44 Column_45 Column_46 Column_47 Column_48 Column_49 Column_50 Column_51 Column_52 Column_53 Column_54 Column_55 Column_56 Column_57 Column_58 Column_59 Column_60 Column_61 Column_62 Column_63 Column_64 Column_65 Column_66 Column_67 Column_68 Column_69 Column_70 Column_71 Column_72 Column_73 Column_74 Column_75 Column_76 Column_77 Column_78 Column_79 Column_80 Column_81 Column_82 Column_83 Column_84 Column_85 Column_86 Column_87 Column_88 Column_89 Column_90 Column_91 Column_92 Column_93 Column_94 Column_95 Column_96 Column_97 Column_98 Column_99 Column_100 Column_101 Column_102
feature_infos=[0:4047] [0:4145] [0:4343] [0:4545] [0:4855] [24:5230] [111:5441] [63:5563] [84:5713] [94:5809] [42:5976] [27:6101] [42:6282] [59:6369] [46:6438] [28:6442] [23:6478] [30:6530] [12:6536] [14:6477] [22:6415] [24:6420] [10:6406] [35:6331] [18:6332] [0:6350] [0:6253] [4:6137] [8:6067] [0:6032] [0:5972] [0:5860] [0:5690] [0:5589] [0:5477] [0:5361] [0:5220] [0:5083] [5:4893] [0:4863] [0:4884] [0:4941] [0:4977] [0:5016] [1:5122] [12:5186] [8:5190] [8:5219] [21:5274] [26:5254] [24:5288] [18:5377] [6:5430] [5:5461] [19:5479] [7:5526] [16:5574] [18:5620] [15:5652] [1:5670] [0:5739] [0:5803] [0:5844] [0:5883] [10:5869] [27:5837] [25:5872] [20:5895] [35:5920] [52:6017] [68:6112] [69:6156] [80:6164] [86:6131] [98:6151] [106:6225] [80:6322] [96:6401] [103:6427] [91:6448] [100:6497] [101:6513] [113:6428] [174:6149] [169:6095] [135:6213] [131:6291] [129:6297] [124:6311] [143:6296] [154:6274] [163:6255] [160:6260] [145:6212] [140:6130] [167:6062] [198:6009] [195:5919] [183:5856] [140:5817] [138:5798] [148:5835] [170:5946]
tree_sizes=2988 2979 2986 2677 1596 2981 1973 2976 548 3028 3017 3028 3057 3166 3022 3098 3026 3173 3032 3011 3014 3031 3163 3020 3105 3031 3172 3048 3015 3027 3027 3167 3037 3094 3025 3176 3031 3023 3012 3026 3171 3016 3085 3019 3181 3036 3031 3024 3033 3168 3032 3088 3032 3174 3048 3043 3022 3045 3161 3024 3079 3038 3181 3047 3044 3019 3018 3163 3028 3071 3030 3176 3049 3045 3035 3054 3167 3045 3089 3024 3168 3027 3052 3034 3037 3167 3035 3101 3048 3188 3040 3036 3030 3043 3167 3043 3069 3035 3191 3051 3044 3031 3048 3171 3040 3094 3029 3193 3032 3056 3029 3048 3178 3063 3090 3036 3191 3038 3048 3025 3057 3181 3046 3077 3037 3187 3041 3055 3035 3065 3179 3044 3103 3036 3199 3040 3038 3045 3055 3183 3054 3118 3045 3191 3039 3051 3036 3055 3190 3055 3083 3055 3205 3031 3057 3051 3052 3188 3052 3099 3045 3188 3053 3057 3039 3068 3201 3062 3122 3046 3195 3059 3056 3055 3074 3183 3063 3083 3047 3196 3041 3057 3036 3067 3191 3058 3094 3032 3203 3049 3057 3044 3068 3193 3053 3079 3050 3213 3035 3065 3051 3071 3194 3061 3087 3056 3205 3053 3071 3056 3088 3197 3067 3091 3060 3216 3038 3078 3064 3059 3203 3064 3102 3052 3207 3055 3060 3053 3092 3193 3067 3079 3046 3223 3056 3084 3072 3090 3194 3084 3103 3052 3222 3057 3095 3061 3087 3202 3079 3090 3058 3215 3053 3099 3068 3115 3208 3083 3112 3060 3222 3058 3092 3071 3089 3201 3091 3098 3076 3227 3063 3086 3070 3099 3208 3090 3081 3050 3235 3078 3097 3077 3112 3208 3092 3108 3078 3234 3081 3089 3076 3092 3224 3100 3073 3076 3235 3083 3098 3081 3129 3227 3099 3125 3086 3242 3066 3102 3089 3133 3196 3101 3105 3083 3237 3101 3110 3093 3132 3236 3115 3104 3086 3251 3116 3103 3097 3134 3199 3109 3145 3082 3258 3085 3120 3098 3140 3233 3112 3149 3086 3250 3108 3118 3108 3141 3203 3112 3129 3098 3254 3099 3131 3108 3144 3237 3110 3110 3097 3242 3091 3120 3106 3129 3213 3116 3140 3116 3249 3119 3130 3106 3142 3244 3112 3127 3118 3258 3129 3130 3118 3152 3217 3121 3132 3104 3264 3113 3122 3104 3145 3210 3116 3149 3091 3262 3116 3126 3110 3151 3228 3125 3156 3105 3269 3109 3128 3124 3132 3246 3116 3176 3101 3275 3124 3133 3116 3149 3244 3122 3169 3118 3279 3110 3143 3117 3154 3257 3124 3154 3128 3280 3114 3139 3120 3153 3251 3132 3156 3123 3292 3128 3128 3118 3152 3252 3116 3163 3132 3291 3134 3154 3121 3152 3259 3129 3142 3123 3286 3135 3133 3121 3175 3261 3129 3155 3132 3289 3128 3138 3136 3172 3263 3138 3142 3135 3293 3156 3131 3137 3164 3263 3135 3172 3136 3299 3150 3140 3141 3181 3271 3134 3172 3145 3296 3153 3159 3148 3178 3264 3149 3172 3143 3296 3158 3155 3143 3179 3268 3149 3183 3159 3306 3160 3166 3136 3182 3280 3157 3184 3155 3309 3165 3167 3159 3190 3288 3140 3184 3147 3304 3180 3168 3162 3175 3295 3161 3204 3168 3318 3167 3176 3172 3204 3294 3153 3214 3152 3306 3180 3147 3165 3194 3302 3158 3182 3182 3314 3167 3164 3159 3190 3295 3161 3201 3157 3306 3197 3184 3166 3210 3305 3167 3192 3188 3315 3191 3171 3177 3195 3298 3172 3218 3177 3307 3181 3175 3178 3207 3303 3179 3201 3179 3322 3177 3181 3190 3202 3299 3163 3233 3177 3331 3192 3183 3191 3206 3304 3181 3239 3181 3331 3200 3178 3198 3219 3312 3180 3198 3189 3324 3188 3196 3200 3215 3316 3184 3236 3177 3343 3198 3196 3192 3223 3312 3194 3247 3191 3348 3193 3212 3195 3231 3323 3183 3230 3176 3328 3199 3196 3212 3222 3327 3197 3238 3189 3347 3195 3185 3202 3215 3319 3193 3224 3196 3350 3209 3198 3214 3231 3333 3186 3232 3208 3344 3218 3209 3210 3238 3333 3197 3218 3200 3335 3232 3208 3208 3231 3332 3179 3225 3208 3002 3223 3198 3199 3223 3344 3193 3237 3200 2650 3239 3216 3215 3250 2996 3208 3259 3202 2306 3236 3224 3221 3228 2758 3205 3228 3224 2309 3230 3198 3214 3244 2300 3204 3234 3222 2072 3231 3212 3218 3233 2304 3190 3239 3231 1846 3228 3229 3236 3242 2304 3220 3281 3228 1843 3246 3233 3231 3251 2065 3206 3264 3233 1500 3245 3202 3227 3243 1952 3217 3277 3237 1378 3239 3214 3239 3240 1728 3203 3264 3241 1389 3260 3227 3252 3265 1850 3207 3279 3244 1272 3251 3221 3254 3260 1496 3220 3269 3247 1160 3265 3235 3239 3276 1491 3225 3273 3238 1160 3263 3218 3247 3271 1373 3213 3285 3250 932 3245 3216 3276 3243 1381 3231 3187 3250 821 3261 3237 3273 3257 1152 3228 3278 3254 705 3273 3228 3250 3265 1151 3227 3279 3259 707 3282 3228 3269 3277 1035 3222 3304 3251 589 3273 3236 3261 3269 926 3232 3270 3267 592 3278 3239 3278 3264 810 3231 3181 3255 591 3276 3231 3275 3269 814 3251 2960 3256 472 3286 3246 3274 3279 697 3244 3189 3265 475 3282 3265 3295 3266 700 3259 2727 3278 474 3286 3250 3280 3274 699 3241 2931 3277 473 3282 3259 3272 3281 697 3250 3077 3277 358 3294 3264 3301 3288 699 3254 2382 3274 357 3286 3274 3310 3280 590 3261 2743 3275 358 3284 3278 3300 3290 476 3259 2158 3270 358 3303 3265 3291 3282 586 3246 2624 3281 359 3304 3282 3297 3298 469 3274 2396 3282 223 3302 3269 3295 3294 474 3272 2166 3285 223 3307 3293 3293 3297 469 3249 2164 3292 223 3309 3288 3294 3296 470 3268 2176 3301 223 3314 3283 3313 3299 357 3261 2065 3299 223 3318 3280 3302 3297 359 3267 1826 3298 223 3314 3266 3310 3188 357 3292 1952 3309 224 3318 3283 3316 3290 360 3288 1610 3062 224 3323 3283 3327 3191 359 3287 1728 3328 224 2872 3277 3335 3191 360 3274 1720 3323 224 3098 3285 3199 2614 359 3260 1610 2984 224 2870 3288 3213 2857 359 3277 1378 3210 224 3318 3287 2867 3187 359 3282 1607 3322 224 3213 3300 3084 2633 360 3280 1484 2864 224 2976 3283 2990 3201 359 3281 1371 2854 224 2758 3292 2526 2736 359 3277 1266 2744 224 2858 3297 2415 3082 357 3285 1154 2737 224 2525 3292 2523 2638 360 3277 1154 2532 224 2412 3287 2299 2507 360 3287 1153 2641 224 2410 3299 2307 3089 358 3289 1041 2169 224 2424 3289 2176 2735 359 3295 1033 2286 224 2290 3307 2175 2280 360 3296 1040 2308 224 2181 3315 2193 2863 224 3310 1035 2190 224 2187 3304 1843 2413 224 3307 1043 2076 224 2078 3305 1957 2739 224 3300 929 1946 224 1950 3300 1963 2523 224 3313 817 2074 224 1963 3302 1848 2519 224 3313 819 1962 224 1837 3306 1724 2178 224 3314 817 1832 224 1850 3326 1836 2408 224 3312 815 1729 224 1844 3318 1616 2187 224 3322 817 1836 224 1733 3307 1611 2186 224 3315 819 1845 224 1955 3331 1605 2311 224 3316 817 1734 224 1619 3328 1497 2067 224 3315 817 1618 224 1612 3323 1381 1957 224 3335 816 1498 224 1716 3326 1389 1841 224 3316 706 1492 224 1509 3337 1493 1727 224 3329 701 1503 224 1505 3343 1161 1953 224 3339 815 1487 224 1499 3345 1383 1960 224 3327 704 1383 224 1621 3354 1275 1610 224 3323 701 1396 224 1390 3355 1385 1728 224 3340 705 1278 224 1283 3352 1151 1381 224 3329 590 1283 224 1387 3334 1159 1616 224 3348 699 1381 224 1393 3351 1270 1380 224 3345 590 1383 224 1391 3355 1156 1377 224 3336 592 1163 224 1391 3336 1271 1381 224 3348 592 1281 224

Tree=0
num_leaves=28
num_cat=0
split_feature=102 45 47 96 82 3 16 14 84 27 4 101 1 73 36 97 99 45 10 58 2 71 36 15 102 97 99
split_gain=709.425 589.262 1035.33 84.883 67.1998 60.7133 37.6205 50.9796 20.1483 17.2924 15.2388 6.30553 10.075 13.6059 5.38446 4.66455 4.39101 2.12698 0.790004 0.754633 0.619076 0.154145 0.693188 2.55601 0.386558 0.082736 0.0295416
threshold=1632.5000000000002 669.50000000000011 1286.5000000000002 1339.5000000000002 1579.5000000000002 1200.5000000000002 1227.5000000000002 1083.0000000000002 1718.5000000000002 1218.5000000000002 1284.5000000000002 1886.5000000000002 913.50000000000011 1750.5000000000002 1609.0000000000002 1443.5000000000002 1396.5000000000002 1417.5000000000002 1299.5000000000002 3125.0000000000005 651.50000000000011 2106.5000000000005 1459.5000000000002 854.50000000000011 2171.5000000000005 1739.5000000000002 1929.5000000000002
decision_type=2 2 2 2 2 2 2 2 2 2 2 2 2 2 2 2 2 2 2 2 2 2 2 2 2 2 2
left_child=1 -1 9 -4 6 -6 7 -5 -2 16 15 12 13 -10 -14 17 20 -8 -16 21 -3 26 23 -23 -24 -20 -13
right_child=8 2 3 4 5 -7 10 -9 11 -11 -12 19 14 -15 18 -17 -18 -19 25 -21 -22 22 24 -25 -26 -27 -28
leaf_value=-2.2972245856630313 -2.1361536972122828 -1.4498668496653113 -1.7472294810904208 -2.2022321335087502 -1.6291619385769665 -2.1420404466028495 -2.2972245856630313 -1.7898910945608333 -2.2732130176087164 -1.695876040567398 -2.1082790973614554 -2.2927406841632298 -2.1892947622938572 -1.9582551971000539 -2.2578654094594799 -2.1916125332462495 -1.5107832538484858 -2.2387868332725871 -2.2831896524408677 -2.2407385107029283 -1.3972245856630312 -2.2972245856630313 -2.2675057853426077 -2.1375383964076624 -2.2972245856630313 -2.2972245856630313 -2.2972245856630313
leaf_weight=53.464728450402617 8.9001255687326175 2.4530951380729737 6.1252275407314292 6.7910449206829053 4.6135417819023115 4.6188713014125824 14.292397499084474 5.3687509298324585 2.9851260222494593 2.383893907070159 9.8632493913173658 15.985533276572822 6.6411260943859807 2.5374877750873566 7.2844569981098166 10.180309206247328 4.2836573123931876 11.03906264901161 5.1070821285247829 2.5378841310739508 25.007503092288971 3.9212168063968411 4.8237180411815634 1.3465952873229978 47.234801603481174 23.654523849487305 181.7772111762315
leaf_count=100 57 30 53 32 47 21 36 45 43 22 47 117 38 19 41 38 49 35 24 13 314 76 29 34 204 131 2582
internal_value=-2.19722 -2.02612 -1.89068 -2.10351 -2.13619 -1.88575 -2.17638 -2.02018 -2.28447 -1.43612 -2.21824 -2.28879 -2.25559 -2.1285 -2.27204 -2.24878 -1.41662 -2.27176 -2.28728 -2.295 -1.40193 -2.29554 -2.29097 -2.2564 -2.29447 -2.29473 -2.29686
internal_weight=0 160.485 107.021 72.8925 66.7672 9.23241 57.5348 12.1598 314.737 34.1281 45.375 305.837 48.2098 5.52261 42.6872 35.5118 31.7443 25.3315 36.0461 257.627 27.4606 255.089 57.3263 5.26781 52.0585 28.7616 197.763
internal_count=4277 869 769 354 301 68 233 77 3408 415 156 3351 296 62 234 109 393 71 196 3055 344 3042 343 110 233 155 2699
is_linear=0
shrinkage=1


Tree=1
num_leaves=28
num_cat=0
split_feature=14 69 91 99 61 63 31 68 37 85 12 82 84 102 80 34 101 82 68 8 82 61 65 11 68 5 14
split_gain=546.1 797.165 107.232 209.943 99.3451 92.2383 51.1553 46.6537 36.5346 43.7454 45.0656 35.0052 79.0275 55.5298 36.7839 31.9417 25.0544 62.755 18.8891 19.7191 17.3373 17.1689 16.4464 15.5883 37.6596 17.4172 14.0641
threshold=859.50000000000011 1110.5000000000002 3932.5000000000005 2537.5000000000005 292.00000000000006 684.50000000000011 1151.5000000000002 1192.5000000000002 1316.5000000000002 3113.0000000000005 410.50000000000006 2007.0000000000002 1937.5000000000002 2453.5000000000005 2460.5000000000005 766.50000000000011 2206.5000000000005 2160.5000000000005 782.00000000000011 420.50000000000006 1856.5000000000002 1386.0000000000002 421.00000000000006 936.50000000000011 1709.5000000000002 891.50000000000011 275.50000000000006
decision_type=2 2 2 2 2 2 2 2 2 2 2 2 2 2 2 2 2 2 2 2 2 2 2 2 2 2 2
left_child=1 18 3 5 22 -3 7 15 9 21 26 12 -9 16 -15 20 -13 -18 -1 -20 -7 -5 -4 24 -2 -26 -11
right_child=23 2 4 8 -6 6 -8 11 -10 10 -12 13 -14 14 -16 -17 17 -19 19 -21 -22 -23 -24 -25 25 -27 -28
leaf_value=-2.2947327954779091 -2.2972245937529303 -1.4513016731183854 -1.4702695021097054 -1.5125372114779225 -2.2581092875246762 -1.7047628396787906 -2.2429181344120663 -2.0628907225378685 -2.154294631995771 -1.8916281133679802 -2.1108900878590346 -2.2251939809272749 -1.397224541121552 -1.5709553385942079 -2.0457792412958957 -2.2443327424451991 -1.5108260458760909 -2.0717444727772305 -2.0345764654863356 -2.2649540189840365 -2.0591806731144473 -1.9207197378155012 -1.9406043158706898 -2.2940016335532789 -2.092125685579775 -1.687700858399213 -1.4958901981093136
leaf_weight=81.807856172323227 10.352050997316836 3.4941786229610434 2.1261067725718017 21.302230313420306 11.725832231342791 2.1504412889480573 6.5689272582530966 3.153412874788045 1.2479370199143875 1.2564746290445317 3.0084811896085739 4.9525495767593446 4.1052855737507343 5.4381595365703097 2.3307845406234264 7.2263733632862568 2.494973447173833 9.9447144791483861 6.1120112501084796 9.4752886965870839 3.8535705283284187 1.0828475207090367 1.1432253718376157 260.90169652923942 3.2301887869834891 1.5885865464806554 3.1480332873761654
leaf_count=272 120 118 70 682 83 57 70 50 17 24 37 57 145 165 39 81 80 159 92 97 63 22 20 1463 50 43 101
internal_value=-2.19722 -2.07101 -1.87527 -1.83259 -2.1222 -1.94872 -1.982 -1.94445 -1.62421 -1.60201 -1.81256 -1.87987 -1.68641 -1.93569 -1.71341 -2.1027 -2.03497 -1.95924 -2.27551 -2.17462 -1.93224 -1.53228 -1.63474 -2.28827 -2.18973 -1.9588 -1.60878
internal_weight=0 199.15 101.755 86.7594 14.9952 55.7134 52.2192 45.6503 31.046 29.7981 7.41299 32.4199 7.2587 25.1612 7.76894 13.2304 17.3922 12.4397 97.3952 15.5873 6.00401 22.3851 3.26933 276.073 15.1708 4.81878 4.40451
internal_count=4277 2601 2140 1967 173 1084 966 896 883 866 162 695 195 500 204 201 296 239 461 189 120 704 90 1676 213 93 125
is_linear=0
shrinkage=1


Tree=2
num_leaves=28
num_cat=0
split_feature=57 13 82 2 57 82 82 85 93 74 6 50 20 82 93 82 57 37 33 95 74 0 82 2 88 0 66
split_gain=585.994 632.819 284.578 101.345 71.6241 118.875 62.8359 60.1325 40.2772 54.4481 39.7362 28.1881 85.5479 272.292 26.4106 22.6317 26.2581 9.18895 34.6969 8.01261 5.11387 0.926073 0.619703 0.612802 1.19726 2.84217e-14 7.10543e-15
threshold=1598.0000000000002 1442.5000000000002 2102.5000000000005 1077.5000000000002 1967.5000000000002 1920.5000000000002 1713.5000000000002 1917.5000000000002 1941.0000000000002 1809.5000000000002 1276.5000000000002 1321.5000000000002 1179.5000000000002 1507.5000000000002 1852.5000000000002 1788.5000000000002 1841.5000000000002 2225.5000000000005 2015.5000000000002 2211.5000000000005 1604.5000000000002 1508.5000000000002 1382.5000000000002 1105.5000000000002 1144.5000000000002 1333.5000000000002 2291.5000000000005
decision_type=2 2 2 2 2 2 2 2 2 2 2 2 2 2 2 2 2 2 2 2 2 2 2 2 2 2 2
left_child=11 2 3 15 5 6 -5 10 9 -3 -8 23 13 -13 -11 -2 -17 18 21 -4 22 -10 -14 25 -25 -1 -19
right_child=1 8 19 4 -6 -7 7 -9 17 14 -12 12 20 -15 -16 16 -18 26 -20 -21 -22 -23 -24 24 -26 -27 -28
leaf_value=-2.2972245401338358 -1.8288809832081863 -2.2972245401338358 -2.0858986846137868 -1.4508664726174425 -1.4801192768060312 -2.1534296077949131 -2.1175277559257029 -1.5644811769945455 -2.2972245401338358 -1.7809979842791019 -1.7696926032716993 -1.5003128721076124 -2.2660023704615542 -2.2972245401338358 -2.0989011864913429 -2.2495654669265357 -1.9019764669884867 -2.2972245401338358 -1.9906987927118933 -2.2972245401338358 -2.2049805938011877 -2.2437330420902653 -2.2972245401338358 -2.2162348966514092 -2.2972245401338358 -2.2972245401338358 -2.2972245401338358
leaf_weight=214.79998793266714 5.3150286599993697 8.1786603480577487 2.1416812539100638 8.8234265968203527 12.462695419788359 6.2949732076376668 5.0372924059629467 9.2650301456451398 13.774558067321783 4.8220290094614011 9.437379062175749 6.2472656071186092 7.2479367703199378 13.668550549075006 5.7052361071109772 4.7482314780354482 4.0077973529696465 14.434197917580603 5.1678340062499037 11.058152416720985 7.3597126081585875 4.2305098921060553 51.720752865076065 2.7941388785839063 5.2639823611825705 2.6711776293814173 28.544022239744663
leaf_count=2716 39 35 22 38 53 43 33 42 96 28 51 27 49 228 36 40 24 38 32 136 32 29 195 23 63 36 93
internal_value=-2.19722 -2.04386 -1.8394 -1.75391 -1.68872 -1.75562 -1.67872 -1.76341 -2.23322 -2.10366 -1.89074 -2.27763 -2.229 -2.04725 -1.95329 -1.99166 -2.09047 -2.26986 -2.2191 -2.26294 -2.28358 -2.28466 -2.29339 -2.29622 -2.26914 -2.29722 -2.29722
internal_weight=0 163.449 78.5917 65.3919 51.3208 38.8581 32.5631 23.7397 84.857 18.7059 14.4747 311.774 86.2442 19.9158 10.5273 14.0711 8.75603 66.1511 23.1729 13.1998 66.3284 18.0051 58.9687 225.529 8.05812 217.471 42.9782
internal_count=4277 908 521 363 260 207 164 126 387 99 84 3369 531 255 64 103 64 288 157 158 276 125 244 2838 86 2752 131
is_linear=0
shrinkage=1


Tree=3
num_leaves=25
num_cat=0
split_feature=88 85 72 70 91 15 96 23 17 69 11 70 68 52 71 14 17 85 3 3 24 0 0 46
split_gain=2036.71 284.367 551.171 82.401 77.555 103.651 35.64 24.6774 21.2824 45.9585 16.145 5.21864 9.4865 3.55438 3.11663 6.9235 2.51428 0.790078 0.0420444 1.45196 0.00820634 5.68434e-14 7.10543e-15 3.55271e-15
threshold=3479.5000000000005 2884.5000000000005 1765.5000000000002 1344.5000000000002 3847.5000000000005 301.50000000000006 3663.5000000000005 452.50000000000006 285.50000000000006 178.00000000000003 324.50000000000006 1641.5000000000002 1124.5000000000002 331.50000000000006 1443.5000000000002 305.50000000000006 392.50000000000006 2823.5000000000005 591.50000000000011 583.50000000000011 431.50000000000006 1541.5000000000002 1084.5000000000002 3407.5000000000005
decision_type=2 2 2 2 2 2 2 2 2 2 2 2 2 2 2 2 2 2 2 2 2 2 2 2
left_child=1 8 13 14 6 7 -5 -6 9 -1 -9 12 -4 -3 20 -16 -7 18 19 22 -2 -20 -10 -13
right_child=3 2 11 4 5 16 -8 10 17 -11 -12 23 -14 -15 15 -17 -18 -19 21 -21 -22 -23 -24 -25
leaf_value=-2.2972245792663677 -1.3972245792663678 -1.3972245792663673 -2.2972245792663673 -1.7887806083568951 -1.602423689371681 -1.4958400029466312 -2.2972245792663677 -2.2972245792663677 -2.2972245792663677 -2.081239583473069 -1.8028210505907643 -2.2972245792663677 -1.9613358712037332 -1.5095983450192829 -1.5997051639528106 -1.4069625661570511 -1.3972245792663678 -2.2450309176136698 -2.2972245792663677 -2.20057899209765 -1.4021200572117403 -2.2972245792663677 -2.2972245792663677 -2.2972245792663677
leaf_weight=28.346588373184204 10.008310973644258 7.4199546873569471 2.1351876631379159 3.0544442664831903 1.117596274241804 3.8758264575153571 2.5128236804157495 2.2083606608211999 45.565396660938859 15.099793894216416 0.94235599972307671 7.6232860367745188 1.3870788756757972 4.5350592955946922 2.8944253865629417 5.2333372049033642 7.7650688588619232 2.9754834640771142 246.57906598038971 1.6069163810461748 5.2050248887389889 53.188545390963554 2.0949902627617112 11.847300261259077
leaf_count=51 58 43 70 47 14 35 50 78 866 51 18 58 31 43 36 32 45 45 2267 30 31 199 46 33
internal_value=-2.19722 -2.26403 -1.9906 -1.55567 -1.69703 -1.58462 -2.01827 -2.00615 -2.28819 -2.22216 -2.14935 -2.27696 -2.16495 -1.43985 -1.42561 -1.4756 -1.43006 -2.29634 -2.29678 -2.29407 -1.3989 -2.29722 -2.29722 -2.29722
internal_weight=0 430.405 34.9479 44.8176 21.4765 15.9092 5.56727 4.26831 395.457 43.4464 3.15072 22.9929 3.52227 11.955 23.3411 8.12776 11.6409 352.01 349.035 49.2673 15.2133 299.768 47.6604 19.4706
internal_count=4277 3833 278 444 287 190 97 110 3555 102 96 192 101 86 157 68 80 3453 3408 942 89 2466 912 91
is_linear=0
shrinkage=1


Tree=4
num_leaves=14
num_cat=0
split_feature=9 11 1 16 22 75 24 42 30 23 22 37 72
split_gain=3727.25 4.07831 1.13687e-13 8.52651e-14 5.68434e-14 4.26326e-14 2.84217e-14 2.13163e-14 1.06581e-14 7.10543e-15 3.55271e-15 3.55271e-15 3.55271e-15
threshold=2189.5000000000005 3324.5000000000005 1046.5000000000002 1473.5000000000002 1463.5000000000002 1867.5000000000002 1492.5000000000002 2161.5000000000005 1722.5000000000002 1695.5000000000002 1630.5000000000002 1669.5000000000002 1789.5000000000002
decision_type=2 2 2 2 2 2 2 2 2 2 2 2 2
left_child=2 -2 4 6 -1 11 -4 9 12 -7 -6 -5 -8
right_child=1 -3 3 5 10 7 8 -9 -10 -11 -12 -13 -14
leaf_value=-2.2972246072340714 -1.4613008376424128 -1.3972245468565985 -2.2972246066984732 -2.2972246071214926 -2.2972246040090827 -2.2972245993029823 -2.2972246039948967 -2.2972246058385801 -2.2972246059781023 -2.2972245981573916 -2.2972246007232293 -2.2972246052284455 -2.2972246019653988
leaf_weight=257.22248519212008 13.1518532410264 40.58696910738945 67.421335812658072 6.2081130743026725 10.667698215693234 14.238184690475466 6.6392182111740174 4.8922372460365287 11.848398044705389 17.322925433516502 4.4894576817750922 8.3829226791858655 12.150415781885384
leaf_count=3082 40 103 468 29 63 90 32 39 60 116 35 48 72
internal_value=-2.19722 -1.41291 -2.29722 -2.29722 -2.29722 -2.29722 -2.29722 -2.29722 -2.29722 -2.29722 -2.29722 -2.29722 -2.29722
internal_weight=0 53.7388 421.483 149.104 272.38 51.0444 98.0594 36.4533 30.638 31.5611 15.1572 14.591 18.7896
internal_count=4277 143 4134 954 3180 322 632 245 164 206 98 77 104
is_linear=0
shrinkage=1


Tree=5
num_leaves=28
num_cat=0
split_feature=96 102 4 62 82 84 100 77 82 84 31 101 89 94 13 51 84 82 78 100 33 29 11 8 32 68 0
split_gain=399.369 481.857 355.338 128.749 73.674 176.589 57.2128 116.441 48.68 76.1776 43.3597 110.826 45.8717 30.6277 30.0525 239.334 46.5357 36.1309 28.4222 64.0842 23.096 16.8969 16.7168 16.3563 24.3511 28.0806 22.3429
threshold=1997.5000000000002 2637.5000000000005 1209.5000000000002 656.00000000000011 2117.5000000000005 2067.5000000000005 2846.0000000000005 2616.5000000000005 1989.5000000000002 1954.0000000000002 1156.5000000000002 2375.5000000000005 2321.5000000000005 2327.5000000000005 626.50000000000011 554.50000000000011 1840.0000000000002 1863.5000000000002 2541.5000000000005 2672.5000000000005 819.50000000000011 1205.5000000000002 936.50000000000011 722.50000000000011 1056.5000000000002 1584.5000000000002 588.50000000000011
decision_type=2 2 2 2 2 2 2 2 2 2 2 2 2 2 2 2 2 2 2 2 2 2 2 2 2 2 2
left_child=14 2 3 -2 5 8 7 18 9 -5 11 -6 -12 -4 15 -1 -17 -18 -3 21 -13 -20 -9 24 26 -26 -22
right_child=1 6 13 4 10 -7 -8 22 -10 -11 12 20 -14 -15 -16 16 17 -19 19 -21 23 -23 -24 -25 25 -27 -28
leaf_value=-2.2972246127547855 -2.2270244709306906 -2.2694685999243855 -2.2972246100681728 -1.4616154810423745 -1.5465198591336136 -2.2745659500425148 -2.2757091120221804 -1.8063959977650805 -1.4083747217303837 -2.25829787355593 -1.9324217748575065 -1.6486699505074713 -1.4903995141582156 -2.0143043388427979 -2.2972246100786404 -1.5608546829916801 -2.2972246127547855 -1.5690645345011651 -1.9140054344086774 -2.2387415340506847 -1.7880660349275215 -1.461615481042374 -1.3972246127547856 -2.2972246127547855 -1.5401545661534997 -2.0703389677824084 -2.1462830827755117
leaf_weight=52.990822851657867 6.729158326983451 17.019298549741514 21.076508071273569 2.3743506073951739 12.459332060068848 8.3392020016908628 83.431658141314983 2.1173445880413047 4.5705531537532806 2.4270611591637135 2.8488081879913834 2.3307845406234291 13.349167533218859 4.675119310617446 203.79407707974315 5.6452783830463868 1.9837853945791724 1.0379868559539316 1.7257565744221195 6.4618741609156132 2.4122316949069482 1.5829004049301145 1.8895514756441114 1.5288649722933758 2.4958740398287764 1.6656421571969984 6.2592166513204575
leaf_count=105 163 253 111 27 172 192 746 45 45 67 56 39 161 26 1296 73 66 15 42 161 50 18 18 54 34 48 194
internal_value=-2.19722 -2.0941 -1.92838 -1.81123 -1.76686 -1.93982 -2.23271 -2.11623 -1.64197 -1.86433 -1.69932 -1.7722 -1.56814 -2.24586 -2.27872 -2.21755 -1.73038 -2.0471 -2.19143 -2.05548 -1.94065 -1.69758 -1.61344 -1.98804 -1.95121 -1.75236 -2.04663
internal_weight=0 209.77 95.5419 69.7902 63.0611 17.7112 114.228 30.7967 9.37196 4.80141 45.3499 29.1519 16.198 25.7516 265.452 61.6579 8.66705 3.02177 26.7898 9.77053 16.6926 3.30866 4.0069 14.3618 12.833 4.16152 8.67145
internal_count=4277 2722 1439 1302 1139 331 1283 537 139 94 808 591 217 137 1555 259 154 81 474 221 419 60 63 380 326 82 244
is_linear=0
shrinkage=1


Tree=6
num_leaves=18
num_cat=0
split_feature=101 13 35 13 101 82 100 63 15 1 94 97 88 59 78 4 77
split_gain=825.259 1622.37 167.774 93.1884 73.8827 73.8085 55.9793 27.1165 8.72174 5.36444 4.24866 1.17021 0.801695 0.60517 0.716332 5.68434e-14 1.42109e-14
threshold=1653.5000000000002 1174.5000000000002 1543.5000000000002 1388.5000000000002 1527.5000000000002 1366.5000000000002 1460.5000000000002 1451.5000000000002 1097.0000000000002 1153.5000000000002 1671.5000000000002 1739.5000000000002 1417.0000000000002 2735.0000000000005 3288.5000000000005 1284.5000000000002 1097.0000000000002
decision_type=2 2 2 2 2 2 2 2 2 2 2 2 2 2 2 2 2
left_child=1 7 5 -4 -5 -3 9 8 16 12 -2 -12 -7 15 -15 -13 -1
right_child=10 2 3 4 -6 6 -8 -9 -10 -11 11 13 -14 14 -16 -17 -18
leaf_value=-2.2972245928122446 -2.1725842743019976 -1.8479022959090869 -2.2972245928122446 -2.0340960615681904 -1.5253841183426458 -1.4402048427496399 -1.7359869051346284 -2.078787527406261 -2.1674211330205972 -1.5000302008994963 -2.2610143807927288 -2.2972245928122446 -1.4026625355663667 -2.2590348831366787 -2.2972245928122446 -2.2972245928122446 -2.2972245928122446
leaf_weight=58.14845472574234 2.8667283728718749 7.1569772064685813 4.6581635177135494 5.4317171275615674 6.0181207656860352 10.006115376949312 8.2764028310775739 6.5430276095867148 5.5053992867469779 12.549860298633574 9.8676565960049611 183.96858868375421 13.181006103754042 9.3561836555600184 10.339207872748373 92.866376649588346 28.482231725007296
leaf_count=158 14 54 31 44 20 30 47 46 59 46 55 2818 34 29 32 434 326
internal_value=-2.19722 -2.01733 -1.63867 -1.92013 -1.76671 -1.55007 -1.50164 -2.2755 -2.28947 -1.44737 -2.29376 -2.29489 -1.41886 -2.29602 -2.27908 -2.29722 -2.29722
internal_weight=0 165.957 67.2784 16.108 11.4498 51.1704 44.0134 98.6791 92.1361 35.737 309.265 306.398 23.1871 296.53 19.6954 276.835 86.6307
internal_count=4277 895 306 95 64 211 157 589 543 110 3382 3368 64 3313 61 3252 484
is_linear=0
shrinkage=1


Tree=7
num_leaves=28
num_cat=0
split_feature=57 101 12 95 2 18 0 32 82 23 4 18 66 7 88 97 42 101 36 91 57 28 46 32 67 12 6
split_gain=825.228 573.778 243.765 215.823 73.481 104.792 65.6381 46.1459 84.4145 44.7055 42.9261 31.4559 24.2169 28.799 48.2335 74.7075 18.9321 16.4036 21.9641 10.8438 1.0179 0.90154 0.0678255 4.01691 5.401 9.9476e-14 2.84217e-14
threshold=1674.5000000000002 2222.5000000000005 1372.5000000000002 1724.5000000000002 1555.0000000000002 1539.5000000000002 1364.5000000000002 1752.5000000000002 1851.5000000000002 1437.5000000000002 1346.5000000000002 1363.5000000000002 1577.5000000000002 1249.5000000000002 2094.5000000000005 1707.5000000000002 2094.0000000000005 2413.5000000000005 2085.5000000000005 1926.5000000000002 1535.5000000000002 1857.5000000000002 980.50000000000011 921.50000000000011 1316.5000000000002 1144.0000000000002 463.50000000000006
decision_type=2 2 2 2 2 2 2 2 2 2 2 2 2 2 2 2 2 2 2 2 2 2 2 2 2 2 2
left_child=12 2 7 -4 5 6 10 8 11 -10 -5 -2 20 14 15 -14 19 18 -3 -7 22 -21 26 24 -24 -25 -1
right_child=1 17 3 4 -6 16 -8 -9 9 -11 -12 -13 13 -15 -16 -17 -18 -19 -20 21 -22 -23 23 25 -26 -27 -28
leaf_value=-2.2972245391304376 -2.2525752848772762 -1.9441331047424182 -2.2583454565707295 -1.4413374854158776 -2.0037517073419489 -1.5774204045265336 -2.0474928989951424 -2.2238599706267115 -2.0413928175594496 -1.6310750196967811 -1.8540521258451874 -1.993597207099302 -2.21913247135674 -2.2972245401782176 -2.2972245391304376 -1.6442661783405885 -1.662116855446496 -2.2972245391304376 -2.2972245391304376 -1.3972245391304376 -2.2543342680710095 -1.4502335021111818 -2.0510265755811883 -2.2972245393953501 -2.2972245405811105 -2.2972245446034312 -2.2972245391304376
leaf_weight=105.80868959799409 8.6767281815409714 3.2915789615362874 6.6429792046546927 5.1299296617507952 5.2803449407219878 5.0233408212661805 6.722313053905963 10.561213731765745 4.038169499486683 7.7542040105909109 4.9536481201648712 10.207498595118521 4.960932098329069 17.06597863137722 7.6910812500864258 4.153199166059494 5.0832514390349379 43.51688483543694 3.790470115840435 12.913648188114168 6.0217137262225142 4.2690197825431815 1.5735688470304006 67.499255018308759 2.0543791353702545 53.908884957432747 56.629335217177868
leaf_count=989 40 51 33 35 24 32 33 44 35 53 27 55 34 54 142 31 33 177 17 90 32 29 28 1052 46 245 816
internal_value=-2.19722 -2.00114 -1.85905 -1.72322 -1.65122 -1.60901 -1.80545 -2.04357 -1.9815 -1.77158 -1.64409 -2.11259 -2.28578 -2.20572 -2.1128 -1.95717 -1.48803 -2.27426 -2.13312 -1.44818 -2.29502 -1.41039 -2.29588 -2.29413 -2.19044 -2.29722 -2.29722
internal_weight=0 147.855 97.2563 56.0185 49.3755 44.0952 16.8059 41.2378 30.6766 11.7924 10.0836 18.8842 327.367 33.8712 16.8052 9.11413 27.2893 50.5989 7.08205 22.206 293.496 17.1827 287.474 125.036 3.62795 121.408 162.438
internal_count=4277 808 563 336 303 279 95 227 183 88 62 95 3469 261 207 65 184 245 68 151 3208 119 3176 1371 74 1297 1805
is_linear=0
shrinkage=1


Tree=8
num_leaves=4
num_cat=0
split_feature=81 72 0
split_gain=3757.09 1.14565 4.54747e-13
threshold=954.00000000000011 261.50000000000006 630.50000000000011
decision_type=2 2 2
left_child=1 2 -1
right_child=-2 -3 -4
leaf_value=-1.3972246309413707 -2.2972245451508266 -1.4294609723818152 -1.3972246309413707
leaf_weight=20.565174162387848 421.86227442882955 15.564511142671106 17.230281054973602
leaf_count=37 4175 34 31
internal_value=-2.19722 -1.40663 -1.39722
internal_weight=0 53.36 37.7955
internal_count=4277 102 68
is_linear=0
shrinkage=1


Tree=9
num_leaves=28
num_cat=0
split_feature=102 45 52 13 28 82 33 14 41 59 19 101 42 82 3 93 64 99 58 10 35 84 0 2 71 37 20
split_gain=521.668 309.515 326.834 34.8434 39.0929 22.4914 33.6156 19.8443 8.89039 15.0243 10.4646 7.87729 11.0337 23.0214 7.83145 4.5494 4.07198 4.58483 0.815777 0.696847 0.364184 0.363488 0.256377 0.173927 0.1721 0.694409 2.71028
threshold=1687.0000000000002 669.50000000000011 1339.5000000000002 1232.5000000000002 1601.5000000000002 1479.5000000000002 1417.0000000000002 1216.5000000000002 1407.5000000000002 1467.5000000000002 1439.5000000000002 1886.5000000000002 1714.5000000000002 1817.5000000000002 1154.5000000000002 1744.5000000000002 1299.5000000000002 1396.5000000000002 3125.0000000000005 1330.5000000000002 1209.0000000000002 1797.5000000000002 1249.5000000000002 655.50000000000011 2106.5000000000005 1469.5000000000002 980.50000000000011
decision_type=2 2 2 2 2 2 2 2 2 2 2 2 2 2 2 2 2 2 2 2 2 2 2 2 2 2 2
left_child=1 -1 7 5 8 -4 -7 16 -5 -10 14 12 13 15 -11 -2 17 20 24 -14 22 -17 23 -3 -13 26 -26
right_child=11 2 3 4 -6 6 -8 -9 9 10 -12 18 19 -15 -16 21 -18 -19 -20 -21 -22 -23 -24 -25 25 -27 -28
leaf_value=-0.098274380002274564 0.042128678867102018 0.40111935818385752 0.073058797016050961 -0.067674873567006702 0.22308460935536398 0.42441056587389875 0.062012107077735329 0.19992360219219577 0.14311022696323458 0.12341880756850972 -0.087651093553980375 -0.09807713068510937 -0.057385871522591649 0.23734999912456464 -0.026259236303356855 -0.058964412012514712 0.46359486810849426 0.28033629652218639 -0.036979824910840821 -0.098685371052453882 0.4100133703977254 -0.099309669026967945 0.3594262353808263 0.3795142520654633 -0.098713664654305464 -0.095337778992283698 0.070780683396440086
leaf_weight=46.838594049215317 4.0402846019715097 4.172097608447074 11.502792343497278 17.647812746465206 8.3547452166676504 6.2143234983086568 4.3521696031093597 6.7805349677801123 7.6496088281273833 6.3457565903663653 11.454215407371519 176.98927488550544 5.0777174085378673 3.6037557292729607 7.7829743102192879 3.543104771524666 5.3655331954359999 4.9310153797268859 2.3181872218847266 20.908461093902588 4.103425905108451 6.0396172367036343 5.8807171136140814 34.855260327458382 3.7576147075742474 46.005776546895504 1.2596814781427381
leaf_count=101 31 30 57 52 51 49 21 36 40 34 32 2705 28 33 32 36 43 31 13 126 30 42 40 241 90 232 21
internal_value=0 0.125658 0.19682 0.0625645 0.0226061 0.169815 0.275144 0.361985 -0.0103132 0.0201481 -0.016619 -0.0886516 -0.0494735 0.0125882 0.0409669 -0.0468691 0.380513 0.372249 -0.096002 -0.0906154 0.381497 -0.0843925 0.378891 0.381824 -0.096602 -0.0914852 -0.0561591
internal_weight=0 194.232 147.393 81.3044 59.2351 22.0693 10.5665 66.0886 50.8804 33.2326 25.5829 273.543 43.2129 17.2268 14.1287 13.623 59.308 53.9425 230.331 25.9862 49.0115 9.58272 44.9081 39.0274 228.012 51.0231 5.0173
internal_count=4277 920 819 368 241 127 70 451 190 138 98 3357 296 142 66 109 415 372 3061 154 341 78 311 271 3048 343 111
is_linear=0
shrinkage=0.1


Tree=10
num_leaves=28
num_cat=0
split_feature=13 69 102 85 17 98 32 6 61 30 6 82 102 68 8 82 101 58 86 12 35 72 67 82 84 23 39
split_gain=421.534 436.548 57.9021 43.9558 45.3107 42.2299 33.3575 22.9663 31.7352 22.1608 21.5685 18.7661 21.9029 16.3889 18.0235 16.0973 19.2278 18.2207 14.7573 23.5165 12.5339 12.4328 9.39876 9.31843 34.5091 7.92666 7.56707
threshold=936.50000000000011 1114.5000000000002 1908.5000000000002 3978.5000000000005 304.50000000000006 2560.5000000000005 1056.5000000000002 628.50000000000011 710.50000000000011 1260.5000000000002 832.50000000000011 1856.5000000000002 2227.5000000000005 762.50000000000011 417.50000000000006 2160.5000000000005 2418.5000000000005 1072.5000000000002 3136.0000000000005 410.50000000000006 532.50000000000011 1773.5000000000002 874.50000000000011 2055.5000000000005 1990.5000000000002 467.50000000000006 1206.5000000000002
decision_type=2 2 2 2 2 2 2 2 2 2 2 2 2 2 2 2 2 2 2 2 2 2 2 2 2 2 2
left_child=1 13 -3 5 25 6 7 8 -4 18 26 -10 23 -1 20 -14 -17 21 -7 22 -15 -18 -20 24 -13 -5 -8
right_child=-2 2 3 4 -6 9 10 -9 11 -11 -12 12 15 14 -16 16 17 -19 19 -21 -22 -23 -24 -25 -26 -27 -28
leaf_value=-0.097280732962571531 -0.093770698376844944 -0.060812390595480117 0.3695605291578149 0.13764870265039206 -0.076912509716416486 0.35955689969746435 0.11141609802327866 0.36144460786170951 0.40645841960442941 0.0094449733216307816 0.32410707469076067 -0.065938693297546272 0.41031165659722113 -0.031281213885826893 -0.070758184018153467 0.03853751589881544 0.18254519076807108 -0.018429480820337563 0.41696060819057684 0.033200400208139039 0.22085314780995946 0.47882274321957552 0.1857379372302711 -0.079345339471644738 0.4038617830859032 0.3937770492990923 -0.032138434604401557
leaf_weight=70.336096547544003 235.27777205966413 7.6588412672281256 8.5288623590022308 1.9670985937118519 9.1632495764642936 35.400718957185745 6.2393865082412985 10.918006381019948 2.6692015044391146 2.2979816887527695 2.9112084340304127 4.4200129173696059 3.0223693493753698 3.3033358138054627 12.791312452405689 7.0810992512851936 2.4632214345037937 1.7116335928440092 4.8337459992617351 3.9964347295463085 4.8905933946371078 3.3326201587915421 2.7627270426601171 5.0021001771092415 2.4193471223115921 3.1323832310736179 8.9234261699020845
leaf_count=256 1509 87 170 24 64 685 87 219 57 28 57 46 63 28 150 90 38 16 102 41 79 77 38 52 50 64 100
internal_value=0 0.0961561 0.206565 0.22194 0.0560524 0.241833 0.191702 0.232675 0.198089 0.312661 0.0747994 0.152561 0.129551 -0.0741411 0.00341576 0.200264 0.156748 0.268245 0.327489 0.229563 0.119207 0.352905 0.332868 0.0243837 0.100248 0.294977 0.0269332
internal_weight=0 232.177 140.856 133.197 14.2627 118.934 69.6425 51.5685 40.6505 49.2916 18.074 32.1216 29.4524 91.3213 20.9852 17.6109 14.5886 7.50748 46.9936 11.5929 8.19393 5.79584 7.59647 11.8415 6.83936 5.09948 15.1628
internal_count=4277 2768 2255 2168 152 2016 1122 878 659 894 244 489 432 513 257 284 221 131 866 181 107 115 140 148 96 88 187
is_linear=0
shrinkage=0.1


Tree=11
num_leaves=28
num_cat=0
split_feature=57 20 82 65 82 12 2 50 20 82 0 40 43 4 17 0 43 75 3 28 95 63 2 80 0 11 2
split_gain=431.01 329.768 107.756 41.2451 90.3843 35.2416 34.7144 27.0111 63.2889 118.591 25.7517 22.9711 27.6031 20.6631 20.2063 17.9894 11.5094 5.64206 4.63233 2.84287 2.65081 0.711834 0.675338 1.51121 0.0017192 0.000336456 0.000214526
threshold=1598.0000000000002 1599.5000000000002 2102.5000000000005 1953.5000000000002 1936.5000000000002 1351.5000000000002 1202.5000000000002 1321.5000000000002 1179.5000000000002 1507.5000000000002 1340.5000000000002 2253.5000000000005 2127.5000000000005 1346.5000000000002 1358.5000000000002 1456.5000000000002 1660.5000000000002 1616.5000000000002 1296.5000000000002 1857.5000000000002 2167.5000000000005 1382.5000000000002 1105.5000000000002 1138.5000000000002 1224.5000000000002 3855.0000000000005 1181.5000000000002
decision_type=2 2 2 2 2 2 2 2 2 2 2 2 2 2 2 2 2 2 2 2 2 2 2 2 2 2 2
left_child=7 2 3 4 5 6 14 22 9 -9 13 12 15 -7 16 19 -2 21 -5 24 -4 -10 -1 -24 -3 -13 -6
right_child=1 11 20 18 26 10 -8 8 17 -11 -12 25 -14 -15 -16 -17 -18 -19 -20 -21 -22 -23 23 -25 -26 -27 -28
leaf_value=-0.098397564726260128 0.19753408658860439 -0.099154105221031963 0.041027581702908933 0.33089609164676348 -0.101037590764903 -0.037951157693905557 0.40683339255856021 0.35762417926086187 -0.062497012009069569 -0.098677170910470152 0.30439193372030982 -0.098936249044231622 0.21442534789135734 0.1856669145814922 0.074653946007608329 0.10155187290569873 0.37011987510060956 0.0039256134369539137 0.41656198732673044 -0.013751547023755485 -0.098648866863930873 -0.098505289998762957 -4.9677847559253079e-05 -0.098402635918188611 -0.10138592408278944 -0.098220701334193236 -0.09999193552420621
leaf_weight=191.97666680067778 7.4468219056725529 9.1676247566938454 1.6006562486290921 15.355934426188471 3.7224815320223561 7.0117035284638467 20.549161426723003 10.581382885575296 6.2175321206450453 12.335787888616322 8.8033414185047132 8.3235591351985914 5.7117625474929801 10.062110118567942 6.3000563457608214 7.8106089532375327 8.0315264686942083 6.5720722824335089 10.718016266822813 5.1647876575589171 8.9896890334784967 46.919350743293762 2.2868784293532363 4.9303536992520094 5.5355835855007163 31.21502411365509 4.1486679390072823
leaf_count=2752 38 58 9 47 30 44 58 27 39 228 32 55 30 40 35 50 27 30 29 35 135 207 19 67 35 91 30
internal_value=0 0.118904 0.226092 0.257571 0.22037 0.257399 0.313603 -0.0773295 -0.0292605 0.112008 0.165465 -0.0467962 0.0142756 0.0938337 0.225634 -0.0270274 0.287087 -0.0834813 0.36611 -0.0775751 -0.0775378 -0.094292 -0.0972686 -0.0672382 -0.0999944 -0.0983713 -0.100486
internal_weight=0 185.669 112.74 102.15 76.0759 68.2047 42.3276 281.82 82.6261 22.9172 25.8772 72.929 33.3904 17.0738 21.7784 27.6786 15.4783 59.709 26.074 19.868 10.5903 53.1369 199.194 7.21723 14.7032 39.5386 7.87115
internal_count=4277 908 554 410 334 274 158 3369 531 255 116 354 208 84 100 178 65 276 76 128 144 246 2838 86 93 146 60
is_linear=0
shrinkage=0.1


Tree=12
num_leaves=28
num_cat=0
split_feature=89 38 17 100 71 102 17 23 4 25 17 80 81 28 99 59 45 36 3 4 12 88 37 12 84 27 100
split_gain=1112.87 261.568 27.7661 130.63 22.6863 41.7005 27.137 16.8477 13.2331 7.70517 2.33445 8.65772 1.87063 1.36457 0.75837 0.37363 0.173415 0.121673 0.0438525 1.51295 0.00324579 0.00149998 0.00138915 0.000986751 0.000293127 0.000162939 0.000176275
threshold=2935.5000000000005 1388.5000000000002 285.50000000000006 554.50000000000011 1560.5000000000002 3614.0000000000005 304.50000000000006 452.50000000000006 557.50000000000011 671.50000000000011 392.50000000000006 4179.5000000000009 3032.0000000000005 626.50000000000011 2929.5000000000005 259.50000000000006 3565.0000000000005 432.00000000000006 591.50000000000011 679.50000000000011 265.50000000000006 3479.5000000000005 111.00000000000001 282.50000000000006 2741.5000000000005 2175.0000000000005 1460.5000000000002
decision_type=2 2 2 2 2 2 2 2 2 2 2 2 2 2 2 2 2 2 2 2 2 2 2 2 2 2 2
left_child=2 4 3 22 13 8 7 -7 12 23 11 -8 -6 15 18 17 -3 20 19 24 -2 -14 -1 -9 -4 26 -20
right_child=1 16 14 -5 5 6 10 9 -10 -11 -12 -13 21 -15 -16 -17 -18 -19 25 -21 -22 -23 -24 -25 -26 -27 -28
leaf_value=-0.098283093982666103 0.37888596041903994 -0.098889260137329085 -0.098490091371317312 0.34290433114646701 0.056805091175962032 0.32965277306809043 0.21278140017468386 -0.099206373512104887 0.23720414218553709 0.23992362286319527 0.38993330786340774 0.40942252190630901 -0.099473077229520521 0.34022546515242758 -0.048086251966616686 0.39496063009828652 -0.078575224645210759 0.36603333519468667 -0.098373717269992084 0.0028238843144725335 0.38124712587346449 -0.10401658804815904 -0.09956965054642436 -0.10326507918642527 -0.099914958903838252 -0.098246952531910403 -0.098557107062138757
leaf_weight=17.027214020490646 15.372622787952425 9.2643745895475167 41.719058308750391 8.3575496189296228 0.98540335148572822 2.4707835279405144 3.8499467093497532 1.6018312219530351 2.270741892978549 0.89671557396650303 16.60820297151804 5.350935161113739 1.9969899319112303 9.2204906567931157 3.0762437470257273 15.559058673679827 7.6910917013883582 8.7032362148165685 78.261271759867668 1.5244769640266884 9.370883107185362 1.1422055438160894 16.549579232931137 0.95680819451808918 1.4955573007464398 29.40286872163415 158.69284361600876
leaf_count=35 49 41 882 39 29 20 53 61 32 15 59 20 69 49 13 57 24 33 620 35 30 33 31 30 53 91 1774
internal_value=0 0.272519 -0.0872922 -0.0108618 0.336252 0.276292 0.323237 0.130258 0.0433363 -0.012321 0.367548 0.327142 -0.063395 0.375518 -0.0974938 0.382159 -0.0896747 0.376203 -0.0979824 -0.0950855 0.37978 -0.101126 -0.0989172 -0.100724 -0.0985394 -0.098469 -0.0984965
internal_weight=0 113.312 356.107 41.9343 96.3569 38.1306 31.7352 5.92614 6.39534 3.45535 25.8091 9.20088 4.1246 58.2263 314.172 49.0058 16.9555 33.4467 311.096 44.7391 24.7435 3.1392 33.5768 2.55864 43.2146 266.357 236.954
internal_count=4277 704 3573 105 639 421 258 126 163 106 132 73 131 218 3468 169 65 112 3455 970 79 102 66 91 935 2485 2394
is_linear=0
shrinkage=0.1


Tree=13
num_leaves=28
num_cat=0
split_feature=9 54 34 50 96 30 85 67 74 47 31 71 2 9 72 66 11 47 100 25 82 28 70 82 32 25 1
split_gain=1733.79 2.14129 0.700715 0.107415 0.000377629 0.000179407 0.000116572 0.000462039 6.25889e-05 5.24387e-05 9.61854e-05 7.0839e-05 6.8231e-05 5.49573e-05 4.13507e-05 3.6141e-05 7.26834e-05 4.57025e-05 3.68904e-05 6.64522e-05 5.97843e-05 3.22771e-05 3.12367e-05 0.000106815 8.34303e-05 3.08878e-05 3.03305e-05
threshold=2189.5000000000005 3045.5000000000005 2901.5000000000005 2461.0000000000005 1339.5000000000002 1956.5000000000002 2839.0000000000005 824.50000000000011 2250.5000000000005 1844.5000000000002 1489.5000000000002 2106.5000000000005 1053.5000000000002 1333.5000000000002 1760.5000000000002 1752.5000000000002 936.50000000000011 1557.5000000000002 1460.5000000000002 1061.5000000000002 1357.5000000000002 1544.5000000000002 1602.5000000000002 1706.5000000000002 1634.5000000000002 1506.5000000000002 1483.5000000000002
decision_type=2 2 2 2 2 2 2 2 2 2 2 2 2 2 2 2 2 2 2 2 2 2 2 2 2 2 2
left_child=4 2 -2 -4 -1 6 7 -6 -7 10 15 26 21 -13 -8 17 -17 18 20 -20 -9 -12 -14 -24 25 -25 -11
right_child=1 -3 3 -5 5 8 14 9 -10 11 12 13 22 -15 -16 16 -18 -19 19 -21 -22 -23 23 24 -26 -27 -28
leaf_value=-0.098261112788036037 0.39928032852403128 0.34775373947228577 0.38203897832387868 0.37293549757312894 -0.099513793449171661 -0.098709568879827084 -0.098273195264091617 -0.098704904560622808 -0.09921691401936529 -0.098320899438259307 -0.099124785788775718 -0.09844383117768328 -0.098812932503115375 -0.098950616708647632 -0.098448617080934109 -0.098424684464387763 -0.099098386155515389 -0.098198542100011804 -0.098478116848303432 -0.098679428752277532 -0.098360643881029108 -0.098719985922328474 -0.098241794248790981 -0.098703259069406024 -0.098505481599186706 -0.099054071622905374 -0.098570207580586586
leaf_weight=74.680814407765865 22.784370601177216 19.887247279286385 32.05301296710968 21.760823637247086 4.6653548628091803 5.5590960904955846 25.536708449944854 5.9371498972177497 4.3221134170889854 33.193292774260044 4.0334414988756171 4.7067571710795146 5.9576695859432212 3.9235847890377045 28.360924964770675 3.6304235924035302 2.8653012961149216 5.5182808171957722 64.886812591925263 21.94211176969111 33.548653230071068 3.8498775437474251 7.7693740949034718 4.7896924540400523 13.304887216538189 5.2726198360323906 5.7208980396389952
leaf_count=475 33 33 45 32 53 41 196 49 38 220 31 40 25 30 491 64 42 36 1636 264 153 31 33 30 87 32 37
internal_value=0 0.37699 0.384581 0.378358 -0.0984623 -0.0985125 -0.0984982 -0.0985285 -0.0989315 -0.0985086 -0.0985329 -0.098415 -0.0986599 -0.0986742 -0.0983655 -0.0984916 -0.0987219 -0.0984802 -0.0984925 -0.098529 -0.0984124 -0.0989271 -0.0986031 -0.098563 -0.0986698 -0.0988871 -0.0983576
internal_weight=0 96.4855 76.5982 53.8138 373.976 299.295 289.414 235.516 9.88121 230.851 183.306 47.5445 44.9776 8.63034 53.8976 138.329 6.49572 131.833 126.315 86.8289 39.4858 7.88332 37.0942 31.1366 23.3672 10.0623 38.9142
internal_count=4277 143 110 77 4134 3659 3580 2893 79 2840 2513 327 269 70 687 2244 106 2138 2102 1900 202 62 207 182 149 62 257
is_linear=0
shrinkage=0.1


Tree=14
num_leaves=28
num_cat=0
split_feature=96 102 5 62 4 73 82 84 101 62 93 84 81 97 102 77 82 85 82 67 82 81 32 98 78 23 74
split_gain=306.476 290.304 182.072 70.9674 29.3144 142.353 24.7562 90.2546 29.3674 56.3885 22.9262 18.6983 16.0654 18.983 14.7402 58.3262 14.1228 13.7814 57.0332 13.122 15.4365 12.3266 10.2608 19.8667 11.866 11.7227 8.76059
threshold=1997.5000000000002 2808.5000000000005 1296.5000000000002 599.50000000000011 682.50000000000011 1164.5000000000002 2117.5000000000005 2075.5000000000005 2571.5000000000005 1412.5000000000002 2411.5000000000005 1840.0000000000002 2669.0000000000005 2688.5000000000005 3232.0000000000005 2856.0000000000005 1877.5000000000002 2181.5000000000005 2206.5000000000005 1159.5000000000002 1978.5000000000002 2749.5000000000005 1164.5000000000002 2445.5000000000005 2426.5000000000005 663.50000000000011 1995.5000000000002
decision_type=2 2 2 2 2 2 2 2 2 2 2 2 2 2 2 2 2 2 2 2 2 2 2 2 2 2 2
left_child=4 2 3 -2 5 -1 7 19 17 12 -4 -7 26 -14 15 -3 -13 -8 -19 -5 -21 -15 23 -20 25 -25 -10
right_child=1 14 10 6 -6 11 8 -9 9 -11 -12 16 13 21 -16 -17 -18 18 22 20 -22 -23 -24 24 -26 -27 -28
leaf_value=-0.098322731226600804 -0.086264139384809813 -0.058832443191359912 -0.098936281057857123 0.37312951020576218 -0.097989299287824405 0.36546138305075404 0.4298847528281966 -0.088814070784448043 0.25721220771314263 0.38651508587990069 0.13202908878141281 -0.099592349272483199 0.52384953343713569 -0.058318325977072719 -0.093722700483892141 0.41999885364757472 0.30840538819024294 -0.062634350519896562 0.3422438319728176 -0.019442628869374576 0.31980464949249332 0.32716061561928145 0.36788582183143953 0.29635814560863272 0.35185059335423097 0.030476839277623347 -0.048535903879698535
leaf_weight=44.640365064144135 6.9476391915231934 20.788409719243649 23.586076546460394 9.9013675544410962 183.1448863632977 8.7284241598099452 7.6845089159905902 9.4019220229238254 1.0475139338523174 7.9690444450825444 5.2553131356835356 1.8317539095878594 1.3512200731784094 2.2516812253743415 58.572721296921372 2.8985937144607297 1.5803976394236086 4.3014911096543065 17.557540057227019 2.2697295509278765 3.278875295072794 1.3134406674653289 22.039306445047259 2.3453901689499599 2.6689714342355719 5.6600866392254829 8.8942591138184053
leaf_count=105 170 262 116 74 1304 68 50 203 21 69 24 64 14 77 553 35 14 105 185 59 23 22 152 35 31 154 288
internal_value=0 0.083389 0.16817 0.223695 -0.0785265 -0.0157498 0.243283 0.155479 0.26893 0.171906 -0.0568511 0.287867 0.056802 0.20467 -0.0668033 -0.000237552 0.0893789 0.304504 0.286849 0.304141 0.181031 0.0836975 0.316753 0.276835 0.169251 0.108373 -0.0163208
internal_weight=0 227.985 145.725 116.884 239.926 56.7809 109.936 24.8519 85.0845 22.8272 28.8414 12.1406 14.8581 4.91634 82.2597 23.687 3.41215 62.2573 54.5728 15.45 5.5486 3.56512 50.2713 28.232 10.6744 8.00548 9.94177
internal_count=4277 2722 1872 1732 1555 251 1562 359 1203 491 140 146 422 113 850 297 78 712 662 156 82 99 557 405 220 189 309
is_linear=0
shrinkage=0.1


Tree=15
num_leaves=28
num_cat=0
split_feature=96 13 94 101 3 53 102 18 100 6 15 1 97 59 80 101 24 41 78 67 98 101 2 12 71 72 11
split_gain=602.719 717.524 47.6826 48.3349 67.0885 21.2051 19.4843 9.11927 15.6446 6.19521 2.62359 1.91751 1.3034 0.682691 0.86367 0.0021721 0.000166375 0.000130596 0.000119652 0.000388297 0.000107312 5.63013e-05 5.28549e-05 7.17383e-05 6.35877e-05 4.79706e-05 4.47767e-05
threshold=1686.5000000000002 1174.5000000000002 1598.5000000000002 1308.5000000000002 1137.5000000000002 1364.5000000000002 1497.5000000000002 1303.5000000000002 1384.5000000000002 1290.0000000000002 1091.5000000000002 1121.5000000000002 1739.5000000000002 2735.0000000000005 3368.0000000000005 1706.0000000000002 3115.0000000000005 2190.5000000000005 2531.5000000000005 840.50000000000011 1404.5000000000002 1771.5000000000002 1555.0000000000002 1372.5000000000002 2106.5000000000005 1760.5000000000002 873.50000000000011
decision_type=2 2 2 2 2 2 2 2 2 2 2 2 2 2 2 2 2 2 2 2 2 2 2 2 2 2 2
left_child=1 5 3 4 -3 10 -7 8 -5 11 20 -9 -2 15 -15 -14 17 18 19 -17 -1 -21 23 26 -25 -20 -23
right_child=12 2 -4 7 -6 6 -8 9 -10 -11 -12 -13 13 14 -16 16 -18 -19 25 21 -22 22 -24 24 -26 -27 -28
leaf_value=-0.098265545767877854 -0.057293182963803868 0.37822259415317455 0.11590047725672624 0.39284212702763927 -0.10454212574951297 0.15869414780644764 -0.099951610542185251 0.37961015720992236 0.22490589034377489 0.32702124154322187 -0.019031901184214661 0.42115782510135458 -0.10143899850381106 -0.053698201282090408 -0.098307869966135164 -0.099387041485438476 -0.098240816289404523 -0.099017416049145004 -0.098277298847577785 -0.098784723652839024 -0.098760905909321017 -0.098481440309476018 -0.09876970621768244 -0.098315084840473341 -0.098712167886619212 -0.098451618263969184 -0.098628359121092274
leaf_weight=68.349466871470213 8.4641000926494581 5.8606089279055578 11.31354211270809 10.586856387555601 5.6572660654783249 6.8938826993107778 5.0432635173201561 23.875422202050686 11.653174966573713 16.368525549769402 4.4289623796939841 20.773068748414516 2.5051430575549594 7.941521584987643 9.5698981508612615 5.3007482606917611 26.113379895687103 4.9170608744025222 25.429484391584992 7.3499001786112776 4.6722287014126769 59.073948174715042 6.9145267978310576 31.32639554142952 4.6287188977003089 41.630040170624852 31.971055217087269
leaf_count=407 53 18 50 19 53 41 33 43 44 52 53 35 18 29 32 63 76 39 209 51 58 1441 30 225 35 809 261
internal_value=0 0.134078 0.309941 0.333105 0.141102 -0.0746431 0.0494202 0.359667 0.304848 0.379647 -0.0937645 0.398941 -0.0959222 -0.0971575 -0.0780771 -0.0985094 -0.0984794 -0.0985079 -0.0984962 -0.0985468 -0.0982972 -0.0985153 -0.0985005 -0.0984858 -0.0983662 -0.0983855 -0.098533
internal_weight=0 195.476 106.088 94.7749 11.5179 89.3878 11.9371 83.257 22.24 61.017 77.4507 44.6485 273.136 264.672 17.5114 247.16 244.655 218.542 213.625 146.565 73.0217 141.265 133.915 127 35.9551 67.0595 91.045
internal_count=4277 906 314 264 71 592 74 193 63 130 518 78 3371 3318 61 3257 3239 3163 3124 2106 465 2043 1992 1962 260 1018 1702
is_linear=0
shrinkage=0.1


Tree=16
num_leaves=28
num_cat=0
split_feature=57 41 13 96 102 1 82 57 82 66 7 88 82 13 82 92 36 3 9 57 81 46 32 67 99 97 3
split_gain=586.974 310.383 143.833 72.8589 50.0673 35.455 30.3001 46.8673 38.863 23.3443 23.3319 31.784 30.7918 16.342 12.0763 7.75798 4.79211 5.19939 2.13909 1.02066 0.215909 0.0719021 4.02816 5.1692 0.00276043 0.000940497 0.000248737
threshold=1674.5000000000002 2190.5000000000005 1401.5000000000002 1767.5000000000002 2104.5000000000005 1371.5000000000002 1770.5000000000002 1850.5000000000002 1936.5000000000002 1577.5000000000002 1249.5000000000002 2094.5000000000005 1693.5000000000002 1433.5000000000002 1856.5000000000002 1905.5000000000002 2040.5000000000002 1471.0000000000002 1439.0000000000002 1535.5000000000002 2222.5000000000005 980.50000000000011 921.50000000000011 1305.5000000000002 2362.0000000000005 2180.5000000000005 2811.5000000000005
decision_type=2 2 2 2 2 2 2 2 2 2 2 2 2 2 2 2 2 2 2 2 2 2 2 2 2 2 2
left_child=9 2 4 -4 5 6 -2 14 -9 19 11 12 -11 -5 -8 -15 17 18 -17 21 -3 -1 23 -23 25 -6 -22
right_child=1 20 3 13 24 -7 7 8 -10 10 -12 -13 -14 15 -16 16 -18 -19 -20 -21 26 22 -24 -25 -26 -27 -28
leaf_value=-0.098389266917541088 0.0068430868182017728 -0.076484806667727001 0.058139112247024394 0.24310597506223128 -0.1002774816480536 -0.0049473905112226019 0.27790061950587897 -0.051266051056318374 0.25058876311029271 -0.018174599345761013 -0.09838903951006861 -0.098537953044965168 0.31936299765269549 0.29430399486297615 0.46055718572906112 0.43101534033787658 0.45959880087603139 0.30570671433330587 0.37324210790663048 -0.054211096636504474 -0.098867492221250616 0.14507013311615174 -0.098444153841654058 -0.09863995881610671 -0.098501650801052151 -0.10296420704646758 -0.098230065757315285
leaf_weight=143.29624252952635 7.218513995409011 5.1599926352500907 9.6188508570194227 11.039592221379278 2.2024097442626935 11.93496750295162 7.4469788670539874 7.3661943674087551 10.131735101342199 4.7114177271723765 15.062962174415587 6.8637989256530991 6.3389041796326637 9.3005555570125562 7.042778842151165 11.626272946596147 9.0701683163642866 7.7277007997035971 14.28080480545759 5.724466234445571 7.8499409556388846 1.573237502947449 107.59454781748354 1.947883943095803 4.4481270369142294 3.1900919545441866 27.808211237192154
leaf_count=1805 37 17 43 47 14 48 38 27 46 27 54 142 38 38 37 49 42 30 56 32 57 24 1297 50 50 51 81
internal_value=0 0.145746 0.21946 0.314497 0.106216 0.145963 0.191903 0.233664 0.123515 -0.0859213 -0.00665892 0.0704717 0.17545 0.353609 0.366681 0.377067 0.395091 0.377696 0.399169 -0.0959693 -0.0956037 -0.0969089 -0.0949998 0.0102497 -0.100346 -0.101867 -0.0983704
internal_weight=0 174.464 133.646 72.6639 60.9818 51.1412 39.2062 31.9877 17.4979 293.113 32.9771 17.9141 11.0503 63.0451 14.4898 52.0055 42.7049 33.6348 25.9071 260.136 40.8181 254.412 111.116 3.52112 9.84063 5.3925 35.6582
internal_count=4277 808 653 305 348 233 185 148 73 3469 261 207 65 262 75 215 177 135 105 3208 155 3176 1371 74 115 65 138
is_linear=0
shrinkage=0.1


Tree=17
num_leaves=28
num_cat=0
split_feature=99 3 25 72 9 30 96 85 67 78 41 31 34 82 71 0 72 72 66 11 47 66 64 82 100 85 90
split_gain=1743.85 0.138184 0.0710461 0.00143043 0.000256573 0.00019931 0.000111634 0.000105846 0.000342537 7.79449e-05 5.96862e-05 8.56393e-05 6.1157e-05 8.36852e-05 5.79284e-05 5.7039e-05 4.08607e-05 3.96233e-05 3.67958e-05 7.26833e-05 4.49989e-05 3.69259e-05 3.30975e-05 3.16669e-05 4.48676e-05 3.69828e-05 2.70262e-05
threshold=962.00000000000011 500.50000000000006 119.00000000000001 991.50000000000011 2189.5000000000005 1941.5000000000002 1339.5000000000002 2839.0000000000005 840.50000000000011 2252.5000000000005 1843.5000000000002 1489.5000000000002 1681.5000000000002 1706.5000000000002 2106.5000000000005 1467.5000000000002 1760.5000000000002 1823.5000000000002 1752.5000000000002 936.50000000000011 1557.5000000000002 1536.5000000000002 1589.0000000000002 1357.5000000000002 1449.5000000000002 1546.0000000000002 3807.0000000000005
decision_type=2 2 2 2 2 2 2 2 2 2 2 2 2 2 2 2 2 2 2 2 2 2 2 2 2 2 2
left_child=1 2 -1 -2 5 6 -5 8 -8 -7 11 18 13 -13 -12 -14 -9 -15 20 -20 21 23 -23 -10 -25 -26 -18
right_child=3 -3 -4 4 -6 9 7 16 10 -11 14 12 15 17 -16 -17 26 -19 19 -21 -22 22 -24 24 25 -27 -28
leaf_value=0.3783720080412587 -0.10040556955208393 0.373669226059681 0.3849725839433118 -0.09827640803452263 -0.098240193419747338 -0.098674393573839503 -0.099413431560841245 -0.098273410064540906 -0.09869140079333133 -0.09919475396491817 -0.098342524827922842 -0.098551304838119358 -0.098424083711034074 -0.099004018775106034 -0.098651638891419216 -0.098813867568126101 -0.098582885332086534 -0.098654713832556251 -0.098424684830032916 -0.099098385949995968 -0.098198541573311038 -0.098747221031934437 -0.098382235659816963 -0.098359049938158083 -0.098723773665288228 -0.098479127617506712 -0.098377643157606026
leaf_weight=31.35591197013855 3.8136058524250975 30.683141186833382 33.9776970744133 25.878577847033739 46.852310411632061 6.8223325088620168 4.2362230680882922 25.084444865584373 6.2189013659954062 4.9797029867768288 34.130850285291672 12.837408155202867 16.200579427182678 10.644881814718245 7.3719935547560445 4.8866768181323996 9.8070474937558192 4.6730432827025643 3.6304238438606253 2.8653014693409204 5.5182810649275771 9.4417622536420804 3.3717965073883525 31.49169534444809 6.7925311625003806 68.418952219188213 18.553879391402006
leaf_count=31 37 37 34 343 143 51 61 193 53 44 225 58 107 66 59 30 252 37 64 42 36 170 42 140 59 1624 239
internal_value=0 0.379205 0.381805 -0.0984787 -0.0984589 -0.0984906 -0.0984753 -0.0984933 -0.0985224 -0.098894 -0.0985059 -0.09853 -0.0986432 -0.0987396 -0.0983974 -0.0985144 -0.0983664 -0.0988975 -0.0984895 -0.0987219 -0.098478 -0.0984903 -0.0986512 -0.098472 -0.0984593 -0.0985012 -0.0984486
internal_weight=0 96.0168 65.3336 374.523 370.71 323.857 312.055 286.177 232.731 11.802 228.495 186.992 49.2426 28.1553 41.5028 21.0873 53.4454 15.3179 137.75 6.49573 131.254 125.736 12.8136 112.922 106.703 75.2115 28.3609
internal_count=4277 102 65 4175 4138 3995 3900 3557 2873 95 2812 2528 298 161 284 137 684 103 2230 106 2124 2088 212 1876 1823 1683 491
is_linear=0
shrinkage=0.1


Tree=18
num_leaves=28
num_cat=0
split_feature=102 45 70 13 34 35 48 45 46 23 101 42 82 82 93 32 3 102 14 69 51 15 10 3 99 71 34
split_gain=410.742 210.596 173.239 52.2959 26.0462 17.5456 10.7347 9.12454 8.30661 14.6973 7.9679 10.2037 16.4283 7.18505 4.10711 3.85225 3.03805 2.75343 6.57735 1.15381 0.938246 0.819372 0.744794 0.378375 0.20629 0.185725 0.739879
threshold=1687.0000000000002 669.50000000000011 1318.5000000000002 1232.5000000000002 1669.5000000000002 1366.5000000000002 1343.5000000000002 1271.5000000000002 1444.5000000000002 1437.5000000000002 1886.5000000000002 1714.5000000000002 1817.5000000000002 1522.5000000000002 1744.5000000000002 1515.5000000000002 1113.5000000000002 1259.5000000000002 1083.0000000000002 1176.5000000000002 3274.0000000000005 1116.5000000000002 1330.5000000000002 1061.5000000000002 1358.0000000000002 2106.5000000000005 1437.5000000000002
decision_type=2 2 2 2 2 2 2 2 2 2 2 2 2 2 2 2 2 2 2 2 2 2 2 2 2 2 2
left_child=1 -1 7 5 8 6 -4 17 16 -10 11 12 14 -7 -2 -11 -5 21 19 -19 25 -3 -13 -16 -21 -12 -27
right_child=10 2 3 4 -6 13 -8 -9 9 15 20 22 -14 -15 23 -17 -18 18 -20 24 -22 -23 -24 -25 -26 26 -28
leaf_value=-0.096987379550441524 0.038815311914119272 0.27117547539501274 0.17386863924940896 -0.094220017973676837 0.18494589110668472 0.018353442241442128 0.33327275330156658 0.41073987773358622 0.11829451258479923 -0.082130576580274228 -0.096811040554998229 -0.053176932313394411 0.18312542822773503 0.16167151607993532 -0.055490438820770843 0.0093488925601869759 -0.023266167416751912 0.22539939340668852 0.13770032008310071 0.26922192428976921 -0.026635198124574253 0.31450932435147033 -0.097594305572059781 -0.098222840108937809 0.29578668922515133 -0.051561396923147054 -0.093821863961789875
leaf_weight=41.471532214432955 4.1253393515944508 40.680383682250977 11.748949997127058 12.020969755947592 7.4001916497945777 7.7637560963630659 6.5966587737202635 4.366347447037696 10.074272461235525 8.3431131020188349 158.05823117494583 4.7135479524731663 4.2472202964127055 6.366643562912941 3.3303345311433059 10.269362673163412 12.117531836032866 5.451423689723021 5.4737680554389945 6.5980762839317304 2.0164552256464949 4.8876731097698203 18.961654469370842 5.4844076111912727 5.2486612796783447 4.6038788110017768 41.3640480581671
leaf_count=101 31 229 58 33 40 34 45 32 52 25 2705 28 33 34 46 44 42 30 23 37 12 30 126 32 31 112 232
internal_value=0 0.10451 0.15503 0.0643966 0.00924201 0.166679 0.231187 0.270588 -0.015372 0.0210032 -0.0865131 -0.0461743 0.0124746 0.0829273 -0.0435368 -0.0316571 -0.0586012 0.261634 0.23324 0.263472 -0.0945131 0.275824 -0.0887512 -0.0820779 0.280991 -0.095184 -0.0895893
internal_weight=0 206.879 165.408 92.7014 60.2254 32.476 18.3456 72.7063 52.8252 28.6867 246.905 40.8625 17.1873 14.1304 12.9401 18.6125 24.1385 68.34 22.7719 17.2982 206.043 45.5681 23.6752 8.81474 11.8467 204.026 45.9679
internal_count=4277 920 819 407 236 171 103 412 196 121 3357 296 142 68 109 69 75 380 121 98 3061 259 154 78 68 3049 344
is_linear=0
shrinkage=0.1


Tree=19
num_leaves=28
num_cat=0
split_feature=11 70 84 86 15 27 84 82 84 82 34 3 82 97 69 71 84 102 82 58 85 98 29 12 19 71 32
split_gain=342.549 294.98 34.9663 40.0812 33.872 19.0757 18.7378 21.0779 20.9707 28.8289 20.3697 17.8842 13.0634 18.2744 12.9401 12.7265 13.232 11.375 19.8936 7.71259 6.96003 6.82702 7.03945 7.48868 6.7151 6.18006 14.2123
threshold=936.50000000000011 1193.5000000000002 1775.5000000000002 3833.5000000000005 301.50000000000006 574.50000000000011 2334.5000000000005 1863.5000000000002 1998.5000000000002 2041.5000000000002 1291.5000000000002 888.00000000000011 2412.5000000000005 2536.5000000000005 1285.5000000000002 1579.5000000000002 3135.5000000000005 2220.5000000000005 2201.5000000000005 1051.5000000000002 2202.0000000000005 2304.5000000000005 1042.5000000000002 600.50000000000011 457.50000000000006 2043.5000000000002 1177.5000000000002
decision_type=2 2 2 2 2 2 2 2 2 2 2 2 2 2 2 2 2 2 2 2 2 2 2 2 2 2 2
left_child=1 -1 -3 6 5 -5 7 -4 -9 -10 12 17 -8 19 -7 16 24 -11 20 -14 -19 -20 23 -23 -15 26 -17
right_child=-2 2 3 4 -6 14 10 8 9 11 -12 -13 13 15 -16 25 -18 18 21 -21 -22 22 -24 -25 -26 -27 -28
leaf_value=-0.085096628020865483 -0.093323570981246162 -0.086189583763648867 0.29776709150778435 -0.069609918598541862 -0.061613138039727067 0.32980379086852557 0.31959928150333416 -0.0488830703241869 0.28720612524492672 -0.04350122356111534 0.014742404171157143 0.37475357392978659 0.17478866734639809 0.34021912505058199 0.020751596990562119 0.24533255820412872 -0.0054128088850423205 0.11466058575434637 -0.073728427804462135 0.0034176511228536811 0.34112097198519975 0.067248683183899233 -0.061579934644540424 0.2795737909809286 0.093324390575744279 0.3253050547856059 0.009640508598076766
leaf_weight=74.557810945436358 208.88979979604483 5.8882799744606009 6.9025397673249236 2.3192340396344679 13.595648836344479 5.8342995829880238 11.733232919126747 7.0091375820338717 9.819863507524131 6.8713216204196277 5.0391535088419905 2.0393821746110907 4.9657757915556413 2.6399673111736757 1.7645450886338947 41.409685008227825 4.4625395890325308 2.1151213943958309 3.7660898119211188 5.5740714576095343 3.787093959748745 5.7327437251806241 2.5586200281977645 2.338828306645155 1.89047534763813 8.2001310586929304 2.7269128486514083
leaf_count=439 1466 69 119 15 106 105 209 74 163 74 63 41 70 48 15 634 39 27 38 61 69 72 26 41 21 146 27
internal_value=0 0.0808868 0.153264 0.161804 0.0408986 0.181421 0.181884 0.13481 0.110378 0.138979 0.209998 0.0891466 0.221767 0.205795 0.258038 0.2267 0.116807 0.0677087 0.105355 0.0841579 0.259966 0.0419669 0.0829557 0.128772 0.237194 0.245582 0.230771
internal_weight=0 245.543 170.985 165.096 23.5137 9.91808 141.583 52.9407 46.0382 39.0291 88.6419 29.2092 83.6028 71.8696 7.59884 61.3297 8.99298 27.1698 20.2985 10.5398 5.90222 14.3963 10.6302 8.07157 4.53044 52.3367 44.1366
internal_count=4277 2811 2372 2303 241 135 2062 744 625 551 1318 388 1255 1046 120 915 108 347 273 131 96 177 139 113 69 807 661
is_linear=0
shrinkage=0.1


Tree=20
num_leaves=28
num_cat=0
split_feature=57 14 82 50 20 82 16 4 2 62 5 26 4 37 82 7 82 5 9 74 82 75 5 2 73 17 97
split_gain=336.848 213.655 76.257 23.245 57.7823 73.0035 19.1485 25.8964 23.916 16.6179 16.2526 15.6434 23.0979 11.78 24.7692 10.2109 7.89923 7.36625 6.99486 5.24045 4.24395 3.53871 1.55923 0.71034 1.48368 0.00177255 0.00157572
threshold=1572.5000000000002 1503.0000000000002 2102.5000000000005 1321.5000000000002 1179.5000000000002 1507.5000000000002 1433.5000000000002 1333.0000000000002 1074.5000000000002 1910.5000000000002 1221.5000000000002 2024.0000000000002 1516.0000000000002 1748.5000000000002 1770.5000000000002 1387.5000000000002 1776.5000000000002 1590.5000000000002 1364.5000000000002 1857.5000000000002 1931.5000000000002 1751.5000000000002 1682.0000000000002 1105.5000000000002 1104.5000000000002 1653.0000000000002 1957.5000000000002
decision_type=2 2 2 2 2 2 2 2 2 2 2 2 2 2 2 2 2 2 2 2 2 2 2 2 2 2 2
left_child=3 2 6 23 5 -5 8 9 10 -8 16 12 19 14 21 -9 -2 -14 -4 -3 -15 -10 -6 -1 -25 26 -21
right_child=1 11 18 4 22 -7 7 15 13 -11 -12 -13 17 20 -16 -17 -18 -19 -20 25 -22 -23 -24 24 -26 -27 -28
leaf_value=-0.097155533541510075 0.1334643721810341 0.012170234089894994 -0.098018903611812119 0.25927668625333827 -0.097423991445125799 -0.097530247939665346 -0.074714821506850701 0.12989434004132658 0.22664266102231878 0.14639230615951568 0.2457565195164042 -0.097189154851942253 0.040520611040483323 0.33331800068593026 0.087147702311793113 0.25421035205284004 -0.031016615582211748 0.20100624704724801 0.09372973216570972 -0.10046527469547051 0.25713935068734184 0.30179396458657004 -0.053889864569015768 0.002648353211713101 -0.097298209923410373 -0.10145759983823346 -0.097760301159173349
leaf_weight=170.88969324342906 5.5892288237810153 6.0045479424297872 10.559518292546271 12.961141318082811 40.938270330429077 10.284166362136601 7.6042984724044782 12.95100323110819 12.268369965255262 6.1467685028910637 6.3981829881668082 34.724337760359049 6.3765004202723485 14.418619856238367 11.382004933431743 13.488357327878473 6.1134633831679821 5.1862434968352318 2.3205345198512068 4.2420337349176389 14.839973345398901 12.806071504950522 10.296363487839697 2.2304991595447055 4.4454264882951975 5.0091522485017768 4.3741806820034981
leaf_count=2752 31 26 158 27 225 216 43 46 34 27 28 137 39 30 50 41 42 26 16 30 35 28 32 19 67 34 38
internal_value=0 0.0968933 0.168119 -0.0762372 -0.0293466 0.101419 0.192174 0.135426 0.219384 0.0241207 0.117604 -0.0510175 0.000381786 0.247419 0.20949 0.193316 0.0475398 0.112503 -0.0634725 -0.0656619 0.29468 0.265024 -0.0886752 -0.0959054 -0.063905 -0.0999617 -0.099092
internal_weight=0 202.803 136.886 252.046 74.4799 23.2453 124.006 40.1904 83.8159 13.7511 18.1009 65.917 31.1927 65.715 36.4564 26.4394 11.7027 11.5627 12.8801 19.6299 29.2586 25.0744 51.2346 177.566 6.67593 13.6254 8.61621
internal_count=4277 939 609 3338 500 243 435 157 278 70 101 330 193 177 112 87 73 65 174 128 65 62 257 2838 86 102 68
is_linear=0
shrinkage=0.1


Tree=21
num_leaves=28
num_cat=0
split_feature=85 42 6 80 38 35 85 12 69 14 13 75 6 0 91 25 3 27 66 45 3 4 40 75 33 17 17
split_gain=790.803 157.053 22.3616 79.512 55.6168 11.5837 30.5755 21.3225 13.4034 8.3413 2.78233 6.78183 1.99992 1.11727 0.951086 0.645329 0.72939 0.468306 0.364336 0.199098 0.0367299 1.5895 0.0196317 0.0101567 0.00801478 0.00619674 0.00149039
threshold=2884.5000000000005 1350.5000000000002 392.50000000000006 2113.5000000000005 516.50000000000011 583.00000000000011 3231.5000000000005 308.50000000000006 1285.5000000000002 310.50000000000006 359.50000000000006 3032.5000000000005 569.50000000000011 489.50000000000006 2850.5000000000005 686.50000000000011 606.50000000000011 555.00000000000011 428.50000000000006 3565.0000000000005 591.50000000000011 679.50000000000011 348.50000000000006 2421.5000000000005 697.50000000000011 285.50000000000006 144.00000000000003
decision_type=2 2 2 2 2 2 2 2 2 2 2 2 2 2 2 2 2 2 2 2 2 2 2 2 2 2 2
left_child=2 5 3 13 -5 17 12 8 9 24 11 -9 23 -1 20 -12 -17 18 22 -3 21 25 -2 -7 -8 -4 -15
right_child=1 19 14 4 -6 6 7 10 -10 -11 15 -13 -14 26 -16 16 -18 -19 -20 -21 -22 -23 -24 -25 -26 -27 -28
leaf_value=-0.051283287667442327 0.26907060527758075 -0.097706332422579992 -0.10070491099225137 0.46073599804903043 -0.097547738169189477 -0.11166630400409694 -0.11202584641780677 0.1007613270329349 0.26715176938163154 0.17149228486981272 0.288559855539469 0.2816601447344943 0.065373018964307181 -0.097137294618096892 -0.033829641983279889 0.24074834086686986 0.27754076919298537 0.25530845784599726 0.29011028608900874 -0.075378462260743184 -0.097260273997394689 0.0092759194158658111 0.27395308326439555 -0.099533929653755238 -0.10201191516982569 -0.097259797037726886 -0.098729082783688582
leaf_weight=6.5666515175253179 25.122698456048965 9.3506383541971463 6.2115427628159514 5.1687900125980368 2.725252004340291 1.1172487530857322 1.2461172789335244 3.5651012472808343 2.4213791936635971 1.5804749391973016 11.960839409381149 4.949670635163784 0.91316319629549969 13.956892609596254 2.4204451069235793 10.516964456066491 11.048909131437538 14.531836932525037 12.993508607149122 6.9710114300250998 237.7434508278966 1.4372727964073408 12.251272290945051 1.8044828567653892 2.2287561111152172 32.741278383880854 10.166842687875031
leaf_count=22 65 46 17 19 108 28 32 57 19 17 44 21 17 32 54 52 33 55 37 24 2454 33 32 63 80 771 45
internal_value=0 0.202611 -0.0864269 -0.0150489 0.268 0.242745 0.208226 0.229293 0.0736897 -0.0189735 0.256966 0.205919 -0.063801 -0.0878535 -0.0962435 0.269931 0.259598 0.271123 0.275686 -0.0881701 -0.0967866 -0.0939986 0.270671 -0.104173 -0.105603 -0.0978092 -0.0978081
internal_weight=0 134.574 319.138 38.5844 7.89404 118.252 53.3531 49.5182 7.47673 5.05535 42.0415 8.51477 3.83489 30.6904 280.554 33.5267 21.5659 64.8993 50.3675 16.3216 278.134 40.3901 37.374 2.92173 3.47487 38.9528 24.1237
internal_count=4277 722 3555 226 127 652 463 355 148 129 207 78 108 99 3329 129 85 189 134 70 3275 821 97 91 112 788 77
is_linear=0
shrinkage=0.1


Tree=22
num_leaves=28
num_cat=0
split_feature=9 57 42 6 101 42 79 67 5 53 61 43 11 22 12 94 81 100 82 90 41 3 84 72 4 34 1
split_gain=1170.94 1.0117 0.164371 0.0688996 0.000576315 0.000431199 0.000245336 0.000756784 0.000207049 0.000155857 0.000109978 0.000172907 0.000112375 0.000104573 0.000103042 8.21424e-05 8.04129e-05 7.9765e-05 7.17825e-05 5.49658e-05 5.38742e-05 5.19488e-05 5.10046e-05 4.81873e-05 5.00141e-05 4.72033e-05 4.27458e-05
threshold=2189.5000000000005 3006.0000000000005 2074.0000000000005 3627.5000000000005 1412.5000000000002 2198.0000000000005 2556.5000000000005 824.50000000000011 1296.5000000000002 1927.5000000000002 1730.5000000000002 1685.5000000000002 1489.0000000000002 950.50000000000011 951.50000000000011 2164.5000000000005 1854.5000000000002 2698.5000000000005 1920.5000000000002 1899.5000000000002 1651.5000000000002 1488.0000000000002 2040.5000000000002 1760.5000000000002 560.50000000000011 1568.5000000000002 947.50000000000011
decision_type=2 2 2 2 2 2 2 2 2 2 2 2 2 2 2 2 2 2 2 2 2 2 2 2 2 2 2
left_child=4 2 -2 -4 8 6 7 -6 26 10 12 14 20 23 -12 21 -13 -15 19 -18 25 -11 -20 -8 -25 -9 -1
right_child=1 -3 3 -5 5 -7 13 9 -10 15 11 16 -14 17 -16 -17 18 -19 22 -21 -22 -23 -24 24 -26 -27 -28
leaf_value=-0.096958998356515752 0.27967312944154649 0.24983121961714222 0.26654777454099993 0.2729164462269329 -0.098662733000207684 -0.098234157903404534 -0.096982823715261873 -0.097320903475376655 -0.097652673396426512 -0.097022449300279145 -0.09748814421578085 -0.097630500533124859 -0.098049867330017165 -0.097212448556421555 -0.098378529676672016 -0.097604470080901215 -0.097380486583092896 -0.097855998999483898 -0.097326681139759633 -0.096959108775415859 -0.097014928389008506 -0.097370213641505471 -0.097826837387899379 -0.097279729388652994 -0.097015847704698122 -0.097739725049952333 -0.097103506072572066
leaf_weight=58.576495349407196 25.081194877624512 24.224290817975998 29.362161561846733 40.304972290992737 4.4580650161951771 5.2291038110852233 22.807859886437654 85.895482098683715 5.299691889435052 23.063678625971086 2.0743298064917317 13.949373964220284 2.1277708560228339 4.5934276971966019 3.4806878939270973 3.4431496672332278 6.1214618012309092 3.3165385704487562 4.609077434986828 6.2626628987491131 5.6267371699213973 5.2784989774227133 3.6563695929944515 18.198467794805769 11.865465914830564 2.7780382558703414 31.46536797657609
leaf_count=332 29 33 35 46 52 47 215 1710 57 171 41 88 7 76 42 31 43 55 42 42 32 43 29 466 237 19 257
internal_value=0 0.268069 0.272731 0.270232 -0.0972531 -0.0973361 -0.097316 -0.0973767 -0.0970452 -0.0973427 -0.0973891 -0.0975282 -0.0973312 -0.0971432 -0.098046 -0.0971432 -0.097445 -0.0974823 -0.0973197 -0.0971674 -0.097315 -0.0970872 -0.0975479 -0.0970924 -0.0971756 -0.097334 -0.0970095
internal_weight=0 118.973 94.7483 69.6671 334.178 238.836 233.607 172.825 95.3416 168.367 136.582 40.154 96.428 60.7818 5.55502 31.7853 34.5989 7.90997 20.6496 12.3841 94.3003 28.3422 8.26545 52.8718 30.0639 88.6735 90.0419
internal_count=4277 143 110 81 4134 3488 3441 2392 646 2340 2095 327 1768 1049 83 245 244 131 156 85 1761 214 71 918 703 1729 589
is_linear=0
shrinkage=0.1


Tree=23
num_leaves=28
num_cat=0
split_feature=96 101 5 63 13 71 87 96 84 30 98 80 6 102 75 101 84 82 33 102 82 84 84 82 85 95 57
split_gain=245.604 200.502 111.538 50.7122 28.0342 103.396 21.1436 12.3911 40.5098 14.6886 22.164 20.8842 17.6131 12.1205 45.4329 9.9902 9.24429 17.7272 7.77926 8.71581 21.5803 8.40602 6.8821 15.7217 6.90905 6.56433 6.37891
threshold=1997.5000000000002 2811.5000000000005 1296.5000000000002 617.50000000000011 626.50000000000011 1013.5000000000001 2356.5000000000005 2098.5000000000005 1990.5000000000002 1360.5000000000002 2560.5000000000005 2626.5000000000005 865.50000000000011 3232.0000000000005 2855.5000000000005 2724.5000000000005 1807.5000000000002 1863.5000000000002 1143.5000000000002 2237.5000000000005 2201.5000000000005 2145.5000000000005 2325.5000000000005 2412.5000000000005 2384.5000000000005 2830.5000000000005 1053.5000000000002
decision_type=2 2 2 2 2 2 2 2 2 2 2 2 2 2 2 2 2 2 2 2 2 2 2 2 2 2 2
left_child=4 2 3 -2 5 -1 -4 8 -5 10 12 -12 18 14 -3 -13 -7 -18 19 -9 21 -21 -22 24 -24 -17 -10
right_child=1 13 6 7 -6 16 -8 9 26 -11 11 15 -14 -15 -16 25 17 -19 -20 20 22 -23 23 -25 -26 -27 -28
leaf_value=-0.097028567009319694 -0.086154670661596267 -0.054169521190833292 -0.097650277937955915 0.26972327563068532 -0.097277187045722122 0.26854913073200082 0.12493959909260113 0.25978662710159522 0.080202957885978379 0.28189028054743853 -0.0031018263645394761 0.25995500161352286 -0.0076354364164384183 -0.091923203486329388 0.41027552325064048 -0.10102286271101564 -0.10216890970957876 0.26808678714008266 0.27141988226333286 0.16877364225750263 0.24598562575656452 -0.1025255690565423 0.17104007123622078 0.217769595501068 -0.10772834627960137 0.2110293289707883 -0.099564857932152445
leaf_weight=41.07227049022913 7.3488476052880278 18.899307066574696 21.5433259960264 7.8640294130891588 161.9338754657656 9.6570589654147607 5.3215866759419432 15.459886327385901 2.9266740474849922 16.883736180141568 11.22282329760492 7.033022426068781 3.6582184061408034 52.376016408205032 2.3703745752573004 1.5473984722048046 2.3273239452391854 2.9099444784224033 19.354509579017758 1.6704747062176455 16.513417515903715 3.6105031538754702 1.3245333302766074 10.039679026231168 2.7041565272957087 1.19449439458549 6.0631872080266476
leaf_count=100 183 247 115 46 1296 58 25 118 63 82 331 82 72 553 14 54 81 20 125 32 138 123 18 145 74 25 57
internal_value=0 0.0709064 0.132687 0.169364 -0.0761904 -0.0151778 -0.0535581 0.183912 0.103962 0.19592 0.180694 0.089972 0.206321 -0.0660708 -0.00240999 0.196832 0.210532 0.103554 0.217395 0.197022 0.169965 -0.0167084 0.2022 0.150804 -0.0160762 0.0349214 -0.041041
internal_weight=0 236.93 163.285 136.42 217.9 55.9666 26.8649 129.071 16.8539 112.217 95.3331 20.9977 74.3354 73.6457 21.2697 9.77492 14.8943 5.23727 70.6772 51.3227 35.8628 5.28098 30.5818 14.0684 4.02869 2.74189 8.98986
internal_count=4277 2722 1908 1768 1555 259 140 1585 166 1419 1337 492 845 814 261 161 159 101 773 648 530 155 375 237 92 79 120
is_linear=0
shrinkage=0.1


Tree=24
num_leaves=28
num_cat=0
split_feature=96 14 94 96 1 63 19 5 63 15 97 3 59 80 99 46 32 42 75 67 2 98 78 68 11 6 25
split_gain=473.178 438.487 31.3683 28.0766 38.0209 16.5853 7.24969 4.00965 4.8217 2.80051 1.35994 0.890216 0.745564 0.911204 0.00272268 0.000548951 0.000339489 0.000414373 0.000222032 0.000365424 0.000166133 0.000149967 0.000122553 0.000117302 0.000140032 6.00273e-05 0.000109032
threshold=1686.5000000000002 1158.5000000000002 1598.5000000000002 1339.5000000000002 1072.5000000000002 1451.5000000000002 1281.5000000000002 1232.5000000000002 1534.0000000000002 1097.0000000000002 1739.5000000000002 1154.5000000000002 2735.0000000000005 3368.0000000000005 1719.5000000000002 1272.5000000000002 2726.0000000000005 2198.0000000000005 1925.5000000000002 874.50000000000011 1555.0000000000002 1824.5000000000002 2290.5000000000005 911.50000000000011 1430.5000000000002 714.50000000000011 1506.5000000000002
decision_type=2 2 2 2 2 2 2 2 2 2 2 2 2 2 2 2 2 2 2 2 2 2 2 2 2 2 2
left_child=1 5 3 4 -3 9 -5 11 -9 15 -2 -8 14 -14 -12 -1 17 18 19 22 23 -21 -16 -20 25 -25 -27
right_child=10 2 -4 6 -6 -7 7 8 -10 -11 12 -13 13 -15 16 -17 -18 -19 20 21 -22 -23 -24 24 -26 26 -28
leaf_value=-0.096995393402992014 -0.053722757884107332 0.25067066358071116 0.07695773891070111 0.18908473329714717 -0.10455193759533742 0.083589714660878667 0.26939991989485595 0.19346735950305771 0.27235382488574067 -0.01089506147106753 -0.10108452405154243 0.29423935216137326 -0.048980389698800475 -0.097073946555449542 -0.09858587105833283 -0.098187849682099357 -0.096925044548543768 -0.098325101613453092 -0.097035533078826314 -0.097650881717524285 -0.098158029661360224 -0.097255512179877171 -0.097627471785882838 -0.09723805818186837 -0.097008838436933059 -0.097563280973075775 -0.097251470467507706
leaf_weight=63.383688319474459 7.9366314411163321 6.8118474110960943 13.625901915132998 14.972067482769488 5.4032043516635895 5.798931583762168 36.868239566683769 14.739360652863981 16.334994375705719 3.9945363253355017 1.8919584434479464 23.705055952072144 7.3226110711693755 8.5269292183220369 3.6030575409531584 4.1109349839389315 24.649571560323238 4.0090456679463378 27.441162917762995 14.087366864085196 1.9170620217919339 30.076122108846903 2.1188527196645737 48.475147591903806 17.743307702243328 21.212329575791955 23.793079281225801
leaf_count=454 53 23 58 48 52 37 56 41 34 44 12 29 29 32 52 30 82 35 278 106 13 545 15 1337 154 456 172
internal_value=0 0.110225 0.220669 0.237147 0.0935415 -0.0790595 0.2536 0.264139 0.234936 -0.092253 -0.0944406 0.279121 -0.0958049 -0.0748543 -0.0973073 -0.097068 -0.0972747 -0.097319 -0.0972978 -0.097479 -0.0972335 -0.0973816 -0.098231 -0.0972207 -0.0972664 -0.0973153 -0.0973984
internal_weight=0 209.749 132.461 118.835 12.2151 77.2881 106.62 91.6477 31.0744 71.4892 244.804 60.5733 236.868 15.8495 221.018 67.4946 219.126 194.477 190.467 49.8854 140.582 44.1635 5.72191 138.665 111.224 93.4806 45.0054
internal_count=4277 906 341 283 75 565 208 160 75 528 3371 85 3318 61 3257 484 3245 3163 3128 718 2410 651 67 2397 2119 1965 628
is_linear=0
shrinkage=0.1


Tree=25
num_leaves=28
num_cat=0
split_feature=59 100 82 16 73 40 37 82 23 69 66 41 88 82 13 57 102 69 29 28 60 57 102 46 32 70 9
split_gain=451.223 202.217 74.3709 41.3309 51.9568 38.3417 20.3145 28.7122 21.3474 15.6994 13.6924 15.0358 27.9367 11.8199 8.49151 22.2571 3.37614 7.82241 2.26787 1.63432 1.27491 1.06265 0.66193 0.0772817 3.94338 8.87065 0.00121
threshold=1637.5000000000002 2343.5000000000005 1713.5000000000002 1427.5000000000002 1766.5000000000002 2126.5000000000005 1872.5000000000002 1829.5000000000002 1437.5000000000002 1910.5000000000002 1577.5000000000002 1529.5000000000002 2094.5000000000005 1817.5000000000002 1451.5000000000002 1917.5000000000002 1948.5000000000002 1994.5000000000002 1913.5000000000002 1533.5000000000002 1868.5000000000002 1535.5000000000002 2041.5000000000002 980.50000000000011 921.50000000000011 1445.5000000000002 2189.5000000000005
decision_type=2 2 2 2 2 2 2 2 2 2 2 2 2 2 2 2 2 2 2 2 2 2 2 2 2 2 2
left_child=10 2 19 4 -4 13 7 -6 9 -9 21 12 -12 -5 15 -15 17 -16 22 -2 -11 23 -18 -1 25 -25 -3
right_child=1 26 3 5 6 -7 -8 8 -10 20 11 -13 -14 14 16 -17 18 -19 -20 -21 -22 -23 -24 24 -26 -27 -28
leaf_value=-0.097146211775057861 -0.027063885481636792 -0.098259381463132983 0.37517658111806829 0.14752463534291155 -0.034273346650243126 0.015000157611610502 -0.08398976956476964 0.24064233183394046 0.23903912192147528 -0.0057645735186392551 0.22475600938754392 -0.087945541140320688 -0.097353396997965136 0.30614281683221989 0.29676361321649142 0.1279123089030112 0.29572535840213132 0.17553882598962575 0.33781807462828373 -0.099406058593878507 -0.10086403723536069 -0.050443696890189141 0.26065719446996788 0.24298490023851721 -0.097218581819308814 -0.098794910684201001 -0.096928233649510365
leaf_weight=127.51727363467216 5.3695795424282533 9.0346535928547365 6.1416817009448996 13.017077937722204 11.083046361804007 8.573563661426304 7.6249857842922202 2.5725967194885033 13.810710877180098 2.6084843091666698 5.6908120959997195 12.769225075840948 5.1106665600091219 12.502952322363855 12.22634679079056 15.938206337392328 10.651970818638807 9.4274889230728132 8.9839519709348661 7.4635952338576317 3.0673516057431698 5.3541041687130919 10.880539447069166 1.1194568090140813 95.992884391918778 2.3609238900244236 27.965661503374577
leaf_count=1805 31 104 33 53 41 32 30 25 54 41 30 53 123 46 41 54 35 28 32 32 20 31 34 14 1297 60 98
internal_value=0 0.113669 0.16186 0.181741 0.104029 0.217409 0.0631802 0.0970395 0.163014 0.0357224 -0.0871105 -0.014488 0.0723515 0.235943 0.250221 0.206264 0.274185 0.243986 0.295614 -0.0691371 -0.0571585 -0.0944779 0.278005 -0.0955165 -0.0934274 0.0111378 -0.0972533
internal_weight=0 198.944 161.944 149.111 46.9089 102.202 40.7672 33.1422 22.0591 8.24843 255.915 23.5707 10.8015 93.6285 80.6115 28.4412 52.1703 21.6538 30.5165 12.8332 5.67584 232.345 21.5325 226.991 99.4733 3.48038 37.0003
internal_count=4277 864 662 599 244 355 211 181 140 86 3413 206 153 323 270 100 170 69 101 63 61 3207 69 3176 1371 74 202
is_linear=0
shrinkage=0.1


Tree=26
num_leaves=28
num_cat=0
split_feature=86 0 17 87 9 41 101 79 67 5 53 61 43 11 12 22 100 94 81 82 90 41 3 84 72 4 34
split_gain=1175.31 0.112056 0.0602238 0.00165756 0.000479273 0.000469468 0.00017818 0.000248746 0.000754708 0.00018564 0.00015561 0.000109773 0.000173125 0.00011295 0.000103096 9.90983e-05 8.37687e-05 8.23017e-05 8.01046e-05 7.16295e-05 5.51045e-05 5.4363e-05 5.2044e-05 5.0989e-05 4.82909e-05 4.99915e-05 4.72389e-05
threshold=934.50000000000011 682.50000000000011 144.00000000000003 1059.5000000000002 2189.5000000000005 2190.5000000000005 1412.5000000000002 2556.5000000000005 824.50000000000011 1296.5000000000002 1927.5000000000002 1730.5000000000002 1685.5000000000002 1489.0000000000002 951.50000000000011 950.50000000000011 2698.5000000000005 2164.5000000000005 1854.5000000000002 1920.5000000000002 1899.5000000000002 1651.5000000000002 1488.0000000000002 2040.5000000000002 1760.5000000000002 560.50000000000011 1568.5000000000002
decision_type=2 2 2 2 2 2 2 2 2 2 2 2 2 2 2 2 2 2 2 2 2 2 2 2 2 2 2
left_child=1 2 -1 -2 5 6 9 8 -8 -5 11 13 14 21 -13 24 -17 22 -14 20 -20 26 -12 -21 -9 -26 -10
right_child=3 -3 -4 4 -6 -7 7 15 10 -11 17 12 18 -15 -16 16 -18 -19 19 23 -22 -23 -24 -25 25 -27 -28
leaf_value=0.26867710824769275 -0.099820912463995687 0.26499486954178791 0.27423234982385558 -0.097049438311409039 -0.096932076258037903 -0.098219122795981328 -0.098661015909954075 -0.096982602964098857 -0.097320951482180548 -0.097694653882383242 -0.097022487723506884 -0.09748814544218562 -0.097629925921827412 -0.098051661463215603 -0.098378762222408322 -0.097190441821965526 -0.097855413052343299 -0.097605059650352766 -0.097380930456784198 -0.097326491030898798 -0.096959024430141538 -0.097013512225262555 -0.097370565727823891 -0.097826575072724631 -0.097279693720211335 -0.097015871703931056 -0.097739929052915064
leaf_weight=38.621904134750366 2.5278030633926383 40.372644186019897 39.445644497871399 46.968226924538612 41.388488885015249 5.4042504802346221 4.4573609959334126 22.807343531399965 85.895974639803171 4.9270258434116831 23.063749793916948 2.0743299294263116 13.948588792234657 2.1280782222747794 3.4807557407766581 4.4183046128600827 3.3163639865815639 3.4432969987392417 6.1217072755098361 4.6090232171118242 6.2626108415424824 5.6258072517812243 5.2786686830222598 3.6562880706042051 18.198429800570015 11.865513153374193 2.7780602276325217
leaf_count=31 34 39 32 459 143 49 52 215 1710 51 171 41 88 7 42 74 55 31 43 42 42 32 43 29 466 237 19
internal_value=0 0.269272 0.271484 -0.0972699 -0.0972505 -0.0972958 -0.0972783 -0.0973156 -0.0973767 -0.0971107 -0.0973427 -0.0973891 -0.097528 -0.0973312 -0.0980462 -0.0971412 -0.0974756 -0.0971434 -0.0974448 -0.0973197 -0.0971676 -0.097315 -0.0970873 -0.0975477 -0.0970923 -0.0971756 -0.0973341
internal_weight=0 118.44 78.0675 334.646 332.118 290.73 285.326 233.43 172.824 51.8953 168.367 136.581 40.1533 96.4279 5.55509 60.606 7.73467 31.7857 34.5982 20.6496 12.3843 94.2998 28.3424 8.26531 52.8713 30.0639 88.674
internal_count=4277 102 63 4175 4141 3998 3949 3439 2392 510 2340 2095 327 1768 83 1047 129 245 244 156 85 1761 214 71 918 703 1729
is_linear=0
shrinkage=0.1


Tree=27
num_leaves=28
num_cat=0
split_feature=102 45 52 88 82 92 14 8 82 55 84 54 63 14 101 9 82 12 64 99 60 71 36 18 101 25 101
split_gain=332.05 148.993 114.185 23.2932 27.1695 30.5326 21.2139 11.1804 14.3916 7.13335 10.9346 15.8898 6.56327 6.29185 4.96363 6.47141 9.54613 2.13537 1.2158 2.59849 1.03742 0.201163 0.796008 3.06061 0.445666 0.137443 0.165893
threshold=1720.5000000000002 669.50000000000011 1339.5000000000002 1351.5000000000002 1713.5000000000002 1728.5000000000002 1255.5000000000002 1151.5000000000002 1479.5000000000002 1406.5000000000002 1617.5000000000002 1534.5000000000002 1489.5000000000002 1216.5000000000002 1886.5000000000002 1306.0000000000002 1829.5000000000002 1216.5000000000002 1299.5000000000002 1396.5000000000002 3186.5000000000005 2106.5000000000005 1459.5000000000002 930.00000000000011 2191.5000000000005 1166.5000000000002 1308.5000000000002
decision_type=2 2 2 2 2 2 2 2 2 2 2 2 2 2 2 2 2 2 2 2 2 2 2 2 2 2 2
left_child=1 -1 13 -4 6 -6 7 8 -5 -8 11 12 -11 18 15 16 17 -2 19 25 21 -16 23 -23 -24 26 -3
right_child=14 2 3 4 5 -7 9 -9 -10 10 -12 -13 -14 -15 20 -17 -18 -19 -20 -21 -22 22 24 -25 -26 -27 -28
leaf_value=-0.095891870227683196 -0.099217436578416987 0.21613630953402066 0.22517729308104545 -0.052253054129211822 0.38081125278781008 0.0042655816073691221 -0.099171152285713673 0.18568295389371425 0.12271649459655386 0.033679484229946932 -0.084745702348046292 0.15807163052424869 -0.082583498373073674 0.12383069007791501 -0.095696386725957705 -0.092819484996550905 0.099263341729079996 -0.0038767247544987619 0.2512848993390539 0.15092319907554605 -0.018068025380472731 -0.096929463598865076 -0.061085515337658151 0.097899872400835738 -0.096259784430831247 0.22894388843517036 0.19855189636003967
leaf_weight=36.651200078427792 6.2188450265675765 53.274226799607277 6.7670395895838729 8.5857465714216286 4.4985278248786909 4.1308192685246468 10.383612960577009 7.8128204941749564 10.389449030160902 11.281114801764494 12.126479476690291 7.0923672243952742 8.5246584340929967 8.5621537789702398 140.76283972803503 17.565148092806339 5.6675853896886101 3.775310792028904 7.8806128650903693 6.7693228945136061 1.8223387338221062 3.1163661498576394 4.0421109423041335 1.0877393409609792 33.092931501567364 7.259443834424018 5.9658394604921332
leaf_count=101 63 273 37 32 35 28 30 45 46 48 40 37 25 36 2705 128 43 26 43 32 12 86 33 24 201 38 30
internal_value=0 0.0879988 0.125173 0.0466321 0.0323884 0.200561 0.0133426 0.0850019 0.0435477 -0.0255094 -0.00590958 0.0296321 -0.0163616 0.20536 -0.0867179 -0.0511471 -0.00441013 -0.0632023 0.213963 0.209948 -0.0931439 -0.0938952 -0.0877621 -0.0465208 -0.0924311 0.215957 0.214365
internal_weight=0 217.955 181.304 91.5926 84.8256 8.62935 76.1962 26.788 18.9752 49.4082 39.0246 26.8981 19.8058 89.7116 217.151 33.2269 15.6617 9.99416 81.1494 73.2688 183.924 182.102 41.3391 4.20411 37.135 66.4995 59.2401
internal_count=4277 956 855 403 366 63 303 123 78 180 150 110 73 452 3321 260 132 89 416 373 3061 3049 344 110 234 341 303
is_linear=0
shrinkage=0.1


Tree=28
num_leaves=28
num_cat=0
split_feature=11 70 84 86 15 63 3 71 32 28 84 82 84 82 102 81 98 24 13 85 78 87 98 11 46 84 63
split_gain=282.54 214.249 24.637 25.174 24.2543 11.3131 12.4367 12.2279 21.6504 10.2062 8.53667 15.7891 17.3981 18.7655 10.2922 9.40747 8.0389 7.55536 8.67006 13.7125 6.29182 5.78159 9.3127 5.76886 5.52757 26.4289 5.42263
threshold=936.50000000000011 1193.5000000000002 1807.5000000000002 3833.5000000000005 309.50000000000006 1554.5000000000002 852.50000000000011 2043.5000000000002 1183.5000000000002 632.50000000000011 2325.5000000000005 1894.5000000000002 1998.5000000000002 2090.0000000000005 2252.5000000000005 2262.5000000000005 2400.5000000000005 496.00000000000006 359.50000000000006 3231.5000000000005 2121.5000000000005 2427.5000000000005 2445.5000000000005 324.50000000000006 447.50000000000006 1807.5000000000002 1059.5000000000002
decision_type=2 2 2 2 2 2 2 2 2 2 2 2 2 2 2 2 2 2 2 2 2 2 2 2 2 2 2
left_child=1 24 -3 5 9 7 -7 8 10 -5 11 -4 -13 -14 -15 20 -17 -12 -19 21 -16 -20 -23 -11 -1 -26 -24
right_child=-2 2 3 4 -6 6 -8 -9 -10 23 17 12 13 14 15 16 -18 18 19 -21 -22 22 26 -25 25 -27 -28
leaf_value=-0.095184171139712392 -0.091839818440029919 -0.062511489010553506 0.241534445811699 -0.020444475822658136 -0.066924596539341991 -0.054470628946334677 0.21005921350130241 0.26090209816361509 -0.028608820862740948 0.24197835906681836 0.0061662062245250917 -0.080217810269542417 0.21477843466293961 -0.054011886821914427 0.11614967826940348 -0.025080031759050426 0.17096821410366173 0.25270984217331344 0.27088443805426304 0.02449252086907882 0.3235396575777596 0.00848687672611898 0.20908603541957893 0.06218947703508048 -0.077606643468136449 0.39013377164832991 0.13999303140441816
leaf_weight=56.063640249893069 187.05517070367932 6.6290181353688231 9.0989056639373285 3.0572283454239395 11.42965450696647 5.3698692228645069 2.6565178632736206 10.148258600383995 6.6674895510077468 6.3591746948659402 2.528494104743003 4.9360273107886306 13.059454161673782 5.5983631350100067 3.549655031412839 6.1658541448414308 3.1652798261493444 14.108857091516255 6.4012233987450591 6.1777130030095568 2.4883184749633074 3.3340843953192225 28.352111741900444 2.4809784702956676 9.2614930327981693 1.3892032857984293 18.951992060989141
leaf_count=257 1466 82 141 25 94 56 41 161 72 97 21 53 193 62 46 65 44 218 103 56 45 33 402 25 152 30 237
internal_value=0 0.0707397 0.126742 0.133867 0.0371091 0.148643 0.0330816 0.155051 0.14707 0.137053 0.156227 0.122928 0.0952299 0.120681 0.0620726 0.104358 0.0414229 0.176268 0.18183 0.166012 0.201617 0.181339 0.170019 0.191521 -0.0826382 -0.0165978 0.181405
internal_weight=0 249.429 182.715 176.086 23.327 152.758 8.02639 144.732 134.584 11.8974 127.916 48.0619 38.963 34.0269 20.9675 15.3691 9.33113 79.8545 77.326 63.2171 6.03797 57.0394 50.6382 8.84015 66.7143 10.6507 47.3041
internal_count=4277 2811 2372 2290 241 2049 97 1952 1791 147 1719 649 508 455 262 200 109 1070 1049 831 91 775 672 122 439 182 639
is_linear=0
shrinkage=0.1


Tree=29
num_leaves=28
num_cat=0
split_feature=57 14 82 50 20 82 13 4 4 82 59 26 1 93 2 82 65 0 37 15 102 40 5 96 2 98 4
split_gain=269.485 146.979 53.5906 22.036 47.8984 51.6682 15.0174 32.1335 16.2097 17.4005 24.851 14.6102 19.1728 13.0832 12.901 11.5021 18.2301 9.13497 7.80828 6.30743 5.11502 2.31374 1.67648 1.07179 0.756565 1.52248 0.00114434
threshold=1572.5000000000002 1503.0000000000002 2168.5000000000005 1321.5000000000002 1179.5000000000002 1507.5000000000002 1401.5000000000002 1405.5000000000002 1256.5000000000002 1693.5000000000002 1754.5000000000002 2024.0000000000002 1321.0000000000002 1941.0000000000002 1464.0000000000002 1817.5000000000002 1983.0000000000002 1426.0000000000002 1774.5000000000002 1396.5000000000002 1785.5000000000002 1797.5000000000002 1682.0000000000002 2029.5000000000002 1105.5000000000002 1164.5000000000002 1180.0000000000002
decision_type=2 2 2 2 2 2 2 2 2 2 2 2 2 2 2 2 2 2 2 2 2 2 2 2 2 2 2
left_child=3 2 6 24 5 -5 8 17 9 -2 20 12 23 -14 -15 -12 18 -8 -17 21 -11 -10 -6 -3 -1 -26 -4
right_child=1 11 26 4 22 -7 7 -9 19 10 15 -13 13 14 -16 16 -18 -19 -20 -21 -22 -23 -24 -25 25 -27 -28
leaf_value=-0.096084901410530249 0.21919187262643047 -0.098520236613830303 -0.096470417705806624 0.20621814635715174 -0.096375819707328281 -0.096530028927693828 -0.062561810688617159 0.19582827570542569 0.20779237596585759 -0.10931764299665386 0.25749121209518216 -0.096084236030453379 0.19211065001783428 -0.10008105819446796 0.12392554153976812 -0.066038519176271585 0.21224170485537025 0.087126857370117813 0.10730120715102065 0.16094910896424916 0.034601322938728876 0.25786352222247383 -0.049148768477127243 -0.034855815949709802 0.0085449471889864088 -0.096276026112712965 -0.098981078945804019
leaf_weight=151.78983971197158 14.934831522405146 10.828278314322235 6.7184597644954902 14.47137835621834 36.576169591397047 9.2342512086033803 10.195186592638494 15.674598842859266 20.030895128846169 5.400738596916197 6.5143095254898098 30.690864760428667 6.0559225082397488 5.3830586820840818 4.9216307178139687 5.562939742580058 8.4920057356357557 6.7935052812099448 4.8770028054714203 19.774959217756987 4.5500361640006304 17.113053441047668 9.4607245922088605 3.4987492412328711 2.1097816526889792 4.0371471624821424 2.4876118302345276
leaf_count=2752 44 73 112 27 225 216 59 42 48 31 17 137 26 40 25 50 19 26 16 58 35 30 32 29 22 64 22
internal_value=0 0.0829475 0.136557 -0.0740187 -0.0272024 0.0882861 0.151934 0.0925687 0.170014 0.128672 0.0904798 -0.0472981 0.00149325 0.0754605 0.00690691 0.142877 0.103439 -0.00270371 0.0149369 0.206572 -0.0435101 0.230861 -0.0866705 -0.082973 -0.0946921 -0.0602988 -0.0971488
internal_weight=0 210.499 149.12 227.679 69.7425 23.7056 139.914 32.6633 107.251 50.3319 35.397 61.3785 30.6876 16.3606 10.3047 25.4463 18.9319 16.9887 10.4399 56.9189 9.95077 37.1439 46.0369 14.327 157.937 6.14693 9.20607
internal_count=4277 939 609 3338 500 243 475 127 348 212 168 330 193 91 65 102 85 85 66 136 66 78 257 102 2838 86 134
is_linear=0
shrinkage=0.1


Tree=30
num_leaves=28
num_cat=0
split_feature=92 47 6 71 41 71 102 5 22 32 12 101 37 0 4 101 8 25 67 59 74 3 3 12 101 12 5
split_gain=600.666 104.922 21.7126 58.9268 40.5984 8.17302 18.9004 9.95445 8.22996 9.42332 3.04931 4.53635 1.98786 1.54382 0.996902 1.76534 0.435029 1.13369 0.227714 0.11772 0.0660711 0.0422824 1.68295 0.00462969 0.00398639 0.00385777 0.00217581
threshold=2878.5000000000005 1275.5000000000002 392.50000000000006 297.50000000000006 483.50000000000006 1566.5000000000002 3272.5000000000005 357.50000000000006 338.00000000000006 846.50000000000011 327.50000000000006 4298.5000000000009 688.50000000000011 797.50000000000011 557.50000000000011 4036.0000000000005 447.50000000000006 532.50000000000011 3380.0000000000005 259.50000000000006 2087.5000000000005 591.50000000000011 583.50000000000011 296.50000000000006 3306.5000000000005 313.50000000000006 583.50000000000011
decision_type=2 2 2 2 2 2 2 2 2 2 2 2 2 2 2 2 2 2 2 2 2 2 2 2 2 2 2
left_child=2 5 3 -1 -5 16 12 8 -8 13 11 -9 -7 23 15 -12 17 19 -3 20 24 22 25 -10 -2 -4 -14
right_child=1 18 21 4 -6 6 7 10 9 -11 14 -13 26 -15 -16 -17 -18 -19 -20 -21 -22 -23 -24 -25 -26 -27 -28
leaf_value=-0.096586119146940277 0.21620473615906796 -0.096733341441981785 -0.099322245237726037 0.31297814061405721 -0.096747394366020811 0.070085461986979514 0.26889002235042458 0.0404982794858346 -0.10172465950903622 0.24506262774828672 0.1434700965016085 0.2052622648448641 -0.098542341270637629 0.042360787966640806 0.22460268335053596 0.22150516207882537 0.22962688547869858 0.17952227431283468 -0.071703139919909717 0.22290651861227243 0.20648740399356377 -0.096224611135206986 0.017325787729911935 -0.10979859929556422 0.21391464271165492 -0.096310011641555601 -0.10459578743372384
leaf_weight=25.550098806619644 14.379794538021089 8.753594281151889 4.9462485015392295 7.4498137235641462 3.5807674340903759 0.9105603508651251 1.5458644330501545 2.8298002090305081 1.8537834621965892 1.2516414225101469 5.0775821618735808 4.0807181689888239 1.8693401925265791 0.93428061716258515 20.113338993862271 6.7566805314272642 12.756356060504912 10.644793139770625 6.2153673768043509 14.296914890408514 13.030258797109125 213.1215306930244 1.3429628573358048 1.1512546744197605 16.124141216278076 30.27662790287286 0.87015672959387291
leaf_count=63 34 46 37 21 134 30 4 48 71 8 49 23 71 17 58 19 31 54 26 37 35 2475 29 31 38 770 18
internal_value=0 0.164417 -0.0851442 -0.0131924 0.179972 0.193185 0.16104 0.178569 0.0663507 0.00603467 0.198024 0.137793 -0.0579188 -0.0699118 0.211053 0.188024 0.212672 0.209513 -0.0863404 0.215034 0.212448 -0.0956856 -0.0925439 -0.104818 0.214994 -0.096733 -0.100465
internal_weight=0 145.446 286.268 36.5807 11.0306 130.477 49.245 45.5949 6.73682 5.19096 38.8581 6.91052 3.65006 3.93932 31.9476 11.8343 81.2323 68.4759 14.969 57.8311 43.5342 249.687 36.5658 3.00504 30.5039 35.2229 2.7395
internal_count=4277 748 3529 218 155 676 447 328 131 127 197 71 119 119 126 68 229 198 72 144 107 3311 836 102 72 807 89
is_linear=0
shrinkage=0.1


Tree=31
num_leaves=28
num_cat=0
split_feature=9 11 19 85 42 80 79 67 6 2 46 61 44 7 11 82 91 77 102 100 82 25 41 101 7 72 82
split_gain=871.398 0.985257 0.0391943 0.00401727 0.000755041 0.000642015 0.000233251 0.000727979 0.000215102 0.000127949 0.00013101 0.000431136 0.000191508 0.000188108 0.000118087 0.000103992 0.000100283 9.86864e-05 9.77016e-05 8.55088e-05 0.000144224 0.00018515 0.000106339 7.65232e-05 7.23733e-05 6.49857e-05 5.84011e-05
threshold=2189.5000000000005 3324.5000000000005 6144.0000000000009 2329.5000000000005 2198.0000000000005 1281.5000000000002 2574.5000000000005 840.50000000000011 820.50000000000011 1588.5000000000002 1843.5000000000002 1730.5000000000002 1692.0000000000002 1423.5000000000002 945.50000000000011 1817.5000000000002 2200.5000000000005 1972.5000000000002 2776.0000000000005 1449.5000000000002 1366.5000000000002 1255.0000000000002 1651.5000000000002 1820.5000000000002 703.50000000000011 1760.5000000000002 1693.5000000000002
decision_type=2 2 2 2 2 2 2 2 2 2 2 2 2 2 2 2 2 2 2 2 2 2 2 2 2 2 2
left_child=4 -2 3 -3 5 -1 7 -7 25 10 11 13 14 19 -13 -14 23 -17 -10 20 21 -9 24 -12 -21 -8 -26
right_child=1 2 -4 -5 -6 6 8 9 18 -11 16 12 15 -15 -16 17 -18 -19 -20 22 -22 -23 -24 -25 26 -27 -28
leaf_value=-0.095876724224727761 0.19790581941385132 0.21582661688383414 0.220847532585003 0.21740723006744225 -0.09744911809964818 -0.097567329524035185 -0.095871455973134068 -0.096022124328420666 -0.096337006080797011 -0.097012218579053983 -0.096473919465770913 -0.096596008241615391 -0.096756973141841923 -0.096993859056374421 -0.09758799433142977 -0.096046701830373948 -0.096652252392118387 -0.096753742345605048 -0.097245875524708605 -0.096211229364176018 -0.09597330262196288 -0.096958304857603914 -0.095808096836123222 -0.096007449665040642 -0.096292759163819797 -0.096108041475442788 -0.096557968824442314
