tree
version=v3
num_class=16
num_tree_per_iteration=16
label_index=0
max_feature_idx=199
objective=multiclass num_class:16
feature_names=Column_0 Column_1 Column_2 Column_3 Column_4 Column_5 Column_6 Column_7 Column_8 Column_9 Column_10 Column_11 Column_12 Column_13 Column_14 Column_15 Column_16 Column_17 Column_18 Column_19 Column_20 Column_21 Column_22 Column_23 Column_24 Column_25 Column_26 Column_27 Column_28 Column_29 Column_30 Column_31 Column_32 Column_33 Column_34 Column_35 Column_36 Column_37 Column_38 Column_39 Column_40 Column_41 Column_42 Column_43 Column_44 Column_45 Column_46 Column_47 Column_48 Column_49 Column_50 Column_51 Column_52 Column_53 Column_54 Column_55 Column_56 Column_57 Column_58 Column_59 Column_60 Column_61 Column_62 Column_63 Column_64 Column_65 Column_66 Column_67 Column_68 Column_69 Column_70 Column_71 Column_72 Column_73 Column_74 Column_75 Column_76 Column_77 Column_78 Column_79 Column_80 Column_81 Column_82 Column_83 Column_84 Column_85 Column_86 Column_87 Column_88 Column_89 Column_90 Column_91 Column_92 Column_93 Column_94 Column_95 Column_96 Column_97 Column_98 Column_99 Column_100 Column_101 Column_102 Column_103 Column_104 Column_105 Column_106 Column_107 Column_108 Column_109 Column_110 Column_111 Column_112 Column_113 Column_114 Column_115 Column_116 Column_117 Column_118 Column_119 Column_120 Column_121 Column_122 Column_123 Column_124 Column_125 Column_126 Column_127 Column_128 Column_129 Column_130 Column_131 Column_132 Column_133 Column_134 Column_135 Column_136 Column_137 Column_138 Column_139 Column_140 Column_141 Column_142 Column_143 Column_144 Column_145 Column_146 Column_147 Column_148 Column_149 Column_150 Column_151 Column_152 Column_153 Column_154 Column_155 Column_156 Column_157 Column_158 Column_159 Column_160 Column_161 Column_162 Column_163 Column_164 Column_165 Column_166 Column_167 Column_168 Column_169 Column_170 Column_171 Column_172 Column_173 Column_174 Column_175 Column_176 Column_177 Column_178 Column_179 Column_180 Column_181 Column_182 Column_183 Column_184 Column_185 Column_186 Column_187 Column_188 Column_189 Column_190 Column_191 Column_192 Column_193 Column_194 Column_195 Column_196 Column_197 Column_198 Column_199
feature_infos=[2560:4201] [3592:5396] [3750:5887] [3661:6051] [3974:6690] [4123:7412] [4138:7638] [4034:7678] [3894:7721] [3640:7369] [2815:7457] [2712:7452] [2658:7244] [2766:7474] [2803:7585] [2761:7496] [2646:7363] [2563:7166] [2562:7083] [2562:6960] [2561:6926] [2561:6974] [2560:6852] [2517:6705] [2461:6744] [2363:6631] [2264:6426] [2244:6529] [2196:6499] [2086:5922] [2335:6042] [2088:6132] [2306:6276] [2564:6502] [2564:5992] [2561:5895] [2776:7264] [3700:8611] [3638:8824] [2561:6119] [3706:9219] [3684:9360] [3695:8963] [2812:8817] [2622:8232] [2600:7417] [2687:7874] [3637:8576] [2746:8359] [2744:8451] [2704:8275] [2754:8355] [2673:8153] [2565:6590] [2560:6256] [2572:6065] [2560:5355] [1813:2969] [1895:3160] [2023:3320] [2497:4613] [2568:5425] [2570:6155] [2563:6619] [2575:6488] [2587:6543] [2566:6499] [2564:6517] [2574:6472] [2608:6445] [2563:6255] [2562:6107] [2560:5948] [2563:5672] [2560:4941] [2241:3900] [1518:2115] [1388:1830] [1593:2211] [1545:2024] [1916:2688] [2288:3326] [2425:3600] [2367:3326] [2492:3704] [2431:3660] [2498:3761] [2560:3880] [2560:4025] [2560:3994] [2510:3847] [2281:3314] [2369:3320] [2477:3658] [2266:3309] [2421:3636] [2387:3606] [2295:3320] [2077:2982] [1919:2708] [1600:2132] [1361:1745] [1041:1137] [1005:1072] [1015:1103] [1019:1145] [1030:1184] [1059:1356] [1078:1494] [1063:1372] [1093:1535] [1165:1899] [1234:2209] [1290:2439] [1342:2570] [1384:2644] [1405:2683] [1424:2695] [1448:2666] [1404:2510] [1433:2527] [1462:2564] [1452:2502] [1450:2490] [1468:2538] [1481:2538] [1468:2470] [1452:2435] [1452:2419] [1439:2377] [1434:2363] [1410:2309] [1381:2256] [1348:2199] [1332:2152] [1298:2060] [1280:1990] [1252:1952] [1231:1881] [1195:1743] [1138:1558] [1099:1400] [1039:1191] [1011:1074] [992:1052] [992:1068] [1000:1157] [1015:1316] [1020:1430] [1019:1354] [1000:1147] [1001:1151] [1019:1328] [1039:1489] [1034:1478] [1026:1367] [1032:1367] [1041:1439] [1049:1530] [1056:1565] [1062:1570] [1064:1555] [1064:1552] [1067:1555] [1064:1535] [1064:1499] [1055:1471] [1061:1464] [1061:1454] [1059:1434] [1059:1424] [1066:1444] [1065:1447] [1059:1427] [1052:1410] [1049:1389] [1046:1370] [1038:1357] [1034:1351] [1032:1336] [1028:1326] [1029:1320] [1022:1294] [1023:1295] [1019:1260] [1012:1234] [1015:1243] [1012:1205] [1006:1183] [1009:1186] [1003:1192] [1004:1146] [1001:1145] [999:1155] [995:1126] [995:1099] [994:1111] [995:1082] [986:1047] [990:1033]
tree_sizes=749 2367 2374 2203 2088 1883 655 1763 857 2381 2380 2363 1274 1475 1660 654 2513 2395 2392 2437 2462 2453 2510 2469 2500 2405 2398 2409 2510 2457 2456 2506 2519 2395 2375 2462 2461 2466 2493 2461 2513 2385 2379 2390 2519 2466 2433 2497 2516 2397 2392 2435 2441 2456 2509 2460 2511 2394 2398 2412 2500 2452 2445 2504 2513 2401 2405 2446 2441 2467 2520 2466 2528 2407 2393 2395 2487 2456 2436 2501 2522 2395 2402 2460 2443 2469 2510 2459 2529 2400 2407 2395 2494 2468 2445 2509 2501 2412 2414 2449 2460 2480 2508 2465 2531 2404 2398 2415 2507 2458 2465 2506 2516 2406 2404 2460 2451 2462 2520 2468 2526 2408 2403 2401 2512 2458 2472 2519 2517 2421 2408 2461 2450 2466 2529 2489 2537 2411 2410 2417 2519 2465 2470 2512 2522 2422 2411 2451 2444 2475 2530 2485 2544 2408 2411 2406 2523 2459 2471 2523 2521 2406 2413 2455 2468 2477 2513 2498 2540 2416 2411 2417 2519 2460 2453 2519 2505 2425 2419 2466 2478 2484 2521 2494 2537 2417 2420 2408 2503 2453 2441 2511 2531 2430 2431 2459 2497 2476 2539 2496 2541 2424 2418 2417 2522 2460 2451 2516 2532 2428 2435 2448 2444 2481 2541 2503 2541 2413 2423 2432 2511 2470 2467 2529 2537 2428 2442 2450 2464 2479 2522 2500 2547 2450 2419 2418 2506 2445 2466 2532 2528 2437 2434 2453 2452 2481 2528 2485 2552 2447 2422 2423 2509 2456 2463 2531 2546 2437 2438 2463 2473 2480 2530 2506 2540 2454 2414 2435 2511 2468 2451 2525 2534 2433 2435 2469 2455 2476 2534 2512 2550 2445 2431 2428 2534 2474 2462 2530 2523 2447 2445 2474 2480 2489 2537 2515 2555 2453 2447 2432 2534 2470 2469 2532 2538 2454 2459 2489 2479 2490 2533 2526 2558 2453 2446 2465 2538 2471 2454 2545 2533 2443 2458 2484 2495 2498 2563 2507 2555 2458 2441 2464 2539 2480 2465 2537 2550 2457 2447 2489 2509 2493 2546 2531 2553 2454 2443 2456 2549 2479 2470 2555 2539 2452 2451 2503 2511 2503 2545 2539 2561 2454 2454 2453 2549 2474 2488 2551 2536 2462 2469 2489 2488 2508 2545 2539 2563 2460 2455 2455 2546 2496 2478 2557 2540 2468 2472 2514 2514 2518 2577 2526 2580 2449 2441 2461 2551 2496 2495 2554 2568 2471 2471 2513 2497 2514 2568 2525 2584 2456 2435 2471 2552 2498 2496 2563 2559 2461 2468 2521 2518 2506 2565 2542 2585 2462 2462 2476 2565 2495 2483 2556 2564 2465 2464 2505 2505 2527 2555 2542 2588 2465 2448 2475 2566 2505 2495 2559 2560 2468 2468 2502 2513 2525 2566 2535 2586 2481 2458 2483 2559 2521 2494 2574 2565 2468 2468 2484 2524 2517 2568 2548 2597 2480 2462 2477 2563 2492 2497 2563 2588 2464 2480 2502 2524 2534 2585 2553 2588 2483 2473 2474 2572 2518 2513 2573 2568 2475 2479 2488 2524 2536 2573 2550 2591 2476 2469 2489 2578 2516 2505 2575 2579 2473 2485 2539 2531 2531 2574 2553 2599 2479 2472 2486 2572 2506 2514 2574 2582 2478 2474 2528 2515 2543 2577 2557 2596 2488 2465 2494 2582 2531 2500 2577 2599 2483 2497 2537 2522 2546 2596 2554 2598 2483 2471 2496 2585 2520 2526 2578 2595 2495 2501 2524 2535 2549 2583 2570 2607 2501 2474 2509 2578 2532 2515 2584 2611 2484 2499 2545 2532 2544 2579 2566 2604 2506 2477 2498 2588 2530 2525 2581 2615 2504 2500 2548 2557 2545 2599 2565 2611 2498 2492 2511 2598 2530 2529 2590 2611 2498 2504 2562 2554 2564 2592 2572 2605 2506 2492 2506 2596 2541 2510 2589 2615 2520 2514 2563 2568 2553 2607 2571 2612 2506 2499 2515 2603 2549 2539 2595 2618 2519 2513 2551 2560 2559 2599 2583 2607 2517 2497 2513 2605 2558 2557 2602 2615 2508 2525 2529 2560 2559 2600 2584 2620 2507 2496 2523 2611 2547 2552 2604 2625 2521 2516 2572 2561 2566 2601 2583 2625 2517 2515 2519 2615 2552 2557 2602 2623 2515 2521 2558 2573 2566 2602 2592 2626 2527 2524 2536 2616 2562 2546 2607 2619 2521 2523 2578 2580 2577 2601 2589 2623 2520 2518 2530 2621 2543 2559 2604 2619 2534 2522 2557 2583 2584 2616 2596 2639 2520 2522 2531 2621 2557 2576 2609 2631 2532 2524 2567 2585 2573 2618 2595 2633 2542 2515 2540 2629 2554 2564 2620 2633 2537 2531 2565 2578 2591 2623 2602 2638 2530 2521 2542 2634 2581 2580 2615 2631 2541 2528 2574 2591 2581 2626 2612 2645 2546 2516 2548 2643 2586 2543 2625 2634 2542 2533 2569 2592 2583 2630 2616 2628 2534 2539 2535 2628 2584 2579 2628 2627 2531 2546 2583 2584 2585 2628 2619 2638 2529 2531 2538 2636 2566 2572 2630 2641 2533 2547 2580 2578 2579 2640 2607 2628 2550 2537 2552 2628 2577 2578 2633 2649 2572 2546 2589 2590 2595 2633 2624 2639 2542 2530 2558 2625 2578 2569 2636 2637 2542 2551 2578 2596 2586 2644 2625 2641 2547 2532 2553 2626 2573 2580 2638 2641 2565 2545 2599 2602 2604 2642 2623 2651 2551 2538 2548 2636 2591 2588 2644 2635 2561 2547 2609 2600 2601 2649 2630 2645 2551 2536 2558 2626 2596 2585 2523 2646 2546 2552 2612 2616 2622 2643 2643 2300 2561 2545 2557 2658 2595 2597 2405 2074 2573 2551 2604 2624 2606 2186 2295 2072 2561 2539 2564 2535 2581 2592 1954 2296 2570 2558 2604 2621 2600 2069 2623 1971 2557 2542 2580 2061 2601 2602 1841 1966 2558 2566 2610 2619 2626 1848 2287 1506 2557 2544 2576 2180 2605 2608 1609 1499 2552 2575 2619 2642 2618 1622 1826 1510 2566 2555 2578 1724 2607 2609 1496 1504 2572 2576 2624 2633 2615 1386 1832 1380 2574 2560 2591 1723 2615 2608 1262 1273 2591 2575 2619 2522 2398 1160 1608 1160 2582 2567 2592 1501 2620 2609 1265 1271 2578 2586 2622 2412 2058 1158 1599 1045 2578 2557 2579 1272 2624 2614 1152 1045 2591 2575 2605 1946 2271 924 1483 1044 2576 2571 2582 1156 2508 2615 1038 813 2574 2582 2396 2178 2167 816 1144 931 2586 2557 2594 926 2628 2621 811 924 2600 2589 2409 1947 1700 702 1141 820 2586 2578 2614 920 2271 2394 814 701 2590 2595 2058 1946 1712 703 1143 703 2586 2578 2607 927 2053 2283 694 700 2605 2583 2050 1829 1367 703 923 809 2593 2585 2614 701 2050 2173 694 699 2590 2599 2053 1593 1483 702 922 702 2602 2575 2591 701 1706 2050 583 698 2606 2601 1951 1486 1142 585 917 588 2590 2589 2621 811 1819 2058 582 586 2611 2606 1489 1256 1147 585 809 586 2603 2586 2615 694 1587 1715 577 587 2587 2600 1598 1258 1031 585 809 584 2603 2584 2620 585 1701 1483 581 584 2621 2608 1617 1147 806 359 582 473 2614 2595 2615 584 1592 1713 467 357 2606 2606 1379 1035 808 359 582 475 2595 2600 2617 472 1257 1603 471 357 2632 2615 1389 1037 808 359 583 360 2623 2582 2621 469 1148 1489 469 359 2607 2605 1387 913 694 359 471 358 2622 2609 2618 473 1260 1378 466 359 2616 2617 1155 932 698 358 470 360 2611 2600 2628 472 1149 1374 468 358 2599 2616 1035 699 698 360 474 359 2610 2591 2415 471 804 1037 357 359 2599 2622 1042 703 586 357 471 361 2627 2595 2628 358 1034 1371 356 360 2612 2628 1047 702 583 359 470 361 2619 2599 2286 360 922 924 357 360 2604 2621 930 699 585 224 471 360 2615 2602 2290 359 812 925 360 224 2622 2620 931 701 582 224 359 224 2620 2617 1828 359 927 926 356 224 2626 2619 931 589 587 224 360 224 2613 2603 2055 360 806 1033 358 224 2616 2639 817 584 471 224 358 224 2621 2610 1947 360 701 925 224 224 2623 2624 699 586 473 224 359 224 2402 2621 1942 358 699 813 224 224 2638 2407 810 475 358 224 360 224 2515 2621 1712 224 582 808 224 224 2624 2622 812 587 472 224 361 224 2402 2620 1721 224 587 813 224 224 2629 2172 584 473 358 224 360 224 2630 2616 1614 224 589 813 224 224 2633 2292 697 586 471 224 361 224 2180 2617 1508 224 703 817 224 224 2645 2067 588 587 359 224 361 224 2059 2633 1499 224 587 809 224 224 2628 1953 584 473 473 224 361 224 1842 2630 1489 224 587 811 224 224 2647 1716 589 475 473 224 361 224 1946 2626 1499 224 592 585 224 224 2624 1952 584 474 359 224 359 224 1718 2645 1265 224 474 700 224 224 2651 1603 587 472 360 224 361 224 1599 2636 1378 224 584 587 224 224 2635 1607 591 474 359 224 358 224 1619 2638 1163 224 473 696 224 224 2521 1505 587 474 358 224 361 224 1387 2648 1042 224 587 701 224 224 2422 1380 473 473 359 224 224 224 1376 2632 1045 224 585 590 224 224 2425 1270 472 474 360 224 224 224 1279 2643 1040 224 473 586 224 224 2185 1153 586 474 360 224 224 224 1381 2643 933 224 474 590 224 224 2068 1381 474 475 358 224 224 224 1156 2657 925 224 477 584 224 224 2074 1152 473 472 358 224 224 224 1267 2648 932 224 475 584 224 224 2090 1266 472 471 359 224 224 224 1156 2644 924 224 473 588 224 224 1951 1156 475 359 359 224 224 224 1042 2647 930 224 475 591 224 224 1735 1160 474 360 360 224 224 224 930 2629 813 224 477 474 224 224 1620 1047 475 358 358 224 224 224 936 2419 814 224 362 474 224 224 1727 1045 473 359 359 224 224 224 926 2523 811 224 473 473 224 224 1617 815 360 359 360 224 224 224 928 2295 820 224 472 474 224 224 1607 926 474 357 359 224 224 224 815 2078 705 224 476 475 224 224 1380 933 472 359 360 224 224 224 927 2067 820 224 471 476 224 224 1607 931 475 359 359 224 224 224 931 2062 702 224 360 476 224 224 1385 930 476 360 359 224 224 224 816 1961 700 224 476 478 224 224 1385 701 360 359 359 224 224 224 820 2072 705 224 476 473 224 224 1381 814 360 359 359 224 224 224 822 1970 699 224 472 476 224 224 1391 929 359 360 358 224 224 224 818 1948 588 224 475 474 224 224 1390 813 359 360 358 224 224 224 702 1840 703 224 474 475 224 224 1393 818 360 359 360 224 224 224 702 1834 701 224 476 474 224 224 1275 820 360 360 359 224 224 224 700 1603 704 224 473 473 224 224 1163 704 473 359 359 224 224 224 704 1610 702 224 359 476 224 224 1275 708 359 360 359 224 224 224 706 1726 588 224 475 473 224 224 1152 820 357 360 224 224 224 224 704 1605 707 224 361 476 224 224 1163 705 360 360 224 224 224 224 703 1737 586 224 362 475 224 224 1166 703 360 359 224 224 224 224 588 1506 590 224 359 473 224 224 1160 702 360 360 224 224 224 224 589 1496 588 224 359 473 224 224 1157 817 361 359 224 224 224 224 700 1392 586 224 358 474 224 224 1047 699 360 360 224 224 224 224 700 1499 707 224 474 476 224 224 1050 588 360 360 224 224 224 224 698 1497 590 224 360 477 224 224 1045 704 360 359 224 224 224 224 587 1392 588 224 475 476 224 224 1162 704 360 360 224 224 224 224 703 1498 589 224 361 472 224 224 936 590 360 360 224 224 224 224 702 1384 591 224 359 478 224 224 1051 588 359 359 224 224 224 224 591 1267 592 224 361 477 224 224 926 590 359 359 224 224 224 224 703 1277 590 224 360 474 224 224 923 700 359 360 224 224 224 224 588 1394 586 224 360 475 224 224 1041 589 358 359 224 224 224 224 591 1278 587 224 361 475 224 224 938 708 361 359 224 224 224 224 590 1389 589 224 361 360 224 224 935 589 360 359 224 224 224 224 589 1271 586 224 359 476 224 224 814 590 360 360 224 224 224 224 706 1393 591 224 359 474 224 224 817 590 360 360 224 224 224 224 590 1268 589 224 359 476 224 224 935 589 360 360 224 224 224 224 588 1275 476 224 358 477 224 224 931 590 361 360 224 224 224 224 589 1268 472 224 360 473 224 224 934 587 360 360 224 224 224 224 589 1269 474 224 360 358 224 224 818 583 360 360 224 224 224 224 586 1271 475 224 360 476 224 224 932 586 360 361 224 224 224 224 591 1388 477 224 361 477 224 224 932 592 360 359 224 224 224 224 586 1269 472 224 362 361 224 224 936 590 360 361 224 224 224 224 585 1048 591 224 357 360 224 224 819 588 360 359 224 224 224 224 588 1162 587 224 360 473 224 224 816 475 362 358 224 224 224 224 476 1151 475 224 359 475 224 224 820 474 360 360 224 224 224 224 476 1049 475 224 358 361 224 224 705 591 360 359 224 224 224 224 592 1165 474 224 361 361 224 224 707 587 361 359 224 224 224 224 474 1158 476 224 361 361 224 224 702 592 360 361 224 224 224 224 589 1158 476 224 360 359 224 224 822 474 360 359 224 224 224 224 591 1164 478 224 361 474 224 224 703 589 359 360 224 224 224 224 589 1043 474 224 359 360 224 224 708 475 360 360 224 224 224 224 590 933 476 224 359 475 224 224 817 473 361 360 224 224 224 224 477 930 474 224 360 472 224 224 821 473 360 359 224 224 224 224 475 1046 477 224 361 476 224 224 820 592 359 360 224 224 224 224 473 1048 472 224 360 476 224 224 822 589 359 360 224 224 224 224 476 1047 476 224 356 359 224 224 699 584 361 360 224 224 224 224 474 930 474 224 362 360 224 224 706 476 359 360 224 224 224 224 476 933 477 224 361 360 224 224 708 477 361 361 224 224 224 224 478 935 473 224 358 361 224 224 707 475 362 360 224 224 224 224 472 1048 469 224 359 361 224 224 706 475 359 360 224 224 224 224 476 931 476 224 359 357 224 224 591 476 361 361 224 224 224 224 474 928 472 224 360 361 224 224 814 474 359 360 224 224 224 224 474 933 471 224 359 361 224 224 707 476 358 224 224 224 224 224 477 936 473 224 360 361 224 224 588 476 361 224 224 224 224 224 474 932 478 224 360 361 224 224 820 472 362 224 224 224 224 224 476 936 477 224 359 359 224 224 706 475 362 224 224 224 224 224 476 819 476 224 362 359 224 224 700 476 360 224 224 224 224 224 475 1048 476 224 361 359 224 224 706 477 360 224 224 224 224 224 477 926 475 224 359 361 224 224 701 475 361 224 224 224 224 224 472 940 472 224 359 360 224 224 697 474 360 224 224 224 224 224 475 928 476 224 360 361 224 224 592 474 360 224 224 224 224 224 475 819 474 224 361 356 224 224 703 478 360 224 224 224 224 224 475 819 476 224 358 361 224 224 590 477 361 224 224 224 224 224 474 935 474 224 359 359 224 224 707 475 361 224 224 224 224 224 476 932 474 224 361 359 224 224 700 473 361 224 224 224 224 224 475 934 471 224 360 361 224 224 591 476 361 224 224 224 224 224 475 822 476 224 359 360 224 224 708 475 361 224 224 224 224 224 477 818 477 224 361 359 224 224 591 478 362 224 224 224 224 224 477 934 477 224 359 360 224 224 707 476 361 224 224 224 224 224 474 822 477 224 359 360 224 224 588 477 362 224 224 224 224 224 476 821 473 224 360 360 224 224 587 478 359 224 224 224 224 224 476 934 478 224 360 359 224 224 590 476 362 224 224 224 224 224 477 823 473 224 360 360 224 224 591 475 362 224 224 224 224 224 475 929 476 224 360 361 224 224 704 477 361 224 224 224 224 224 362 814 477 224 360 361 224 224 589 474 360 224 224 224 224 224 361 822 475 224 359 361 224 224 589 475 362 224 224 224 224 224 475 819 362 224 360 359 224 224 592 476 360 224 224 224 224 224 475 817 472 224 360 360 224 224 697 476 361 224 224 224 224 224 476 818 362 224 360 360 224 224 705 475 360 224 224 224 224 224 474 932 362 224 361 361 224 224 587 475 361 224 224 224 224 224 362 935 362 224 359 358 224 224 593 474 361 224 224 224 224 224 362 816 362 224 359 359 224 224 591 476 224 224 224 224 224 224 475 819 360 224 360 359 224 224 590 359 224 224 224 224 224 224 475 818 476 224 362 359 224 224 474 474 224 224 224 224 224 224 361 822 362 224 361 359 224 224 590 474 224 224 224 224 224 224 474 932 472 224 360 360 224 224 590 476 224 224 224 224 224 224 361 818 473 224 359 359 224 224 590 473 224 224 224 224 224 224 477 820 358 224 361 360 224

Tree=0
num_leaves=6
num_cat=0
split_feature=95 92 2 0 2
split_gain=703.854 141.549 266.237 1.42109e-14 4.44089e-16
threshold=3304.5000000000005 3228.5000000000005 4226.5000000000009 3156.5000000000005 4675.5000000000009
decision_type=2 2 2 2 2
left_child=1 3 -3 -1 -4
right_child=-2 2 4 -5 -6
leaf_value=-2.8725887254585096 -1.7189861363240984 -1.3563792964296411 -2.8725887254585096 -2.8725887254585096 -2.8725887254585096
leaf_weight=57.712123237550259 5.9479815065860739 1.8102002888917912 1.6274279896169903 27.377291353419423 1.5874749794602392
leaf_count=978 35 5 22 467 30
internal_value=-2.77259 -2.84213 -2.3264 -2.87259 -2.87259
internal_weight=0 90.1145 5.0251 85.0894 3.2149
internal_count=1537 1502 57 1445 52
is_linear=0
shrinkage=1


Tree=1
num_leaves=22
num_cat=0
split_feature=126 83 158 5 126 187 124 44 99 177 48 38 3 86 190 1 60 30 40 78 8
split_gain=192.618 48.5487 43.2303 53.4572 37.3891 52.8037 35.1702 63.6484 39.8244 32.7674 29.2719 20.5126 18.4468 15.0889 24.3499 9.72641 20.0077 8.52295 5.87417 13.501 5.06572
threshold=2199.5000000000005 3218.0000000000005 1393.5000000000002 5134.5000000000009 2273.5000000000005 1174.5000000000002 2383.0000000000005 5715.5000000000009 2547.5000000000005 1305.5000000000002 5092.5000000000009 5060.5000000000009 4337.5000000000009 2996.5000000000005 1126.5000000000002 4377.5000000000009 2678.5000000000005 2759.5000000000005 5476.5000000000009 1867.5000000000002 5255.5000000000009
decision_type=2 2 2 2 2 2 2 2 2 2 2 2 2 2 2 2 2 2 2 2 2
left_child=11 2 3 10 -3 -6 15 8 9 -8 12 13 -2 17 -15 18 -17 -1 19 20 -4
right_child=1 4 6 -5 5 -7 7 -9 -10 -11 -12 -13 -14 14 -16 16 -18 -19 -20 -21 -22
leaf_value=-2.5027301297247657 -2.4569095801163483 -2.6614780790245072 -2.8725887322837651 -1.4433674866909856 -1.3945813579635857 -2.4511748347033651 -1.7806006172226665 -2.70533374072386 -1.3496017863571428 -2.8023666944548582 -2.7669170391226277 -2.8645646119741195 -1.6135846426629801 -2.0354730116155935 -2.7349911256943322 -2.1730862741724875 -2.829673939753051 -2.8239387995713505 -2.8480273273404184 -2.1602486163938135 -2.4936454513691779
leaf_weight=0.97094440832733919 0.53994790837169382 0.85053060203790609 1.3807231150567516 0.69097656756639469 1.0629957932978866 0.85216017812490452 0.61661409772932418 2.9522538650780916 0.67790955863893021 0.63924401998519897 1.274390986189246 67.131123693659902 0.49916140362620354 0.80435147695243392 1.3049360048025844 0.83424614742398251 1.046003373339772 5.5361660644412041 5.4828725624829531 0.44111389666795719 0.47383363172411908
leaf_count=21 21 12 62 25 38 30 27 31 25 22 40 734 19 24 32 28 30 120 160 22 14
internal_value=-2.77259 -2.49916 -2.56053 -2.2152 -2.10975 -1.86472 -2.63186 -2.41323 -1.96727 -2.30069 -2.44572 -2.84592 -2.0518 -2.70067 -2.46824 -2.74246 -2.53835 -2.77601 -2.7918 -2.6575 -2.77577
internal_weight=0 20.315 17.5493 3.00448 2.76569 1.91516 14.5448 4.88602 1.93377 1.25586 2.3135 75.7475 1.03911 8.6164 2.10929 9.65879 1.88025 6.50711 7.77854 2.29567 1.85456
internal_count=1537 606 526 105 80 68 421 105 74 49 80 931 40 197 56 316 58 141 258 98 76
is_linear=0
shrinkage=1


Tree=2
num_leaves=22
num_cat=0
split_feature=178 127 180 2 126 0 61 136 178 2 2 184 2 182 4 2 46 185 181 127 89
split_gain=174.037 113.511 95.681 61.5951 101.857 40.3999 35.8973 26.1631 113.406 24.3343 30.572 20.6872 5.56283 20.9165 6.75351 19.5835 4.0133 3.83839 1.06101 1.75839 0.939723
threshold=1219.5000000000002 2079.5000000000005 1229.5000000000002 4393.5000000000009 2224.5000000000005 2567.5000000000005 3062.5000000000005 1792.5000000000002 1257.5000000000002 4375.5000000000009 4301.5000000000009 1184.5000000000002 4581.5000000000009 1257.5000000000002 4818.5000000000009 4512.5000000000009 4864.5000000000009 1222.5000000000002 1180.5000000000002 1968.5000000000002 2608.5000000000005
decision_type=2 2 2 2 2 2 2 2 2 2 2 2 2 2 2 2 2 2 2 2 2
left_child=18 2 6 4 11 -5 -2 8 -7 10 -6 -3 13 14 15 16 -9 -14 -1 -20 -16
right_child=1 3 -4 5 9 7 -8 12 -10 -11 -12 -13 17 -15 20 -17 -18 -19 19 -21 -22
leaf_value=-2.8725886889160628 -2.6996203667578555 -2.8725886887533609 -1.392299029381536 -2.0425990151912674 -1.5779536496385191 -2.8448581433598594 -1.9793793781208484 -2.872588689846062 -1.6299658217140707 -1.3676685231409693 -2.6010417621493422 -2.2674031994362531 -2.8645367090690268 -2.2145882642735799 -2.7351244982756828 -2.0905558549710612 -2.6064458604495986 -2.6717837040244148 -2.6881614365240569 -2.8725886897543056 -2.872588690123461
leaf_weight=60.801707847043872 1.7915364243090146 2.1347690802067549 1.308354780077934 0.84004401601851242 0.59839074127376057 2.7936616390943558 1.1275150123983619 1.6134605519473577 1.059843650087714 0.82364249043166626 0.57058102265000343 0.76805967837572087 9.6212052945047599 0.70641074888408173 0.56356321834027756 0.49531016312539566 0.87325022928416718 1.1573880314826954 0.84011187218129579 1.3440224099904297 4.2296704538166523
leaf_count=592 30 62 31 19 17 71 24 72 23 19 26 23 227 16 22 19 34 19 12 35 144
internal_value=-2.77259 -2.58685 -2.10291 -2.65776 -2.33454 -2.72382 -2.42142 -2.74858 -2.51072 -1.78399 -2.07733 -2.71246 -2.79617 -2.73558 -2.78292 -2.66476 -2.77913 -2.84384 -2.87013 -2.80165 -2.85643
internal_weight=0 33.0767 4.22741 28.8493 4.89544 23.9538 2.91905 23.1138 3.85351 1.99261 1.16897 2.90283 19.2603 8.48167 7.77525 2.98202 2.48671 10.7786 62.9858 2.18413 4.79323
internal_count=1537 898 85 813 147 666 54 647 94 62 43 85 553 307 291 125 106 246 639 47 166
is_linear=0
shrinkage=1


Tree=3
num_leaves=20
num_cat=0
split_feature=101 101 41 101 35 56 101 149 84 176 108 24 35 0 5 13 134 0 0
split_gain=259.426 61.9197 96.3239 75.6375 24.0509 84.4622 34.3489 83.9913 21.3992 4.40511 74.858 21.3982 7.10543e-15 3.55271e-15 1.77636e-15 1.77636e-15 1.77636e-15 4.44089e-16 4.44089e-16
threshold=1720.5000000000002 1665.5000000000002 6319.5000000000009 1690.5000000000002 4118.5000000000009 2654.5000000000005 1478.5000000000002 1205.5000000000002 3310.5000000000005 1202.5000000000002 1298.5000000000002 4138.0000000000009 4437.0000000000009 3155.0000000000005 4490.5000000000009 4838.0000000000009 2022.5000000000002 3024.0000000000005 2742.5000000000005
decision_type=2 2 2 2 2 2 2 2 2 2 2 2 2 2 2 2 2 2 2
left_child=1 4 17 -4 5 -1 14 -8 9 12 -11 -12 -6 16 -7 -15 -13 -3 -9
right_child=-2 2 3 -5 8 6 7 18 -10 10 11 13 -14 15 -16 -17 -18 -19 -20
leaf_value=-1.8338869114920167 -1.6219394363035393 -2.8725887552414431 -1.6990204354649827 -2.5970118111891791 -2.8725887552414431 -2.8725887552414431 -2.0307531264096417 -2.8725887552414431 -2.4266306060230676 -1.8645076600740551 -2.4499823723560832 -2.8725887552414431 -2.8725887552414431 -2.8725887552414431 -2.8725887552414431 -2.8725887552414431 -2.8725887552414426 -2.8725887552414431 -2.8725887552414431
leaf_weight=1.0275913644582058 1.9202523957937945 2.2254854850471015 1.8190011214464905 1.9365935139358041 14.666841998696325 7.6977720204740745 1.9018458146601904 1.5241609234362843 1.1967053934931744 0.79410355724394577 1.2628311924636388 14.034428434446454 28.583370527252555 1.5897783301770667 2.8462379928678274 6.8474161848425865 0.91408990509808141 1.6530838590115307 1.6209093406796453
leaf_count=13 20 56 19 31 166 84 20 37 19 10 27 450 252 45 35 145 34 30 44
internal_value=-2.77259 -2.79606 -2.52305 -2.16207 -2.82015 -2.71202 -2.7699 -2.55536 -2.84586 -2.85317 -2.82015 -2.85094 -2.87259 -2.87259 -2.87259 -2.87259 -2.87259 -2.87259 -2.87259
internal_weight=0 94.1422 7.63416 3.75559 86.5081 16.6185 15.5909 5.04692 69.8896 68.6929 25.4426 24.6485 43.2502 23.3857 10.544 8.43719 14.9485 3.87857 3.14507
internal_count=1537 1517 136 50 1381 233 220 101 1148 1129 711 701 418 674 119 190 484 86 81
is_linear=0
shrinkage=1


Tree=4
num_leaves=19
num_cat=0
split_feature=71 97 32 34 88 30 26 36 107 33 144 60 31 4 5 165 0 0
split_gain=490.622 198.899 92.0226 173.949 74.1206 128.896 15.7453 1.67415 12.7456 1.6326 1.12584 0.507303 12.3228 1.42109e-14 8.88178e-16 8.88178e-16 4.44089e-16 2.22045e-16
threshold=5260.0000000000009 2868.5000000000005 2755.5000000000005 4222.0000000000009 3164.5000000000005 2573.5000000000005 2604.5000000000005 5770.5000000000009 1247.5000000000002 2835.0000000000005 1005.5000000000001 2609.5000000000005 2660.5000000000005 4326.5000000000009 4804.5000000000009 1438.5000000000002 3017.5000000000005 3156.5000000000005
decision_type=2 2 2 2 2 2 2 2 2 2 2 2 2 2 2 2 2 2
left_child=2 -2 3 4 9 17 -4 10 -9 -1 -8 12 -12 -13 -11 -10 -14 -6
right_child=1 -3 6 -5 5 -7 7 8 15 14 11 13 16 -15 -16 -17 -18 -19
leaf_value=-2.7325623010993358 -1.2892554580121607 -2.8725887552414431 -2.4576728149006213 -1.3215683838447811 -2.8725887552414431 -1.652933118810022 -2.7826416901511339 -2.5007337720139438 -2.8725887552414431 -2.8725887552414431 -1.9090528908464708 -2.8725887552414431 -2.8725887552414431 -2.8725887552414431 -2.8725887552414431 -2.8725887552414431 -2.8725887552414431 -2.8725887552414431
leaf_weight=0.95282088965177347 3.0335525125265113 1.0743832290172575 0.96467827074229617 1.0322505086660374 1.0918174386024477 1.6408746037632225 1.4833183325827111 1.0763884037733067 2.9455772247165442 5.6804421376436949 0.13846929371356909 11.320222560316322 1.7455262150615456 55.289024023339152 0.92129774019122113 3.4703062009066343 1.4573269058018921 0.74422286450862873
leaf_count=16 37 34 15 13 30 21 16 18 38 127 2 97 60 882 18 60 34 19
internal_value=-2.77259 -1.70336 -2.82036 -2.56292 -2.67908 -2.29699 -2.85923 -2.86414 -2.81917 -2.85493 -2.86885 -2.87068 -2.83266 -2.87259 -2.87259 -2.87259 -2.87259 -2.87259
internal_weight=0 4.10794 91.9546 12.0637 11.0315 3.47691 79.8908 78.9262 7.49227 7.55456 71.4339 69.9506 3.34132 66.6092 6.60174 6.41588 3.20285 1.83604
internal_count=1537 71 1466 244 231 70 1222 1207 116 161 1091 1075 96 979 145 98 94 49
is_linear=0
shrinkage=1


Tree=5
num_leaves=17
num_cat=0
split_feature=19 34 21 5 18 114 1 74 56 179 45 0 10 35 52 62
split_gain=324.652 563.026 51.2468 55.6273 12.3996 14.8668 8.7529 5.54976 2.24259 45.2039 0.169426 1.42109e-14 7.10543e-15 1.77636e-15 1.77636e-15 1.77636e-15
threshold=2747.5000000000005 3912.5000000000005 2744.5000000000005 4435.5000000000009 3044.0000000000005 1501.5000000000002 4012.5000000000005 2582.5000000000005 2758.5000000000005 1160.5000000000002 4695.0000000000009 3318.5000000000005 5006.5000000000009 4847.0000000000009 4993.0000000000009 4259.5000000000009
decision_type=2 2 2 2 2 2 2 2 2 2 2 2 2 2 2 2
left_child=1 10 3 -2 5 -4 -3 -6 9 -9 -1 12 -10 -13 15 -11
right_child=2 6 4 -5 7 -7 -8 8 11 14 -12 13 -14 -15 -16 -17
leaf_value=-2.8389815387242039 -2.8725886882298446 -1.2725887152826745 -2.8725886882298446 -2.1826793297416214 -2.6460012600500757 -2.4038414340124392 -1.5936700047226831 -1.9684566627793512 -2.8725886883734586 -2.8725886890004295 -2.8725886882298446 -2.8725886885497758 -2.8725886897533295 -2.8725886897695956 -2.8725886892166268 -2.8725886896272508
leaf_weight=2.6223805397748929 2.2540980577468863 3.0845757722854614 1.3925224393606179 2.4271071869879961 1.1668440997600544 1.3160933498293159 1.1714759599417446 0.58485309034585853 45.394246941432357 8.4601436089724249 3.5051662214100361 6.986422020941971 9.1696603037416917 4.8388209864497185 0.75503784976899702 0.933050926774741
leaf_count=17 9 56 19 31 31 21 20 9 588 207 23 106 240 92 29 39
internal_value=-2.77259 -2.24451 -2.83659 -2.51489 -2.85518 -2.64483 -1.36097 -2.86246 -2.86573 -2.82332 -2.85821 -2.87259 -2.87259 -2.87259 -2.87259 -2.87259
internal_weight=0 10.3836 85.6789 4.68121 80.9977 2.70862 4.25605 78.2891 77.1222 10.7331 6.12755 66.3892 54.5639 11.8252 10.1482 9.39319
internal_count=1537 116 1421 40 1381 40 76 1341 1310 284 40 1026 828 198 275 246
is_linear=0
shrinkage=1


Tree=6
num_leaves=5
num_cat=0
split_feature=93 31 0 1
split_gain=524.912 767.807 1.42109e-14 1.77636e-15
threshold=3231.5000000000005 2784.5000000000005 2742.5000000000005 4392.5000000000009
decision_type=2 2 2 2
left_child=2 -2 -1 -3
right_child=1 3 -4 -5
leaf_value=-2.8725887155308656 -1.4268819774816306 -2.8725887155308656 -2.8725887155308656 -2.8725887155308656
leaf_weight=25.480241701006889 6.6446740180253974 6.4764544479548913 55.721744356676936 1.7393848318606613
leaf_count=446 21 156 882 32
internal_value=-2.77259 -2.22616 -2.87259 -2.87259
internal_weight=0 14.8605 81.202 8.21584
internal_count=1537 209 1328 188
is_linear=0
shrinkage=1


Tree=7
num_leaves=16
num_cat=0
split_feature=80 38 67 98 94 46 3 37 37 88 36 0 0 40 0
split_gain=228.642 577.471 81.7544 76.6711 12.5703 40.5903 94.6367 10.9855 0.83972 0.55343 3.92278 1.13687e-13 7.10543e-15 8.88178e-16 4.44089e-16
threshold=2417.5000000000005 5750.5000000000009 4837.5000000000009 2871.5000000000005 2965.5000000000005 5051.5000000000009 4263.5000000000009 5927.5000000000009 5610.5000000000009 2591.5000000000005 5000.5000000000009 2756.5000000000005 3716.5000000000005 5767.0000000000009 3176.5000000000005
decision_type=2 2 2 2 2 2 2 2 2 2 2 2 2 2 2
left_child=4 2 -2 7 9 6 -6 -3 -7 10 -1 -4 -11 -10 -12
right_child=1 3 11 -5 5 8 -8 -9 13 12 14 -13 -14 -15 -16
leaf_value=-2.5350795407440589 -2.2611747182101212 -2.6312047960539733 -1.2725887909809643 -2.2045504594890084 -1.2725887909809632 -2.7883782339747269 -2.8725887552414431 -2.8725887552414431 -2.8725887552414431 -2.8725887552414431 -2.8725887552414431 -1.2725887909809641 -2.8725887552414431 -2.8725887552414431 -2.8725887552414431
leaf_weight=0.39530811272561495 1.0910784061998153 2.2109195832163122 1.9179144203662875 2.1969121322035781 0.58371308445930381 1.5843641459941862 1.0081540737301109 12.8052777107805 1.6381363607943056 59.399200465530157 1.5909036062657835 1.6677516698837278 3.8419547956436864 3.0494544450193644 1.0814563427120445
leaf_count=15 29 11 23 22 7 2 40 187 6 1043 43 20 22 43 24
internal_value=-2.77259 -2.4886 -1.50322 -2.75632 -2.8564 -2.73686 -2.28589 -2.83705 -2.85132 -2.87058 -2.8291 -1.27259 -2.87259 -2.87259 -2.87259
internal_weight=0 21.8899 4.67674 17.2131 74.1726 7.86382 1.59187 15.0162 6.27195 66.3088 3.06767 3.58567 63.2412 4.68759 2.67236
internal_count=1537 292 72 220 1245 98 47 198 51 1147 82 43 1065 49 67
is_linear=0
shrinkage=1


Tree=8
num_leaves=7
num_cat=0
split_feature=23 21 60 30 2 11
split_gain=308.925 161.855 136.461 364.213 1.42109e-14 8.88178e-16
threshold=2567.5000000000005 2644.5000000000005 2624.5000000000005 2590.5000000000005 4481.5000000000009 4983.5000000000009
decision_type=2 2 2 2 2 2
left_child=-1 -2 3 -3 -4 -5
right_child=1 2 4 5 -6 -7
leaf_value=-1.7452230659929449 -2.2661349597890545 -1.2725887909809632 -2.8725887552414431 -2.8725887552414431 -2.8725887552414431 -2.8725887552414431
leaf_weight=2.8403233885765067 5.2800116986036292 2.0013020038604727 57.614032655954361 3.4957473184913397 23.405823679640889 1.4252586103975771
leaf_count=23 37 1 865 96 478 37
internal_value=-2.77259 -2.80389 -2.83618 -2.41001 -2.87259 -2.87259
internal_weight=0 93.2222 87.9422 6.92231 81.0199 4.92101
internal_count=1537 1514 1477 134 1343 133
is_linear=0
shrinkage=1


Tree=9
num_leaves=22
num_cat=0
split_feature=148 79 148 158 39 26 127 27 179 110 181 184 191 148 175 97 87 86 175 0 37
split_gain=162.769 210.6 105.873 76.5058 65.2801 84.0676 42.1071 44.3827 55.2163 24.3438 12.0397 10.284 21.9037 4.66027 4.55094 4.11245 3.92632 1.38614 0.194057 7.10543e-15 1.77636e-15
threshold=1293.0000000000002 1749.5000000000002 1330.5000000000002 1356.5000000000002 3945.5000000000005 4797.0000000000009 2207.5000000000005 4691.5000000000009 1227.5000000000002 1435.5000000000002 1236.5000000000002 1139.5000000000002 1081.5000000000002 1318.5000000000002 1277.5000000000002 2781.5000000000005 2590.5000000000005 2592.0000000000005 1216.5000000000002 3459.5000000000005 6210.0000000000009
decision_type=2 2 2 2 2 2 2 2 2 2 2 2 2 2 2 2 2 2 2 2 2
left_child=11 2 3 -2 5 6 7 8 -3 -7 -4 18 -13 -5 -6 -14 -16 -18 19 -1 -19
right_child=1 4 10 13 14 9 -8 -9 -10 -11 -12 12 15 -15 16 -17 17 20 -20 -21 -22
leaf_value=-2.8725887254585096 -1.7436956624350834 -1.9491199378129496 -1.3040626504291581 -2.8725887254585096 -2.5842409632846324 -1.3421953302977527 -2.8725887254585096 -1.8308534360040407 -2.8725887254585096 -2.1607926030131868 -1.7905961644540611 -2.3793013590501069 -2.8725887254585096 -2.5340126208899276 -2.6403370493518801 -2.6717399980537362 -2.75696466338891 -2.8725887254585096 -2.8419977226987236 -2.8725887254585096 -2.8725887254585096
leaf_weight=54.59162275493145 1.1656770221889048 0.9262371063232443 1.4262255709618332 1.3431202378123996 0.68455084972083469 0.64489531330764271 3.6664251442998648 1.0105635989457367 2.1513539347797632 0.83193220384418964 0.79053321480751026 1.3338317517191161 4.5917421169579029 0.58299656398594368 0.8498914148658504 1.3103639949113128 1.1381062734872092 5.960710044950245 2.1508361697196952 3.2194061502814284 5.6914779227226973
leaf_count=548 36 30 35 38 8 16 167 24 69 26 26 30 75 23 34 29 35 164 15 20 89
internal_value=-2.77259 -2.57398 -2.00498 -2.38313 -2.70221 -2.49483 -2.62653 -2.40585 -2.59466 -1.80333 -1.47757 -2.8579 -2.74529 -2.77011 -2.83584 -2.828 -2.84847 -2.8623 -2.87149 -2.87259 -2.87259
internal_weight=0 28.8647 5.30855 3.09179 23.5561 9.23141 7.75458 4.08815 3.07759 1.47683 2.21676 67.1978 7.23594 1.92612 14.3247 5.90211 13.6402 12.7903 59.9619 57.811 11.6522
internal_count=1537 820 158 97 662 332 290 123 99 42 61 717 134 61 330 104 322 288 583 568 253
is_linear=0
shrinkage=1


Tree=10
num_leaves=22
num_cat=0
split_feature=139 74 8 147 127 5 147 195 6 50 171 27 198 189 100 184 181 0 88 12 188
split_gain=165.767 93.6545 70.4937 121.111 37.3728 17.8995 21.5192 14.9058 28.4999 14.2067 34.1289 13.3442 11.9394 11.1164 10.5354 9.40016 8.79447 7.94247 7.44823 6.98801 4.83958
threshold=1559.5000000000002 3157.0000000000005 5341.5000000000009 1252.5000000000002 2207.5000000000005 5184.5000000000009 1262.5000000000002 1066.5000000000002 5282.5000000000009 5515.0000000000009 1389.5000000000002 4928.5000000000009 1019.5000000000001 1138.5000000000002 1958.5000000000002 1144.5000000000002 1234.5000000000002 3195.0000000000005 2798.0000000000005 4608.5000000000009 1144.5000000000002
decision_type=2 2 2 2 2 2 2 2 2 2 2 2 2 2 2 2 2 2 2 2 2
left_child=15 2 3 7 -5 17 -7 12 13 10 19 -8 -2 16 -4 -1 -9 -6 -17 -3 -21
right_child=1 9 14 4 5 6 11 8 -10 -11 -12 -13 -14 -15 -16 18 -18 -19 -20 20 -22
leaf_value=-2.8691478727617685 -2.2688829135196924 -2.4707508719504903 -2.8538012510276229 -2.790799730254065 -1.3220594098380338 -2.4489305909804671 -1.272588734889774 -2.0171542120751256 -2.7054949805685511 -2.8395159038264746 -2.0283435767253533 -2.0335181724752238 -2.7199753336329393 -1.7911075330247268 -2.4721530873820261 -2.4732919734811669 -2.559912370378834 -1.8655739960020017 -2.7867930201602658 -2.8471621944171894 -2.5841107617342125
leaf_weight=60.692230999469757 0.7350716032087824 0.8444979451596718 2.7788699995726343 0.31916210614144835 1.3300047125667336 0.49292463809251763 0.48944888636469841 0.61030833795666717 1.2497867681086061 7.8928734678775072 0.80391632951796044 0.43554760701954365 2.9077857956290245 0.7482535671442746 0.97783285938203324 0.8498722817748775 0.58439850620925426 0.33698735386133183 6.9979119896888733 3.0799284595996146 0.90488514117896546
leaf_count=592 30 24 53 9 80 19 30 28 34 133 36 19 79 37 36 23 18 16 136 75 30
internal_value=-2.77259 -2.56529 -2.38395 -2.24801 -1.76067 -1.65409 -1.91527 -2.49071 -2.33297 -2.75294 -2.63162 -1.63088 -2.62895 -2.09335 -2.75446 -2.85583 -2.28265 -1.43193 -2.75284 -2.73205 -2.78743
internal_weight=0 27.5225 13.9964 10.2397 3.40408 3.08491 1.41792 6.8356 3.19275 13.5261 5.63323 0.924996 3.64286 1.94296 3.7567 68.54 1.19471 1.66699 7.84778 4.82931 3.98481
internal_count=1537 786 488 399 173 164 68 226 117 298 165 49 109 83 89 751 46 96 159 129 105
is_linear=0
shrinkage=1


Tree=11
num_leaves=22
num_cat=0
split_feature=40 177 83 24 139 109 22 33 9 110 1 58 85 143 62 142 80 102 91 56 196
split_gain=155.696 89.9441 42.1327 102.061 71.0164 55.7096 36.3676 36.771 36.1923 31.8638 42.2337 15.1228 14.1329 6.59262 26.7226 5.57878 12.5081 4.21948 1.8587 1.28221 0.99617
threshold=4815.0000000000009 1216.5000000000002 3100.5000000000005 5354.0000000000009 1622.5000000000002 1284.5000000000002 4214.5000000000009 4186.5000000000009 4331.5000000000009 1331.0000000000002 4143.5000000000009 2521.5000000000005 2607.5000000000005 1043.5000000000002 4353.0000000000009 1142.5000000000002 2278.5000000000005 1117.5000000000002 2645.5000000000005 2729.5000000000005 1102.5000000000002
decision_type=2 2 2 2 2 2 2 2 2 2 2 2 2 2 2 2 2 2 2 2 2
left_child=8 19 6 4 5 -4 7 -3 -1 -10 -11 -6 -8 14 18 16 -15 20 -14 -2 -17
right_child=1 2 3 -5 11 -7 12 -9 9 10 -12 -13 13 15 -16 17 -18 -19 -20 -21 -22
leaf_value=-1.4847007582538658 -2.8096394682597792 -2.7785684751859154 -2.6432949893631985 -1.7396958323192022 -2.872588719253732 -1.7427163374008801 -2.065609428944593 -1.9906957662243969 -2.8725887192537316 -1.7449529446681256 -2.6317338182780734 -2.3517108728295906 -2.6551129824264428 -2.872588719253732 -2.137252267104921 -2.872588719253732 -2.3870500101479539 -2.6452113576994463 -2.872588719253732 -2.872588719253732 -2.7716259903587437
leaf_weight=0.69992578402161543 3.4292829502373925 1.1480016633868282 1.4121894650161251 1.524386255070566 5.39203423820436 1.3374037425965069 0.2675047498196389 1.2239058744162319 0.70205957628786597 1.3400564137846234 0.89626904949545849 0.62165475450456131 0.49631006270647393 1.3155141379684203 0.73391844145953644 11.380813749507064 0.88920116610825051 0.94939439743757326 1.8878934066742656 57.345717677846551 1.0690617989748723
leaf_count=12 29 22 28 36 207 31 6 27 21 31 27 13 2 35 20 318 23 21 58 562 8
internal_value=-2.77259 -2.79785 -2.66115 -2.49489 -2.62625 -2.20525 -2.74122 -2.37203 -2.13093 -2.28486 -2.10035 -2.81874 -2.78733 -2.79764 -2.6649 -2.82417 -2.67676 -2.84842 -2.82732 -2.86904 -2.86392
internal_weight=0 92.4242 31.6492 10.2877 8.76328 2.74959 21.3615 2.37191 3.63831 2.93839 2.23633 6.01369 18.9896 18.7221 3.11812 15.604 2.20472 13.3993 2.3842 60.775 12.4499
internal_count=1537 1446 855 315 279 59 540 49 91 79 58 220 491 485 80 405 58 347 60 591 326
is_linear=0
shrinkage=1


Tree=12
num_leaves=11
num_cat=0
split_feature=99 18 22 36 102 6 13 15 15 88
split_gain=707.936 421.492 44.2466 30.7443 5.87877 1.42109e-14 1.06581e-14 1.77636e-15 1.77636e-15 8.88178e-16
threshold=2035.5000000000002 2813.5000000000005 2625.0000000000005 4796.5000000000009 1059.5000000000002 4565.5000000000009 3993.0000000000005 3994.5000000000005 3942.5000000000005 3146.5000000000005
decision_type=2 2 2 2 2 2 2 2 2 2
left_child=1 -1 -2 -3 -4 6 7 8 -6 -8
right_child=2 3 4 -5 5 -7 9 -9 -10 -11
leaf_value=-1.3060795342077407 -2.3789185390660208 -2.2125829742914549 -2.6792505522080456 -2.8725886882298446 -2.8725886882298446 -2.8725886888949428 -2.8725886940351164 -2.8725886927253232 -2.8725886903374098 -2.8725886946514141
leaf_weight=4.9453756362199766 1.8831139430403698 0.93901928886771235 1.6027828454971302 2.8414649814367294 9.9736112486571056 67.773447390645742 1.9892952740192402 0.99440979957580644 1.0605478286743171 2.0594311188906431
leaf_count=26 21 15 23 34 204 1104 35 18 20 37
internal_value=-2.77259 -1.91375 -2.8584 -2.70865 -2.86896 -2.87259 -2.87259 -2.87259 -2.87259 -2.87259
internal_weight=0 8.72586 87.3366 3.78048 85.4535 83.8507 16.0773 12.0286 11.0342 4.04873
internal_count=1537 75 1462 49 1441 1418 314 242 224 72
is_linear=0
shrinkage=1


Tree=13
num_leaves=13
num_cat=0
split_feature=27 27 125 161 28 11 44 17 0 0 0 3
split_gain=958.471 54.8102 57.9771 26.1812 11.1006 16.2213 0.315181 0.204045 1.13687e-13 1.13687e-13 5.68434e-14 1.42109e-14
threshold=2379.5000000000005 2363.5000000000005 1535.5000000000002 1091.5000000000002 2505.0000000000005 3672.5000000000005 5977.5000000000009 2799.5000000000005 3318.5000000000005 3151.5000000000005 2839.0000000000005 4121.5000000000009
decision_type=2 2 2 2 2 2 2 2 2 2 2 2
left_child=1 2 -1 8 5 -2 7 -6 9 10 -4 -9
right_child=4 -3 3 -5 6 -7 -8 11 -10 -11 -12 -13
leaf_value=-2.1800514155954458 -2.8557946944630532 -2.2224449270118165 -1.2725887577233568 -1.9352554560591457 -2.8316074875672621 -2.4750139373406808 -2.8390254912731687 -2.8725887105670433 -1.2725887577233546 -1.2725887577233537 -1.2725887577233537 -2.8725887105670433
leaf_weight=1.0950863510370243 3.0105490535497657 1.3997915387153623 0.66358964145183641 0.70121242105960835 1.233716458082198 1.7803668081760404 3.012774718925356 27.734043039381504 0.72678865492343891 1.2955797761678693 1.2955797761678693 52.113421117886901
leaf_count=21 36 27 21 16 10 30 32 218 23 41 41 1021
internal_value=-2.77259 -1.66102 -1.52501 -1.37182 -2.86235 -2.71429 -2.87079 -2.87197 -1.27259 -1.27259 -1.27259 -2.87259
internal_weight=0 7.17763 5.77784 4.68275 88.8849 4.79092 84.094 81.0812 3.98154 3.25475 1.95917 79.8475
internal_count=1537 190 163 142 1347 66 1281 1249 126 103 62 1239
is_linear=0
shrinkage=1


Tree=14
num_leaves=15
num_cat=0
split_feature=179 6 1 1 1 35 21 34 169 79 75 80 3 151
split_gain=232.787 221.13 92.2001 151.823 97.1345 83.6337 63.7684 11.3516 7.43181 16.8942 3.78893 7.87741 1.42109e-14 8.88178e-16
threshold=1099.5000000000002 4565.5000000000009 3874.5000000000005 3930.0000000000005 3991.5000000000005 4523.5000000000009 2912.5000000000005 2795.0000000000005 1183.5000000000002 1745.5000000000002 3158.5000000000005 2357.5000000000005 4552.5000000000009 1017.5000000000001
decision_type=2 2 2 2 2 2 2 2 2 2 2 2 2 2
left_child=1 2 7 -4 -5 6 -6 -1 9 -2 13 -12 -10 -9
right_child=8 -3 3 4 5 -7 -8 10 12 -11 11 -13 -14 -15
leaf_value=-2.5883051597522866 -2.8725887155308656 -1.3311745756576119 -1.7021213412536114 -2.8725887155308656 -2.3818081508932969 -2.8725887155308656 -1.411694616433234 -2.8725887155308656 -2.8725887155308656 -2.4961622752773973 -2.8725887155308656 -2.4836848816990065 -2.8725887155308656 -2.8725887155308656
leaf_weight=2.3304197043180528 3.6963373199105254 1.5043004602193821 2.5470594614744178 4.9630084075033647 1.3498904556035998 1.2918673902750013 1.3604682236909864 1.1612818390130977 51.157043637707829 1.7599720135331152 1.3405712097883227 0.85175298154354084 15.079355265945194 5.6691709849983454
leaf_count=39 24 15 38 78 27 26 15 22 857 28 32 16 246 74
internal_value=-2.77259 -2.50559 -2.58285 -2.38344 -2.577 -2.21046 -1.89486 -2.78506 -2.86335 -2.75117 -2.83588 -2.72149 -2.87259 -2.87259
internal_weight=0 24.3698 22.8655 11.5123 8.96523 4.00223 2.71036 11.3532 71.6927 5.45631 9.02278 2.19232 66.2364 6.83045
internal_count=1537 382 367 184 146 68 42 183 1155 52 144 48 1103 96
is_linear=0
shrinkage=1


Tree=15
num_leaves=5
num_cat=0
split_feature=3 56 174 16
split_gain=1167.95 21.9526 35.1164 1.42109e-14
threshold=4815.0000000000009 2600.5000000000005 1245.5000000000002 4069.5000000000005
decision_type=2 2 2 2
left_child=1 2 -1 -3
right_child=-2 3 -4 -5
leaf_value=-2.0332304541133603 -1.4561366505971722 -2.8725887254585096 -2.8725887254585096 -2.8725887254585096
leaf_weight=0.81748248636722509 6.2974872812628737 29.130772560834885 1.2771715149283407 58.539585512131453
leaf_count=4 27 430 39 1037
internal_value=-2.77259 -2.86494 -2.54501 -2.87259
internal_weight=0 89.765 2.09465 87.6704
internal_count=1537 1510 43 1467
is_linear=0
shrinkage=1


Tree=16
num_leaves=22
num_cat=0
split_feature=93 55 95 95 78 152 2 140 30 38 74 151 19 68 53 1 2 100 125 117 32
split_gain=257.228 173.482 0.0182367 0.0151995 0.00098239 0.000103269 7.71962e-05 3.78322e-05 2.54901e-05 2.5448e-05 2.60619e-05 2.6853e-05 1.69969e-05 2.07086e-05 1.66077e-05 1.38685e-05 1.23316e-05 1.10526e-05 1.03094e-05 9.56265e-06 9.14441e-06
threshold=2648.5000000000005 4450.5000000000009 3304.5000000000005 3304.5000000000005 2079.5000000000005 1092.5000000000002 4016.5000000000005 1525.5000000000002 2586.5000000000005 5807.5000000000009 3599.5000000000005 1099.5000000000002 3021.5000000000005 5548.5000000000009 4278.5000000000009 3993.0000000000005 4417.5000000000009 1764.5000000000002 1637.5000000000002 1475.5000000000002 5043.0000000000009
decision_type=2 2 2 2 2 2 2 2 2 2 2 2 2 2 2 2 2 2 2 2 2
left_child=1 2 16 4 5 12 -7 8 -8 10 11 17 19 15 -13 18 -1 -10 -14 -2 -11
right_child=3 -3 -4 -5 -6 6 7 -9 9 20 -12 14 13 -15 -16 -17 -18 -19 -20 -21 -22
leaf_value=-0.098693997082183071 -0.098988957600395208 0.46045704870031412 -0.10974765752410894 -0.10975803862574894 -0.10199766052127811 -0.099602698116292659 -0.098688431909919883 -0.098508792863674782 -0.099061306867020152 -0.099277905074748096 -0.098873843511396414 -0.098946556676940689 -0.098983865590349954 -0.098649756678660841 -0.099189559546027428 -0.098772093221570281 -0.098977508750398124 -0.099272645871039511 -0.099336820966371142 -0.098667388235967365 -0.099031889841464285
leaf_weight=3.2435877555981296 1.0319783873856092 16.678022608160973 2.0352070704102516 1.3507512435317028 1.1092055216431607 2.5788389695808283 1.8136549554765213 1.2995617510750879 3.7590723130852002 6.8302207328379136 7.9571198141202322 13.029321028850974 2.0174102857708927 2.2479554358869791 3.5866737877950063 1.601684560999274 2.9111148528754711 7.2420238712802529 1.4031110256910322 8.900766257196663 1.9400332728400824
leaf_count=47 27 25 15 13 17 9 4 36 42 95 57 448 44 41 153 29 51 147 24 181 32
internal_value=0 0.275371 -0.101542 -0.0992535 -0.0990459 -0.0989972 -0.0990699 -0.0990409 -0.0990559 -0.0990709 -0.0990333 -0.0990792 -0.0987858 -0.098902 -0.098999 -0.0990149 -0.0988281 -0.0992004 -0.0991286 -0.0987008 -0.0992235
internal_weight=0 24.8679 8.18991 69.6994 68.3486 67.2394 50.0365 47.4577 46.1581 44.3445 35.5742 27.6171 17.2029 7.27016 16.616 5.02221 6.1547 11.0011 3.42052 9.93274 8.77025
internal_count=1537 138 113 1399 1386 1369 1023 1014 978 974 847 790 346 138 601 97 98 189 68 208 127
is_linear=0
shrinkage=0.1


Tree=17
num_leaves=22
num_cat=0
split_feature=132 33 100 58 185 126 0 190 43 194 124 158 6 90 182 139 1 88 143 104 4
split_gain=120.486 34.8129 34.7504 27.731 13.404 22.0261 14.9258 12.8419 12.0034 11.1214 9.43492 15.2921 15.5757 8.49871 7.25678 22.0548 6.53457 10.7795 5.36859 3.46116 3.4149
threshold=1972.5000000000002 4446.0000000000009 1977.5000000000002 2651.5000000000005 1186.5000000000002 2304.5000000000005 3676.5000000000005 1163.5000000000002 4944.0000000000009 1078.5000000000002 2272.5000000000005 1396.5000000000002 5143.5000000000009 3221.5000000000005 1194.5000000000002 1522.5000000000002 4377.5000000000009 2632.5000000000005 1058.5000000000002 1067.5000000000002 5137.5000000000009
decision_type=2 2 2 2 2 2 2 2 2 2 2 2 2 2 2 2 2 2 2 2 2
left_child=8 9 10 4 -4 -6 7 18 14 -2 -3 12 -12 -14 15 -1 19 -18 -7 -13 -8
right_child=1 2 3 -5 5 6 20 -9 -10 -11 11 16 13 -15 -16 -17 17 -19 -20 -21 -22
leaf_value=-0.001176611682334667 0.81666751193932086 -0.08163404539828778 0.60008086859456933 -0.078485628544087249 -0.030875520079039456 0.25522706543210494 0.41862386936615037 0.0097580976130846979 -0.096540688767453475 0.35921285340561354 -0.10032904735372793 0.17597174045219377 0.22054808280308277 0.56668612362576554 -0.10024812519057935 0.54309950252973738 0.44171513247792388 -0.027994422014934225 0.51057609786820235 -0.068675167276659163 0.64933187511676804
leaf_weight=3.1663263216614714 0.87596882134675924 4.8829332962632241 1.4475563298910845 2.1207527872174969 1.9020984321832637 2.0794488135725264 1.1749594109132888 1.5507457023486493 54.100231057964265 1.3512539668008683 0.97768004518002216 0.64374573715030958 1.7569877719506624 1.1896178685128687 2.1330526685342193 0.97336608916521061 0.82197601627558503 1.2046090355142949 1.3630810044705866 5.6869292529299855 1.4133231136947868
leaf_count=51 22 126 25 16 35 38 19 24 644 30 31 23 35 25 56 25 19 31 23 210 29
internal_value=0 0.157586 0.129463 0.252443 0.316646 0.273383 0.349717 0.248699 -0.0813576 0.53913 0.0359477 0.0826962 0.245535 0.360293 0.0495915 0.126799 0.00623256 0.162518 0.356333 -0.0437978 0.544601
internal_weight=0 32.4437 30.2164 13.052 10.9312 9.48366 7.58156 4.99328 60.373 2.22722 17.1645 12.2815 3.92429 2.94661 6.27275 4.13969 8.35726 2.02659 3.44253 6.33067 2.58828
internal_count=1537 761 709 209 193 168 133 85 776 52 500 374 91 60 132 76 283 50 61 233 48
is_linear=0
shrinkage=0.1


Tree=18
num_leaves=22
num_cat=0
split_feature=178 2 124 42 97 43 153 33 170 111 129 142 156 116 147 184 126 34 80 66 195
split_gain=117.148 36.1751 20.8804 24.623 28.4299 21.1143 15.3437 14.024 18.9379 11.444 8.88334 8.53322 8.32481 7.69441 6.92638 3.93385 10.1051 3.46542 3.34834 5.04287 1.35311
threshold=1219.5000000000002 4581.5000000000009 2058.5000000000005 5005.0000000000009 2769.5000000000005 5198.5000000000009 1346.5000000000002 4837.5000000000009 1374.0000000000002 1693.5000000000002 2122.5000000000005 1148.5000000000002 1298.5000000000002 2213.5000000000005 1263.5000000000002 1232.5000000000002 2400.5000000000005 4361.5000000000009 2310.5000000000005 4481.5000000000009 1056.5000000000002
decision_type=2 2 2 2 2 2 2 2 2 2 2 2 2 2 2 2 2 2 2 2 2
left_child=20 2 -2 13 -5 17 -7 11 10 -3 -9 -8 -12 -4 -14 -11 -17 -6 -13 -20 -1
right_child=1 9 3 4 5 6 7 8 -10 15 12 18 14 -15 -16 16 -18 -19 19 -21 -22
leaf_value=-0.098957513535335717 0.5979673905674 0.2013157791218832 0.13480319557837825 0.46286763965585431 0.17196610755857664 -0.056175957932550813 0.14643998272409689 0.42545376032338311 0.43377254958592187 -0.099526983960144755 -0.101386587531741 0.56690872059050457 0.41160597175584768 -0.10261870240979787 -0.010214980273023783 0.30284337577347564 -0.099124629333274247 -0.10185087477817585 0.23945164483324458 0.50739828346324189 -0.008309058996731641
leaf_weight=51.701980554498732 1.2105304980650569 2.0105302073061457 2.2336157541722086 4.0110640609636929 0.55271587707102598 1.7373607782647003 1.2268685698509196 0.577720372006297 1.8636497221887109 7.1420340090990049 2.6306133801117539 1.4852986447513101 0.74136314075440146 3.5100716762244701 0.81963803060352802 0.96076624002307687 1.7916676355525849 2.8225146997720003 1.3259956371039154 1.4935394432395694 1.7008633837103833
leaf_count=613 21 26 29 38 13 42 30 6 33 193 91 19 13 102 30 23 27 112 33 17 26
internal_value=0 0.130018 0.191647 0.173452 0.223026 0.167345 0.221815 0.261518 0.163465 -0.0161873 0.0578406 0.379092 0.00717337 -0.0102896 0.19012 -0.0603834 0.0411866 -0.0570116 0.445397 0.381386 -0.0960704
internal_weight=0 40.1476 28.2426 27.032 21.2883 17.2773 13.902 12.1647 6.63298 11.905 4.76933 5.5317 4.19161 5.74369 1.561 9.89447 2.75243 3.37523 4.30483 2.81954 53.4028
internal_count=1537 898 629 608 477 439 314 272 173 269 140 99 134 131 43 243 50 125 69 50 639
is_linear=0
shrinkage=0.1


Tree=19
num_leaves=22
num_cat=0
split_feature=87 197 195 5 93 21 145 93 24 76 59 37 144 30 56 24 36 52 118 34 55
split_gain=103.867 65.1565 27.4649 86.5141 27.7352 25.6713 17.9592 48.1353 32.2211 25.6771 14.3335 6.62551 0.00530924 0.00312073 0.00275503 0.00122849 0.00207878 0.000607704 0.000129641 0.000449875 8.66579e-05
threshold=3597.5000000000005 1060.5000000000002 1043.5000000000002 4706.5000000000009 3284.5000000000005 4781.5000000000009 1035.5000000000002 2982.5000000000005 4149.0000000000009 1856.5000000000002 2483.0000000000005 6161.5000000000009 1025.5000000000002 3882.0000000000005 3915.5000000000005 4138.0000000000009 4578.5000000000009 5130.5000000000009 1689.5000000000002 3751.5000000000005 4297.5000000000009
decision_type=2 2 2 2 2 2 2 2 2 2 2 2 2 2 2 2 2 2 2 2 2
left_child=2 12 10 -4 6 -6 7 13 -9 14 -1 -7 -2 -5 15 16 -8 -12 -19 -20 -17
right_child=1 -3 3 4 5 11 9 8 -10 -11 17 -13 -14 -15 -16 20 -18 18 19 -21 -22
leaf_value=0.18663201305700844 -0.10014593051663585 0.48214824534345802 0.5657722776447297 -0.1041932560858026 0.70094805116754832 -0.099336190565203181 -0.099320563265627715 0.70067297121537786 0.068017164623644294 0.41374565798956225 -0.10069868814534702 0.31125042445783074 -0.10915151518310784 -0.099131025079602766 -0.10605626697894575 -0.099061911031123509 -0.10471994316911591 -0.098808245956481106 -0.10035631421247049 -0.099030689328305221 -0.0999270941357943
leaf_weight=1.8304861281067122 1.2374695092439636 6.7412560982629657 2.7732023987919083 2.0018747299909574 0.99029061198234503 1.0265397159382699 2.0024891356006367 1.6521605234593155 1.5700000189244745 1.014653343707322 2.3489918746054164 0.63682901859283436 1.3899792190641163 3.1091881860047579 0.63616901636123557 19.662855565547947 1.1073621883988378 14.772735707461832 2.8859424516558674 22.671500981785357 1.2301155691966403
leaf_count=14 20 37 15 34 4 39 59 9 39 5 33 8 21 25 11 642 25 297 7 170 23
internal_value=0 0.317508 -0.0335503 0.0272423 -0.0135172 0.297846 -0.0378282 0.0897147 0.392411 -0.0792587 -0.0873828 0.0578589 -0.10491 -0.101114 -0.099561 -0.0993889 -0.101243 -0.0991351 -0.0990441 -0.0991804 -0.0991129
internal_weight=0 9.3687 83.9234 39.4137 36.6405 2.65366 33.9869 8.33322 3.22216 25.6536 44.5097 1.66337 2.62745 5.11106 24.639 24.0028 3.10985 42.6792 40.3302 25.5574 20.893
internal_count=1537 78 1459 938 923 51 872 107 48 765 521 47 41 59 760 749 84 507 474 177 665
is_linear=0
shrinkage=0.1


Tree=20
num_leaves=22
num_cat=0
split_feature=32 34 90 26 28 14 81 36 198 144 60 31 115 5 154 141 27 178 125 145 38
split_gain=172.488 71.9354 36.6712 16.6606 8.65722 5.25003 3.13485 1.82687 9.95267 1.18887 0.525485 5.53415 0.00434104 7.50848e-05 6.46806e-05 4.41809e-05 4.34695e-05 3.69596e-05 2.64117e-05 2.62586e-05 2.534e-05
threshold=2755.5000000000005 3727.5000000000005 2993.5000000000005 2584.5000000000005 2327.5000000000005 3890.5000000000005 2908.5000000000005 5770.5000000000009 1017.5000000000001 1005.5000000000001 2609.5000000000005 2660.5000000000005 1611.5000000000002 4371.5000000000009 1143.5000000000002 1364.5000000000002 2363.5000000000005 1144.5000000000002 1535.5000000000002 1029.5000000000002 5771.0000000000009
decision_type=2 2 2 2 2 2 2 2 2 2 2 2 2 2 2 2 2 2 2 2 2
left_child=1 12 -3 -2 -4 6 -6 9 -9 -5 11 -11 16 -12 -15 -10 18 -16 -1 -19 -21
right_child=3 2 4 7 5 -7 -8 8 15 10 13 -13 -14 14 17 -17 -18 19 -20 20 -22
leaf_value=-0.099145299427602127 0.34456979430254425 -0.099062087498179657 0.17307975474260076 -0.0030406111504416322 0.49617458920739677 0.29309358464438529 0.3811340422562024 0.21087318367739552 -0.099210465672679604 0.36695382864673742 -0.099606132610728537 -0.099070686602418412 -0.10703122870547488 -0.098721711086296668 -0.099336856272927709 -0.098639887730822509 -0.099353743528848293 -0.098863132177558599 -0.098519004753493178 -0.099009409384166608 -0.09922154987176883
leaf_weight=0.95868758298456969 0.89650880917906661 1.9949970394372964 2.3372818846255567 1.3819763101637352 3.4829334616661054 4.8776036184281102 7.4044446535408497 1.2814817093312729 2.8053061487153172 0.28038164228200857 2.0944949127733699 2.7950607892125845 0.76499201077967871 7.4303764048963776 3.8294624723494044 2.6287389853969216 1.5232390891760585 9.237597391009329 2.2623053770512342 27.428673418238759 7.0851107211783519
leaf_count=21 10 50 37 16 17 33 31 18 42 2 5 97 10 91 32 57 26 49 89 678 126
internal_value=0 0.220084 0.30784 -0.0837182 0.352683 0.379311 0.417936 -0.0893417 -0.0398158 -0.0947441 -0.09685 -0.0565842 -0.100041 -0.0990185 -0.0989961 -0.0989344 -0.0989136 -0.099039 -0.0987054 -0.0990129 -0.099053
internal_weight=0 25.6065 20.0973 69.1752 18.1023 15.765 10.8874 68.2787 6.71553 61.5631 60.1812 3.07544 5.50922 57.1057 55.0112 5.43405 4.74423 47.5808 3.22099 43.7514 34.5138
internal_count=1537 314 168 1223 118 81 48 1213 117 1096 1080 99 146 981 976 99 136 885 110 853 804
is_linear=0
shrinkage=0.1


Tree=21
num_leaves=22
num_cat=0
split_feature=19 34 21 18 141 27 74 56 27 165 16 1 64 159 37 103 27 38 74 188 152
split_gain=151.614 139.203 20.495 11.201 14.9992 11.1761 4.99862 2.33055 23.5513 6.89477 2.15503 0.511196 0.161315 0.00160241 5.33917e-05 2.40851e-05 2.60891e-05 3.89338e-05 3.50457e-05 2.02764e-05 1.93555e-05
threshold=2807.0000000000005 3912.5000000000005 2744.5000000000005 3044.0000000000005 1156.5000000000002 2873.0000000000005 2582.5000000000005 2758.5000000000005 2632.5000000000005 1243.5000000000002 3956.5000000000005 3979.5000000000005 4315.5000000000009 1271.5000000000002 6805.5000000000009 1048.5000000000002 2363.5000000000005 5781.0000000000009 3632.5000000000005 1103.5000000000002 1185.0000000000002
decision_type=2 2 2 2 2 2 2 2 2 2 2 2 2 2 2 2 2 2 2 2 2
left_child=1 12 -2 4 -4 10 -5 8 -8 -10 -3 -12 -1 -11 15 16 -9 18 -18 -15 -17
right_child=2 5 3 6 -6 -7 7 14 9 13 11 -13 -14 19 -16 20 17 -19 -20 -21 -22
leaf_value=-0.072633051055345454 0.28384612699273815 0.3215665015572739 -0.099611502092201695 0.11047674955530731 0.35930002127070965 0.60086888539759709 0.64671706336861168 -0.098724632910625609 0.31845472838849886 -0.10583905245061465 0.38745001898521919 0.44260992366416918 -0.10081657808982458 -0.099474733574683158 -0.098703979411777346 -0.098740948897708861 -0.099095432909503511 -0.09920864420144207 -0.098833752462474819 -0.098962208803749049 -0.098994095284466843
leaf_weight=3.3265888672322053 1.5901300646364678 4.1615826487541181 1.5259197261184447 1.2527248729020346 1.3355954736471174 2.8397667631506911 0.46718690264969964 2.2319815643131724 0.41337697207927604 0.35831815749406715 3.6207402050495148 3.1347106844186783 5.2140246760100126 0.85767366271465828 6.1673507895320645 4.8923861347138864 13.091619252227249 13.742414598353205 8.4028290156275016 7.7186300624161959 7.8936054706573486
leaf_count=24 20 23 22 31 18 24 6 71 3 3 21 20 24 8 134 14 348 187 64 264 208
internal_value=0 0.227272 -0.0711749 -0.0791993 0.114583 0.424144 -0.0874155 -0.0911581 -0.046185 -0.0808143 0.378174 0.413046 -0.089839 -0.0992872 -0.0989817 -0.0990157 -0.0990562 -0.0990772 -0.0989931 -0.0990135 -0.0988972
internal_weight=0 22.2974 71.9417 70.3516 2.86152 13.7568 67.4901 66.2374 9.81519 9.348 10.917 6.75545 8.54061 8.93462 56.4222 50.2548 37.4688 35.2369 21.4944 8.5763 12.786
internal_count=1537 136 1401 1381 40 88 1341 1310 284 278 64 41 48 275 1026 892 670 599 412 272 222
is_linear=0
shrinkage=0.1


Tree=22
num_leaves=22
num_cat=0
split_feature=93 31 152 2 85 85 30 5 19 38 57 158 100 16 125 33 197 188 79 55 2
split_gain=233.7 117.322 0.000106354 7.83967e-05 3.41198e-05 2.71655e-05 2.71853e-05 2.81318e-05 2.20216e-05 1.94362e-05 1.87954e-05 2.16628e-05 1.82352e-05 1.77073e-05 1.61616e-05 1.45064e-05 1.3601e-05 1.32977e-05 1.318e-05 1.31019e-05 1.27718e-05
threshold=3231.5000000000005 2784.5000000000005 1092.5000000000002 4016.5000000000005 3309.5000000000005 2603.0000000000005 2598.5000000000005 5558.0000000000009 3021.5000000000005 5696.5000000000009 2444.5000000000005 1367.5000000000002 2006.5000000000002 5070.0000000000009 1535.5000000000002 3220.5000000000005 1012.5000000000001 1029.5000000000002 1867.5000000000002 3856.0000000000005 4413.5000000000009
decision_type=2 2 2 2 2 2 2 2 2 2 2 2 2 2 2 2 2 2 2 2 2
left_child=2 -2 8 -4 9 20 -7 10 14 18 11 12 -8 -11 -1 16 17 -10 -3 -13 -5
right_child=1 4 3 5 -6 6 7 -9 15 13 -12 19 -14 -15 -16 -17 -18 -19 -20 -21 -22
leaf_value=-0.099087090119366325 0.37888612107596936 -0.099025459612531522 -0.099602698406352719 -0.098615670337912728 -0.098505384711445529 -0.098704707889615384 -0.09917546908601553 -0.098845400271451792 -0.09900855510694824 -0.099592405282306048 -0.099456576831915458 -0.098851466540220673 -0.098826126400155909 -0.099113897688296662 -0.098655014396950722 -0.098756650360061968 -0.098793338033397474 -0.099454675726887043 -0.098464853973364186 -0.099062778998651901 -0.098979750318275217
leaf_weight=0.949904670938852 19.262398570775989 1.4892647089436644 2.5788389770314089 2.0967214498668905 1.0894255274906752 2.0616189241409293 20.925634022802118 4.664687341079115 2.1690054163336741 1.0729633159935477 1.4688644483685482 4.5530978245660654 1.609095662832259 2.7694602301344275 9.7649076059460622 3.5574883259832859 1.6798478383570907 0.9655887447297572 0.58375824987888325 8.2519730571657401 1.7827493194490669
leaf_count=21 21 61 9 29 15 7 328 49 52 14 17 188 14 86 193 60 24 17 12 292 28
internal_value=0 0.25144 -0.0989891 -0.0990657 -0.0990197 -0.0990365 -0.0990591 -0.0990768 -0.0987883 -0.0991144 -0.0991061 -0.0990915 -0.0991505 -0.0992475 -0.0986933 -0.0989098 -0.0990229 -0.099146 -0.0988676 -0.0989876 -0.098783
internal_weight=0 26.2673 69.08 49.9933 7.00487 47.4144 43.535 41.4734 19.0867 5.91545 36.8087 35.3398 22.5347 3.84242 10.7148 8.37193 4.81444 3.13459 2.07302 12.8051 3.87947
internal_count=1537 209 1328 961 188 952 895 888 367 173 839 822 342 100 214 153 93 69 73 480 57
is_linear=0
shrinkage=0.1


Tree=23
num_leaves=22
num_cat=0
split_feature=80 37 75 3 194 94 34 93 88 36 131 152 114 84 199 30 3 141 7 17 19
split_gain=133.214 97.8004 48.1924 38.0026 13.1112 10.7869 34.7997 4.70969 0.610496 3.11261 0.000953168 0.000113156 7.25407e-05 3.80701e-05 2.66854e-05 2.54803e-05 2.40885e-05 2.07669e-05 1.86459e-05 2.38715e-05 1.71564e-05
threshold=2417.5000000000005 5927.5000000000009 2698.5000000000005 4037.5000000000005 1056.5000000000002 2965.5000000000005 4501.5000000000009 2629.5000000000005 2591.5000000000005 5000.5000000000009 2266.5000000000005 1092.5000000000002 1646.5000000000002 2580.0000000000005 1008.5000000000001 2598.5000000000005 3957.5000000000005 1364.5000000000002 4853.0000000000009 3877.0000000000005 3021.5000000000005
decision_type=2 2 2 2 2 2 2 2 2 2 2 2 2 2 2 2 2 2 2 2 2
left_child=5 3 -3 -2 7 8 -7 -5 9 -1 13 20 -13 -4 -8 -14 -15 -18 19 -17 -10
right_child=1 2 10 4 -6 6 14 -9 11 -11 -12 12 15 16 -16 18 17 -19 -20 -21 -22
leaf_value=0.18478462797292194 -0.041483986612518432 0.39012581768533061 -0.09958687036007112 0.40659636578009284 0.25801522786617997 0.36631006129236887 -0.098898217609366734 0.5482528464024875 -0.098696051663783008 -0.09896070266676818 -0.10220594214533532 -0.099550354226303872 -0.098704707504815137 -0.098412116572439534 -0.099321426327839191 -0.098907442245634442 -0.099120007051801004 -0.098724781281274834 -0.099015384673958901 -0.099267842620010857 -0.098902435635193853
leaf_weight=0.46618489548563902 2.1457078456878689 2.4294669143855563 1.2637460734695185 4.7853532433509809 3.9034474436193696 2.1993755642324668 2.9687569998204708 4.606206052005291 10.409228175878527 2.2647373173385859 1.0678450223058451 3.1064084731042376 2.0616188868880263 0.64434036239981551 2.9910307694226503 2.4262317372486013 7.0762121835723502 1.6370502924546597 21.663921187631786 7.5784862330183387 6.5701992250978938
leaf_count=15 3 20 14 19 39 16 19 23 205 67 17 9 7 21 63 47 89 47 564 123 110
internal_value=0 0.175091 -0.0151301 0.349026 0.412051 -0.0811395 0.0263477 0.476074 -0.0966488 -0.0505237 -0.099358 -0.0989895 -0.0990879 -0.0990717 -0.0991106 -0.0990454 -0.0990021 -0.0990458 -0.0990675 -0.0991804 -0.0987759
internal_weight=0 29.5594 14.1187 15.4407 13.295 64.7062 8.15916 9.39156 56.547 2.73092 11.6892 53.8161 36.8367 10.6213 5.95979 33.7303 9.3576 8.71326 31.6686 10.0047 16.9794
internal_count=1537 292 208 84 81 1245 98 42 1147 82 188 1065 750 171 82 741 157 136 734 170 315
is_linear=0
shrinkage=0.1


Tree=24
num_leaves=22
num_cat=0
split_feature=33 16 60 30 23 21 21 15 154 140 33 36 91 198 103 196 32 80 83 144 88
split_gain=159.238 248.902 75.1081 58.0621 0.0167348 0.0038974 0.00356688 0.00015869 5.38875e-05 4.62931e-05 3.4246e-05 3.50531e-05 2.34404e-05 2.36663e-05 1.81554e-05 1.89793e-05 1.67841e-05 1.62209e-05 1.4747e-05 1.18459e-05 1.01869e-05
threshold=2765.5000000000005 4027.5000000000005 2624.5000000000005 2590.5000000000005 2567.5000000000005 2644.5000000000005 2775.5000000000005 4157.5000000000009 1139.5000000000002 1525.5000000000002 4015.0000000000005 5392.5000000000009 2992.5000000000005 1013.5000000000001 1047.5000000000002 1089.5000000000002 5087.5000000000009 2391.5000000000005 3204.5000000000005 1013.5000000000001 2709.0000000000005
decision_type=2 2 2 2 2 2 2 2 2 2 2 2 2 2 2 2 2 2 2 2 2
left_child=1 6 3 -2 -4 -6 -1 -5 -7 10 -10 12 17 -14 16 -16 18 19 -13 -12 -8
right_child=2 -3 4 7 5 8 20 -9 9 -11 11 14 13 -15 15 -17 -18 -19 -20 -21 -22
leaf_value=-0.10304493121711616 0.37788472865157341 0.67491766516753759 -0.10964039991904909 -0.10106218441282717 -0.10336958014192908 -0.09879617140791154 -0.099139835274596189 -0.099023476875897229 -0.099270501384817258 -0.098564064109873575 -0.099331885662255495 -0.099419591844120858 -0.09891228976056049 -0.098518777305247884 -0.098860301684570814 -0.099244801193400178 -0.098937844637195627 -0.099441025562691729 -0.099145083574347537 -0.098970981287330201 -0.098763893717933079
leaf_weight=3.3098582960665244 6.3714494705200178 8.1608105525374395 1.5497400984168042 0.42408678960055102 2.094811536371707 12.169370813295243 0.86913857050240029 3.8293393161147833 6.1507302271202198 2.0434120483696452 0.9568966124206878 4.0268718283623439 5.3786106295883647 2.134956824593246 3.5944234207272521 1.9970199503004549 1.6798236975446341 0.82742281351238389 3.8073307322338223 18.347106724977493 4.2224804209545255
leaf_count=17 1 3 21 7 24 267 21 121 109 46 13 100 24 44 57 40 31 19 45 463 64
internal_value=0 0.28158 -0.060067 0.186884 -0.0993702 -0.0991261 -0.100489 -0.0992267 -0.0989852 -0.0990304 -0.0990499 -0.0990181 -0.0989512 -0.0988005 -0.0991406 -0.0989976 -0.0992247 -0.0990075 -0.0992862 -0.0989889 -0.0988281
internal_weight=0 16.5623 77.3834 10.6249 66.7585 65.2088 8.40148 4.25343 63.114 50.9446 48.9012 42.7505 27.645 7.51357 15.1055 5.59144 9.51403 20.1314 7.8342 19.304 5.09162
internal_count=1537 105 1432 129 1303 1282 102 128 1258 991 945 836 563 68 273 97 176 495 145 476 85
is_linear=0
shrinkage=0.1


Tree=25
num_leaves=22
num_cat=0
split_feature=171 66 147 95 161 76 32 79 137 28 184 0 67 159 148 102 104 86 176 86 79
split_gain=106.515 60.3131 28.1843 25.1613 23.9785 20.1792 21.0815 13.9501 12.9226 11.8919 10.7326 5.90101 5.80622 3.43038 5.0077 2.56884 2.50827 1.37659 0.757778 0.420223 0.00381674
threshold=1277.5000000000002 4545.5000000000009 1230.5000000000002 3094.5000000000005 1342.5000000000002 1692.5000000000002 4493.5000000000009 1797.5000000000002 1776.5000000000002 4950.5000000000009 1167.5000000000002 2748.5000000000005 3847.5000000000005 1381.5000000000002 1347.5000000000002 1082.5000000000002 1077.5000000000002 2592.0000000000005 1204.5000000000002 2896.5000000000005 1752.5000000000002
decision_type=2 2 2 2 2 2 2 2 2 2 2 2 2 2 2 2 2 2 2 2 2
left_child=18 2 3 4 -2 13 8 11 -7 -9 -3 -8 -6 -4 -15 -14 -13 -12 -1 -17 -10
right_child=1 10 5 -5 12 6 7 9 20 -11 17 16 15 14 -16 19 -18 -19 -20 -21 -22
leaf_value=-0.098948269586879647 0.47676368412560954 0.27504834911329129 0.53112559666104198 0.54076293487364213 0.16998058581140338 0.23453170662032508 0.25297584073034551 -0.10168665928233463 -0.10877420869354255 0.29924195636392181 0.016698904958352367 0.57987504963109637 0.072213287009760055 0.26948041272698325 0.48183441840708191 -0.028956200837111753 0.39887457984872765 -0.099397792071027613 -0.038175469866021002 -0.10180995348414273 -0.099115484892641187
leaf_weight=49.144659006036818 1.0224200040102029 0.87174740061163802 1.834512304514649 1.0177811579778779 1.1951313260942678 1.9039138443768004 1.6236157845705745 1.2685420503839853 0.49284934252500567 1.7749185413122175 1.1279605422168959 1.521568342112005 1.1266193129122255 2.3772000931203365 2.0840478241443634 0.92358575388789166 1.541041321121156 10.80371816921979 2.1411351626738897 5.5456050774082541 2.4082438535988331
leaf_count=568 26 15 20 19 27 34 26 67 14 24 36 21 16 37 19 5 20 273 29 121 120
internal_value=0 0.11772 0.196019 0.0674902 0.0184053 0.269947 0.196582 0.298831 0.0320966 0.132131 -0.0636749 0.407095 -0.0349036 0.416015 0.36868 -0.0671402 0.488799 -0.0884226 -0.0964111 -0.0914089 -0.100756
internal_weight=0 42.465 29.6616 10.8311 9.81336 18.8305 12.5347 7.72969 4.80501 3.04346 12.8034 4.68623 8.79094 6.29576 4.46125 7.59581 3.06261 11.9317 51.2858 6.46919 2.90109
internal_count=1537 940 616 214 195 402 326 158 168 91 324 67 169 76 56 142 41 309 597 126 134
is_linear=0
shrinkage=0.1


Tree=26
num_leaves=22
num_cat=0
split_feature=146 74 7 149 3 162 60 147 10 101 57 196 195 79 86 114 199 71 133 85 109
split_gain=112.646 39.9467 24.0644 16.1531 10.1458 13.5661 7.85685 19.8198 7.04478 6.44376 7.62171 9.30882 7.59618 6.12365 5.5024 9.29412 4.06903 3.9337 3.84591 3.53832 4.90693
threshold=1096.5000000000002 3171.5000000000005 5372.0000000000009 1280.5000000000002 4199.0000000000009 1378.5000000000002 3191.5000000000005 1277.5000000000002 5174.5000000000009 1541.5000000000002 2210.0000000000005 1080.5000000000002 1064.5000000000002 1759.5000000000002 3044.5000000000005 2243.5000000000005 1019.5000000000001 4244.5000000000009 2036.5000000000002 3156.5000000000005 1307.5000000000002
decision_type=2 2 2 2 2 2 2 2 2 2 2 2 2 2 2 2 2 2 2 2 2
left_child=-1 2 3 4 5 -2 7 14 13 -6 -11 12 -12 -5 -3 -16 17 19 -4 -15 -21
right_child=1 6 18 8 9 -7 -8 -9 -10 10 11 -13 -14 16 15 -17 -18 -19 -20 20 -22
leaf_value=-0.089084004596544183 0.15737014405884323 -0.029952890531283194 -0.09957758298773095 0.14039078888372897 0.43853355220801665 0.78964009168098703 -0.0690744148123702 0.57191910774585519 0.079943719166072999 0.019951622016432049 0.12090639222102061 -0.012350224318311597 0.49412244786526305 0.47085868588994684 -0.0041665723951379739 0.41659357127584218 0.20989009811523643 0.64677043909665932 0.13565548961076798 0.12708346042908147 0.42484610049552823
leaf_weight=54.913876417092979 0.81127613224089745 5.1660769050940853 2.3350601699203248 0.93975103646516434 0.62967184651642849 0.58337181527167559 6.9472318599000564 0.7325846105813979 0.85104279965162355 4.4481750819832087 0.93878026679158288 1.1494131609797476 1.3012772807851432 3.6827338300645351 1.3581361491233113 0.85576379951089609 0.8924591690301894 0.79008540324866761 0.98957318440079678 0.88060924038291011 1.4896313510835169
leaf_count=664 24 123 38 22 21 21 119 24 23 103 25 22 38 89 33 28 19 23 26 18 34
internal_value=0 0.135271 0.219009 0.261633 0.171924 0.421844 0.00897829 0.0758191 0.354504 0.130759 0.106033 0.219002 0.337712 0.381438 0.026573 0.158475 0.410722 0.436914 -0.0295607 0.409521 0.314219
internal_weight=0 37.7727 22.7129 19.3883 9.86197 1.39465 15.0598 8.11256 9.52631 8.46732 7.83765 3.38947 2.24006 8.67527 7.37998 2.2139 7.73552 6.84306 3.32463 6.05297 2.37024
internal_count=1537 873 546 482 254 45 327 208 228 209 188 85 63 205 184 61 183 164 64 141 52
is_linear=0
shrinkage=0.1


Tree=27
num_leaves=22
num_cat=0
split_feature=183 148 7 141 177 82 140 113 130 124 130 108 85 42 151 79 56 180 83 22 44
split_gain=93.1438 34.8292 30.7354 46.2224 39.8443 20.6782 32.2089 20.0868 22.3413 18.269 15.9423 24.0299 10.4245 9.87688 6.54329 2.54719 1.39814 0.851946 0.00478629 0.00249625 0.00198903
threshold=1164.0000000000002 1291.5000000000002 5301.5000000000009 1360.5000000000002 1307.5000000000002 3127.5000000000005 1477.5000000000002 2023.5000000000002 1969.5000000000002 2058.5000000000005 2090.5000000000005 1363.5000000000002 3181.5000000000005 4936.5000000000009 1099.5000000000002 1792.5000000000002 2729.5000000000005 1219.5000000000002 3164.5000000000005 4214.5000000000009 5015.5000000000009
decision_type=2 2 2 2 2 2 2 2 2 2 2 2 2 2 2 2 2 2 2 2 2
left_child=13 7 10 4 5 15 -7 8 9 -2 11 14 -6 -1 -3 -4 -15 -10 -5 -16 -12
right_child=1 2 3 18 12 6 -8 -9 17 -11 20 -13 -14 16 19 -17 -18 -19 -20 -21 -22
leaf_value=0.15399374775611097 0.1826145567326036 0.17516630805259473 0.080318928965061417 -0.099586281940408847 0.73313158782953147 0.54329797579515138 -0.099424039109943574 0.60366616587138433 -0.10302592088983059 0.58098137837651309 -0.099310034781421599 0.39166355074653064 0.40313692780980798 -0.029416317714312523 -0.10562990145694701 -0.099929323367584755 -0.098933223905270845 0.02592298113310226 -0.10677790088517745 -0.099882333230612019 -0.10204842191146267
leaf_weight=1.6494282986968745 2.9747120738029462 1.1526997610926653 1.1941682063043102 3.1517565157264462 1.5419700257480142 2.1444062702357773 1.2251782109960911 1.6760213905945418 1.2804080247879031 1.8779457164928315 5.540264565497635 1.9518124237656591 2.5246140621602535 3.0815324243158093 1.187734814360738 2.28260144777596 47.321645099669695 0.8541572056710719 1.310118689201772 2.0771564738824964 5.088814552873373
leaf_count=13 35 23 21 55 17 18 52 26 29 20 246 34 37 26 26 40 551 15 36 63 154
internal_value=0 0.114671 0.0670136 0.169467 0.280336 0.133072 0.309605 0.292761 0.218185 0.33678 -0.0256536 0.0994499 0.528265 -0.0868031 -0.0296581 -0.0380193 -0.0946831 -0.0514264 -0.101698 -0.101973 -0.100621
internal_weight=0 41.0365 32.3733 15.3748 10.9129 6.84635 3.36958 8.66324 6.98722 4.85266 16.9985 6.3694 4.06658 52.0526 4.41759 3.47677 50.4032 2.13457 4.46188 3.26489 10.6291
internal_count=1537 947 822 276 185 131 70 125 99 55 546 146 54 590 112 61 577 44 91 89 400
is_linear=0
shrinkage=0.1


Tree=28
num_leaves=22
num_cat=0
split_feature=100 36 93 22 102 99 104 140 22 34 29 57 45 99 17 27 179 33 106 184 110
split_gain=279.12 96.2708 16.9212 0.0020819 0.000115971 0.000115041 6.05992e-05 4.54041e-05 3.57347e-05 2.29741e-05 4.05071e-05 2.0962e-05 1.41908e-05 1.47834e-05 1.41397e-05 1.1145e-05 1.10437e-05 1.85869e-05 1.12758e-05 1.0756e-05 1.81499e-05
threshold=1706.5000000000002 4901.0000000000009 2686.5000000000005 2625.0000000000005 1059.5000000000002 2070.5000000000005 1047.5000000000002 1525.5000000000002 2675.5000000000005 4065.5000000000005 2780.5000000000005 2444.5000000000005 4476.5000000000009 2519.5000000000005 4361.0000000000009 2363.5000000000005 1050.5000000000002 3220.5000000000005 1054.5000000000002 1115.5000000000002 1397.5000000000002
decision_type=2 2 2 2 2 2 2 2 2 2 2 2 2 2 2 2 2 2 2 2 2
left_child=1 2 -1 -2 -5 -6 16 9 -3 -8 14 12 -12 19 -11 -10 -7 18 -18 -14 -21
right_child=3 8 -4 4 5 6 7 -9 15 10 11 -13 13 -15 -16 -17 17 -19 -20 20 -22
leaf_value=0.33211881371600027 -0.10288205535583504 -0.099667046701855 0.53179875759657613 -0.10003338221119568 -0.099698240463891669 -0.098545293813837267 -0.09921827831271858 -0.098564066795449976 -0.09873729613459048 -0.098624468012298627 -0.098939130235237205 -0.099371892338414591 -0.098977086592996144 -0.098853492500587614 -0.098908841467691272 -0.099103688532611547 -0.098832441531845006 -0.09871179177144683 -0.099168774137978519 -0.099248152762230077 -0.099051736528913525
leaf_weight=11.628412632271653 1.4257050678133953 0.96620508283376594 6.6827904637902966 1.1160455867648114 2.318926407955586 1.729554122313856 6.6475616777315727 2.0434121731668702 1.2223897743970158 2.6700817067176095 9.5241346238180977 2.0596659965813151 5.1280037462711396 2.5739340726286164 5.0657928921282291 2.5877049062401056 2.1737006157636625 6.3513832483440638 1.8410623483359811 8.5669457120820898 10.434963262639938
leaf_count=36 13 24 17 15 9 58 103 46 43 54 286 24 38 47 12 30 49 96 34 144 359
internal_value=0 0.300702 0.404993 -0.0990989 -0.0990221 -0.0990058 -0.0989818 -0.0990266 -0.0991239 -0.0990445 -0.0990194 -0.0990616 -0.0990439 -0.0990813 -0.0988107 -0.0989861 -0.0987792 -0.0988183 -0.0989867 -0.0991056 -0.0991403
internal_weight=0 23.0875 18.3112 71.6709 70.2452 69.1291 66.8102 54.7145 4.7763 52.6711 46.0235 38.2876 36.228 26.7038 7.73587 3.81009 12.0957 10.3661 4.01476 24.1299 19.0019
internal_count=1537 150 53 1387 1374 1359 1350 1113 97 1067 964 898 874 588 66 73 237 179 83 541 503
is_linear=0
shrinkage=0.1


Tree=29
num_leaves=22
num_cat=0
split_feature=31 36 90 28 6 24 181 170 165 44 18 33 19 5 103 38 91 154 32 170 148
split_gain=310.133 17.1656 12.6929 9.47677 12.9176 8.05476 6.55002 2.57474 0.680351 0.37046 0.22846 0.115968 7.32029e-05 8.15769e-05 2.39818e-05 2.51054e-05 3.7333e-05 2.5809e-05 2.11441e-05 1.82321e-05 1.62758e-05
threshold=2261.0000000000005 5146.5000000000009 3014.5000000000005 2505.0000000000005 4327.5000000000009 2597.0000000000005 1045.5000000000002 1074.0000000000002 1081.5000000000002 5977.5000000000009 2685.5000000000005 3072.5000000000005 2709.5000000000005 4486.5000000000009 1048.5000000000002 5781.0000000000009 3001.5000000000005 1150.5000000000002 5038.0000000000009 1258.0000000000002 1374.5000000000002
decision_type=2 2 2 2 2 2 2 2 2 2 2 2 2 2 2 2 2 2 2 2 2
left_child=1 -1 5 4 -2 7 8 -3 11 10 -5 -4 -12 -14 15 16 -15 -17 -19 -16 -21
right_child=3 2 6 9 -6 -7 -8 -9 -10 -11 12 -13 13 14 19 17 -18 18 -20 20 -22
leaf_value=0.097883169980996096 -0.083039387887005323 0.52837320926366249 0.39414156195694527 -0.053229231603062657 0.25725180876757969 0.69180286422620618 0.22800065845718823 0.3700787615960599 0.45327989019411175 -0.059584313036097139 -0.098691391394847727 0.36185351321386616 -0.099545317919100068 -0.099058398830788499 -0.098762307876160874 -0.098727807326907197 -0.098755667019242308 -0.099284497302826138 -0.09889539939481691 -0.099043856777334127 -0.098679028522056164
leaf_weight=1.9657438248395944 2.8562166299670926 1.9575215876102436 2.5412973836064321 1.1075367592275132 1.8304132521152494 1.9538684003055093 3.3858273103833199 2.162904366850853 1.7610219642519949 2.5653917901217929 6.3566801492124787 1.9783411547541616 3.1284692026674739 26.294924964196984 5.2368879280984393 1.1418200582265843 4.8203544691205016 9.4650439368560892 1.6383428061380971 8.6554870912805182 1.4240134451538313
leaf_count=17 34 25 26 13 28 31 33 22 20 32 82 20 17 610 19 19 60 101 45 228 55
internal_value=0 0.376503 0.411298 -0.0879117 0.049865 0.524578 0.340114 0.445281 0.400553 -0.0969005 -0.0982825 0.380008 -0.0990145 -0.0990478 -0.0990212 -0.0990592 -0.0990115 -0.0991805 -0.0992271 -0.0989137 -0.0989923
internal_weight=0 17.7065 15.7408 76.5216 4.68663 6.07429 9.66649 4.12043 6.28066 71.835 69.2696 4.51964 68.162 61.8053 58.6769 43.3605 31.1153 12.2452 11.1034 15.3164 10.0795
internal_count=1537 194 177 1343 62 78 99 47 66 1281 1249 46 1236 1154 1137 835 670 165 146 302 283
is_linear=0
shrinkage=0.1


Tree=30
num_leaves=22
num_cat=0
split_feature=176 50 19 49 121 142 79 186 36 26 146 1 93 175 57 27 75 140 36 91 144
split_gain=147.1 47.2624 58.0652 31.7991 31.2884 39.8296 21.6091 17.3473 12.9149 2.43332 0.00243978 0.00138237 0.000480976 0.000101276 8.75218e-05 5.51915e-05 4.76559e-05 4.29662e-05 2.26519e-05 3.26541e-05 2.91712e-05
threshold=1141.5000000000002 6711.5000000000009 2937.0000000000005 5220.5000000000009 1572.5000000000002 1056.5000000000002 1774.5000000000002 1046.5000000000002 5137.5000000000009 2592.5000000000005 1015.5000000000001 3987.5000000000005 3021.5000000000005 1153.5000000000002 2285.5000000000005 2789.5000000000005 3283.0000000000005 1525.5000000000002 5392.5000000000009 2990.5000000000005 1017.5000000000001
decision_type=2 2 2 2 2 2 2 2 2 2 2 2 2 2 2 2 2 2 2 2 2
left_child=1 2 3 -1 5 8 11 -6 -4 -2 -7 14 -3 -11 -5 -16 -14 18 19 20 -15
right_child=9 12 4 6 7 10 -8 -9 -10 13 -12 -13 16 17 15 -17 -18 -19 -20 -21 -22
leaf_value=0.40109012684224316 0.051162525465899528 -0.1011460452711932 0.56872530964993673 -0.098913131112091712 0.62966615298206785 -0.10653927314303305 0.21223684268262333 0.34630853445520998 0.22470985516358263 -0.099712801180875318 -0.10066774144103552 -0.10239884360744728 -0.098808469533341978 -0.099241465780351826 -0.099236397769181903 -0.10031568805559624 -0.099684917478583601 -0.098564064851118072 -0.099133342266924579 -0.098803741845653714 -0.098989268928062243
leaf_weight=2.2498969137668636 1.0991435339674342 1.2925495821982611 1.946841131895783 4.2599829994142038 3.7979181185364705 1.3094626348465683 3.0920008793473244 5.0114211421459913 2.4831883423030376 2.1550918929278842 1.5399735756218431 1.6826952137053011 3.7105758041143417 5.6298477165401009 1.0408004298806188 0.86972121894359578 0.74493918567895878 2.0434121303260318 15.457958568818865 7.5590387964621177 24.746752438135445
leaf_count=13 18 30 11 37 21 25 37 31 36 5 21 20 90 67 29 13 19 46 276 73 619
internal_value=0 0.16272 0.21418 0.0586916 0.341703 0.188294 -0.0116919 0.468471 0.375892 -0.0962273 -0.103366 -0.0998582 -0.0994477 -0.0990402 -0.0991653 -0.0997277 -0.098955 -0.0990141 -0.0990313 -0.0989897 -0.099036
internal_weight=0 35.032 29.2839 13.1951 16.0888 7.27947 10.9452 8.80934 4.43003 58.6912 2.84944 7.8532 5.74806 57.5921 6.1705 1.91052 4.45551 55.437 53.3936 37.9356 30.3766
internal_count=1537 433 294 149 145 93 136 52 47 1104 46 99 139 1086 79 42 109 1081 1035 759 686
is_linear=0
shrinkage=0.1


Tree=31
num_leaves=22
num_cat=0
split_feature=5 56 2 7 152 2 34 36 57 141 95 19 68 197 147 192 123 57 16 121 27
split_gain=332.127 16.5689 26.2941 0.0141899 0.000120718 7.80026e-05 2.58453e-05 3.96747e-05 2.57435e-05 2.50262e-05 1.8008e-05 1.77488e-05 2.17348e-05 1.97837e-05 1.6608e-05 1.58991e-05 1.48819e-05 1.24843e-05 1.22298e-05 1.11468e-05 1.09069e-05
threshold=5731.0000000000009 2600.5000000000005 4510.5000000000009 5762.0000000000009 1092.5000000000002 4016.5000000000005 4114.5000000000009 5392.5000000000009 2300.5000000000005 1364.5000000000002 2631.5000000000005 3021.5000000000005 5548.5000000000009 1011.5000000000001 1239.5000000000002 1056.5000000000002 1495.5000000000002 2442.5000000000005 4035.0000000000005 2198.0000000000005 2367.5000000000005
decision_type=2 2 2 2 2 2 2 2 2 2 2 2 2 2 2 2 2 2 2 2 2
left_child=1 2 -1 4 11 -6 18 8 14 10 -9 16 13 20 19 -10 -3 -12 -7 -8 -13
right_child=-2 3 -4 -5 5 6 7 9 15 -11 17 12 -14 -15 -16 -17 -18 -19 -20 -21 -22
leaf_value=-0.10239976807995044 0.39220953208298215 -0.099052028914430129 0.54102737817339352 -0.11075414977471786 -0.099602698116292659 -0.099019750479143381 -0.099017470352084802 -0.09892481731168834 -0.098958932863390345 -0.098780143437222814 -0.099190849258658786 -0.09886618924870888 -0.0986539079287959 -0.098791751626613411 -0.098901200269048847 -0.098717897880407773 -0.098651558194206734 -0.099489157271173245 -0.099267586164080268 -0.099245138030594704 -0.099277551485378451
leaf_weight=1.5843338854610913 17.464424067176878 1.0257408488541866 1.0600967705249784 1.0396696673706163 2.5788389695808283 2.8916125968098623 5.5958451591432148 2.2504091951996079 4.6963670626282674 1.7447217050939787 9.48313384875655 0.89970049634575699 2.8184279967099428 2.6770416107028723 7.1441338229924432 6.5579881221055984 9.7317188717424852 1.6465043947100628 6.3935006307438016 3.4928887765854597 2.2727274782955647
leaf_count=35 30 24 8 13 9 45 109 15 31 50 213 28 62 35 319 43 192 19 104 112 41
internal_value=0 -0.0904719 0.155537 -0.0991528 -0.0989896 -0.0990659 -0.0990392 -0.0990063 -0.0989347 -0.0991364 -0.0991828 -0.0987755 -0.098882 -0.098992 -0.0990153 -0.0988185 -0.0986897 -0.099235 -0.0991904 -0.099105 -0.0991609
internal_weight=0 77.5854 2.64443 74.941 73.9013 54.4759 51.8971 42.612 27.4872 15.1248 13.38 19.4254 8.6679 5.84947 16.2329 11.2544 10.7575 11.1296 9.28511 9.08873 3.17243
internal_count=1537 1507 43 1464 1451 1069 1060 911 614 297 247 382 166 104 540 74 216 232 149 221 69
is_linear=0
shrinkage=0.1


Tree=32
num_leaves=22
num_cat=0
split_feature=97 2 95 94 186 89 152 138 141 101 144 77 30 20 7 36 68 174 61 31 55
split_gain=180.318 97.5636 0.0121459 0.00965379 0.000592685 0.000429095 0.000123612 7.52539e-05 4.41002e-05 4.7042e-05 2.61088e-05 2.49177e-05 2.2203e-05 1.6504e-05 1.60954e-05 2.70702e-05 1.83951e-05 2.85142e-05 2.15955e-05 1.74986e-05 1.67663e-05
threshold=3075.0000000000005 4222.5000000000009 3304.5000000000005 3088.5000000000005 1104.5000000000002 3322.5000000000005 1092.5000000000002 1420.5000000000002 1365.5000000000002 1690.5000000000002 1015.5000000000001 1580.5000000000002 2598.5000000000005 2844.5000000000005 5650.0000000000009 5421.0000000000009 4538.5000000000009 1298.5000000000002 3931.5000000000005 4222.5000000000009 4071.5000000000005
decision_type=2 2 2 2 2 2 2 2 2 2 2 2 2 2 2 2 2 2 2 2 2
left_child=3 -2 4 5 -3 6 13 -8 9 -6 11 -9 -12 -1 15 16 17 18 -14 -17 -21
right_child=1 2 -4 -5 8 -7 7 10 -10 -11 12 -13 14 -15 -16 19 -18 -19 -20 20 -22
leaf_value=-0.097941596342855541 0.31151166078937975 -0.10131047442940169 -0.10795603478069303 -0.10578229231178807 -0.098144264662707564 -0.1006447924145671 -0.098897440251661139 -0.098916412891257008 -0.097916066324594389 -0.098933705082402193 -0.098020090213905259 -0.098325120772421795 -0.098502139447210632 -0.098163248782947271 -0.098191975936912493 -0.099064679672964506 -0.09823986050190886 -0.098302470644826848 -0.099036898671760104 -0.099012579500098799 -0.098451312920331283
leaf_weight=4.7184181753546026 21.652589585632089 0.72158845514058967 1.8171252645552156 1.8074498707428563 1.6667356509715321 0.81386518944054742 3.095692414790391 1.7252202183008187 2.2238945737481117 1.3796285167336462 1.8017459325492371 1.2143469871953128 7.5550289936363786 11.662059490568934 4.0207401327788821 0.75888434797525306 8.1188864652067405 9.4728724947199208 0.83903935085982073 0.63300305791199241 3.3432156667113304
leaf_count=83 15 8 19 29 28 20 13 28 57 22 7 25 212 274 20 19 52 441 18 23 124
internal_value=0 0.202227 -0.100794 -0.0985821 -0.0986226 -0.0983643 -0.0983328 -0.0984227 -0.0982546 -0.0985018 -0.0983854 -0.0986721 -0.0983624 -0.0980994 -0.0983801 -0.0984047 -0.0983647 -0.0984214 -0.0985556 -0.0986246 -0.0985407
internal_weight=0 29.4616 7.80897 61.5805 5.99185 59.773 58.9592 42.5787 5.27026 3.04636 39.483 2.93957 36.5434 16.3805 34.7417 30.7209 25.9858 17.8669 8.39407 4.7351 3.97622
internal_count=1537 149 134 1388 115 1359 1339 982 107 50 969 53 916 357 909 889 723 671 230 166 147
is_linear=0
shrinkage=0.1


Tree=33
num_leaves=22
num_cat=0
split_feature=133 33 129 176 58 140 180 5 171 83 126 42 30 2 176 142 183 6 33 143 198
split_gain=90.5647 11.9649 18.5422 8.93368 8.85374 13.6745 18.8226 13.5042 12.1225 8.14655 7.56663 7.00387 7.41135 6.02042 3.98484 6.17516 5.07428 3.712 3.40337 2.65764 2.56696
threshold=1896.5000000000002 4308.5000000000009 2136.5000000000005 1259.5000000000002 2651.5000000000005 1514.5000000000002 1274.5000000000002 5184.5000000000009 1356.5000000000002 2623.5000000000005 2243.5000000000005 4879.0000000000009 2714.5000000000005 4491.5000000000009 1297.5000000000002 1158.5000000000002 1239.5000000000002 5143.5000000000009 4446.0000000000009 1059.5000000000002 1029.5000000000002
decision_type=2 2 2 2 2 2 2 2 2 2 2 2 2 2 2 2 2 2 2 2 2
left_child=11 3 18 -2 5 6 7 8 13 -7 -9 12 -1 17 -12 16 -16 -4 -3 -8 -17
right_child=1 2 4 -5 -6 9 19 10 -10 -11 14 -13 -14 -15 15 20 -18 -19 -20 -21 -22
leaf_value=0.29646823037449965 0.54766388193999693 0.096594192748425969 -0.058483148427863479 0.15225264058605256 -0.073865613771390143 0.17728534889773956 -0.090019487834507195 0.071317332840220543 -0.074550947806810208 0.43992820656620157 0.40005313730246378 -0.094631893063823455 -0.029703756378128856 0.35051285194370746 0.2542364785347711 0.23083712739623247 -0.058944526105820308 0.20085897708126851 -0.070177618316495632 0.082313288673476301 0.394325377535996
leaf_weight=0.89437338896095653 1.0895587177947157 1.5422384608536948 0.97953374404461602 1.2014662530273197 1.7944108154624689 2.3369792737066737 3.7782593360170713 2.0114081567153326 3.2955012926831841 2.387480866163969 2.2809938266873342 47.750131133012474 3.1508537363260984 1.4242617571726439 1.0884026046842339 1.7762480517849328 0.98604495357722033 1.264186489395797 5.9239769373089075 1.1725967107340691 2.0908966725692153
leaf_count=16 21 31 30 20 15 23 86 39 145 36 28 625 72 21 23 32 24 27 162 30 31
internal_value=0 0.118691 0.104639 0.340301 0.141198 0.155558 0.122612 0.172075 0.0646481 0.310011 0.245171 -0.0839288 0.0424107 0.189712 0.287699 0.244565 0.105372 0.0876388 -0.0357289 -0.0492029 0.319232
internal_weight=0 38.4244 36.1334 2.29102 28.6672 26.8728 22.1483 17.1975 6.96348 4.72446 10.234 51.7954 4.04523 3.66798 8.22259 5.94159 2.07445 2.24372 7.46622 4.95086 3.86714
internal_count=1537 824 783 41 590 575 516 400 223 59 177 713 88 78 138 110 47 57 193 116 63
is_linear=0
shrinkage=0.1


Tree=34
num_leaves=22
num_cat=0
split_feature=178 7 125 43 40 150 168 8 46 77 87 189 83 181 135 6 2 171 20 85 31
split_gain=91.4755 22.5186 13.9187 16.8446 15.5269 12.5251 10.9704 11.341 14.5482 11.2763 7.00664 4.94328 4.92433 4.48379 3.84888 3.10353 3.01907 2.68881 5.64422 2.15263 1.87928
threshold=1219.5000000000002 5416.5000000000009 2211.5000000000005 5198.5000000000009 5092.0000000000009 1086.5000000000002 1335.5000000000002 5142.0000000000009 5000.5000000000009 1649.5000000000002 2654.5000000000005 1124.5000000000002 2606.5000000000005 1268.5000000000002 1784.5000000000002 5085.0000000000009 4393.5000000000009 1358.5000000000002 4474.5000000000009 2954.5000000000005 4182.5000000000009
decision_type=2 2 2 2 2 2 2 2 2 2 2 2 2 2 2 2 2 2 2 2 2
left_child=-1 2 4 15 5 -2 -5 17 -9 10 16 -6 -3 -12 -7 -4 -10 18 -8 -13 -19
right_child=1 12 3 6 11 14 7 8 9 -11 13 19 -14 -15 -16 -17 -18 20 -20 -21 -22
leaf_value=-0.095053261827787255 0.36944025509641937 0.13312494288281762 0.1394615182505583 -0.1001780379637278 0.17972110234031061 0.090063545042375126 0.34036780611928663 -0.10156586430326442 0.2578141153723208 -0.053570113265081237 0.21898062063262427 0.29189573177810607 -0.077140675737477016 0.45338538156760499 -0.10174827734285814 -0.10064704324587943 -0.027664694772050996 0.43379332585282837 0.07705166506011224 0.41559257024017859 0.26995812809675079
leaf_weight=47.230766425840557 1.2858463171869496 1.3286105580627898 0.6146650910377528 1.7233221791684652 2.0523198517039418 2.6549026165157557 1.6401165425777429 2.6562896594405156 0.59360471926629521 1.6005382621660826 1.631167999468744 2.5287048667669296 6.8892596652731299 1.633002105168998 1.7263811444863675 4.3340956447646022 0.98539603687822819 1.2616378571838143 1.6162426071241496 3.1711669806391001 1.5730824638158081
leaf_count=639 12 26 18 43 23 36 10 106 5 25 27 15 150 19 51 179 45 13 41 27 27
internal_value=0 0.105935 0.140659 0.0914518 0.220829 0.0950211 0.13893 0.166055 0.0953652 0.176546 0.252593 0.312799 -0.0431463 0.336249 0.0144829 -0.0708242 0.0796573 0.271665 0.209675 0.360715 0.342876
internal_weight=0 43.5004 35.2825 21.8632 13.4193 5.66713 16.9144 15.1911 9.1 6.44371 4.84317 7.75219 8.21787 3.26417 4.38128 4.94876 1.579 6.09108 3.25636 5.69987 2.83472
internal_count=1537 898 722 558 164 99 361 318 227 121 96 65 176 46 87 197 50 91 51 42 40
is_linear=0
shrinkage=0.1


Tree=35
num_leaves=22
num_cat=0
split_feature=196 76 195 9 59 35 71 108 44 109 159 73 12 71 20 37 185 113 118 34 31
split_gain=70.0334 40.2829 20.2033 46.8116 16.626 28.7443 16.5041 13.1202 10.5522 9.19137 0.00752127 0.00354865 0.0032085 0.00247003 0.001102 0.00111514 0.000507515 0.000271725 0.00013896 0.000392536 8.19933e-05
threshold=1088.5000000000002 1842.5000000000002 1043.5000000000002 4331.5000000000009 2584.5000000000005 4502.5000000000009 3879.5000000000005 1371.5000000000002 5505.5000000000009 1332.5000000000002 1296.5000000000002 4250.5000000000009 4470.5000000000009 4018.5000000000005 4218.5000000000009 5044.5000000000009 1140.5000000000002 1970.5000000000002 1689.5000000000002 3751.5000000000005 5145.5000000000009
decision_type=2 2 2 2 2 2 2 2 2 2 2 2 2 2 2 2 2 2 2 2 2
left_child=2 7 6 -4 10 -6 -1 -2 17 -3 -5 20 13 -8 15 16 -12 -7 -15 -20 -9
right_child=1 9 3 4 5 8 12 11 -10 -11 14 -13 -14 18 -16 -17 -18 -19 19 -21 -22
leaf_value=0.23295252566962232 0.45827824062405909 0.39062227088680285 0.33451233967143734 -0.10987426368928527 0.2756774385038443 -0.10144392681535418 -0.10246666771831284 -0.098546885090629033 0.10823477736329622 0.20402963455420814 -0.10199676036417549 -0.10710060056062341 -0.10322320108931618 -0.098103690014272743 -0.098371727137066656 -0.10396892324050858 -0.098722295915351768 -0.098611985710061523 -0.099648466150478371 -0.098362298100181336 -0.0998388898423785
leaf_weight=1.559949081391095 0.46668027713894744 5.6981080844998342 4.1118983477354041 0.64619476720690983 4.0839529214426866 0.35494102351367285 1.5295832566916931 3.1425980785861616 3.5976211875677109 4.9187846388667822 0.61943765450268973 0.58923196513205756 1.5153926126658905 13.081598830409346 11.168654209002851 0.70698446407914151 2.0068207634612918 7.4569357885047793 2.6841613277792957 20.464455038309097 0.58218731731176365
leaf_count=11 2 13 16 9 30 7 14 129 32 34 14 12 17 305 331 17 66 282 8 183 5
internal_value=0 0.195636 -0.0383474 0.0176929 -0.0248222 0.0480133 -0.0860415 -0.0454026 -0.0334776 0.304174 -0.0993183 -0.0998896 -0.0987115 -0.0985304 -0.098848 -0.100444 -0.0994946 -0.0987407 -0.0983642 -0.0985114 -0.0987488
internal_weight=0 15.3976 75.5886 34.7534 30.6415 15.4935 40.8351 4.7807 11.4095 10.6169 15.1481 4.31402 39.2752 37.7598 14.5019 3.33324 2.62626 7.81188 36.2302 23.1486 3.72479
internal_count=1537 195 1342 804 788 351 538 148 321 47 437 146 527 510 428 97 80 289 496 191 134
is_linear=0
shrinkage=0.1


Tree=36
num_leaves=22
num_cat=0
split_feature=32 34 90 26 18 25 36 83 75 144 60 31 115 1 124 5 141 59 107 100 27
split_gain=125.532 42.6209 19.7234 12.0467 4.06048 2.73247 1.91762 9.01195 1.20013 1.18722 0.534602 3.78902 0.00316264 0.00168161 6.56741e-05 5.90447e-05 3.95433e-05 3.44845e-05 3.28485e-05 2.96745e-05 2.81194e-05
threshold=2755.5000000000005 3727.5000000000005 2993.5000000000005 2584.5000000000005 3196.5000000000005 2538.5000000000005 5770.5000000000009 3095.5000000000005 2799.5000000000005 1005.5000000000001 2609.5000000000005 2660.5000000000005 1611.5000000000002 4122.5000000000009 1699.0000000000002 4388.5000000000009 1365.5000000000002 2918.5000000000005 1136.0000000000002 2006.5000000000002 2363.5000000000005
decision_type=2 2 2 2 2 2 2 2 2 2 2 2 2 2 2 2 2 2 2 2 2
left_child=1 12 18 -2 -4 -6 9 13 -7 -5 11 -11 20 -8 -12 -16 -15 19 -3 -17 -1
right_child=3 2 4 6 5 8 7 -9 -10 10 14 -13 -14 16 15 17 -18 -19 -20 -21 -22
leaf_value=-0.098058130172677824 0.23586423728996861 -0.097994192079456199 0.15659977950724746 -0.0013061380462985146 0.19393734121899939 0.26003421041072183 -0.10272893198648976 0.1908382706859498 0.31718160976232485 0.24560258027418425 -0.097945461700918696 -0.098396207766710653 -0.10556631591004662 -0.098539266730868338 -0.098898369932721206 -0.098378554283306219 -0.097892741818942322 -0.099012972101835864 -0.098865992236984945 -0.098068912422459048 -0.098615088857830074
leaf_weight=2.8286075331270721 1.1732541248202313 0.93873917497694737 3.764170557260516 1.358131943270563 3.7158630378544357 7.0318414941430074 1.0397955253720272 1.3757472326979039 7.697432167828083 0.36798492074012701 3.547478772699832 2.4654554799199104 0.68564298003911961 1.7575494842603805 2.1925229830667368 40.547429487109184 2.0488372277468443 0.81106014922261138 0.80096034705638885 3.3507995614781967 1.3339856229722498
leaf_count=110 10 34 29 16 32 29 14 33 28 2 30 97 10 23 12 865 47 12 16 62 26
internal_value=0 0.171115 0.225852 -0.0815251 0.251251 0.270567 -0.0876434 -0.0350415 0.289899 -0.0936331 -0.0959865 -0.0537204 -0.0992732 -0.0991649 -0.0983603 -0.0983917 -0.0981913 -0.0983669 -0.0983956 -0.0983549 -0.0982366
internal_weight=0 28.7972 23.949 62.036 22.2093 18.4451 60.8628 6.22193 14.7293 54.6409 53.2827 2.83344 4.84824 4.84618 50.4493 46.9018 3.80639 44.7093 1.7397 43.8982 4.16259
internal_count=1537 314 168 1223 118 89 1213 117 57 1096 1080 99 146 84 981 951 70 939 50 927 136
is_linear=0
shrinkage=0.1


Tree=37
num_leaves=22
num_cat=0
split_feature=19 34 21 18 34 36 166 16 29 83 11 74 16 56 37 74 95 98 31 105 144
split_gain=107.576 76.6271 15.0604 9.83298 9.41283 4.43657 20.3636 4.15214 2.42601 0.203507 0.00114525 0.000401632 0.000295203 0.000201649 6.97248e-05 7.55727e-05 3.19972e-05 3.57332e-05 2.40781e-05 4.49365e-05 2.24497e-05
threshold=2807.0000000000005 3810.5000000000005 2732.0000000000005 2813.5000000000005 3884.5000000000005 5000.5000000000009 1246.5000000000002 3950.5000000000005 2695.5000000000005 2912.5000000000005 3968.0000000000005 2582.5000000000005 3995.0000000000005 2657.5000000000005 6805.5000000000009 2616.5000000000005 2631.5000000000005 2825.5000000000005 3161.5000000000005 1089.5000000000002 1016.5000000000001
decision_type=2 2 2 2 2 2 2 2 2 2 2 2 2 2 2 2 2 2 2 2 2
left_child=1 10 -2 4 -4 6 -5 -3 9 -9 -1 -8 -13 -7 15 -15 -17 18 20 -20 -18
right_child=2 7 3 5 -6 13 11 8 -10 -11 -12 12 -14 14 -16 16 17 -19 19 -21 -22
leaf_value=-0.098269369714141519 0.24556097320713435 0.19903736619954629 -0.10139851659095932 0.2069002514295816 0.25365074875841515 -0.099535771226893222 -0.1010372267765528 0.27293014301699947 0.38234893494396177 0.30130726995219326 -0.10079889695538842 -0.10116186193774555 -0.098390279751218293 -0.099320938331461037 -0.097990471904029292 -0.098127766671791378 -0.098406375196122553 -0.098858618705243817 -0.099068037526296393 -0.098405582620485571 -0.098160834860541432
leaf_weight=4.0594720374792841 1.4940114393830288 4.2420553658157614 1.3173604980111115 2.7882858254015437 1.7237151116132734 1.4306258354336012 0.67398448288440604 5.082512214779852 3.6296143531799308 5.0266511887311935 3.2014343086630106 0.40157125052064557 8.9329159352928382 0.82674993947148223 5.3406980074942103 5.3675176389515391 6.9074064791202536 1.5547270318493236 1.0880562113598014 17.384471498429775 8.0785889960825426
leaf_count=34 13 23 11 26 29 14 19 24 21 25 9 10 308 26 134 70 108 29 17 539 48
internal_value=0 0.174799 -0.0682848 -0.0756322 0.0998473 -0.0844128 -0.0320969 0.285518 0.31222 0.28704 -0.0993847 -0.0986797 -0.0985095 -0.0983664 -0.0983304 -0.0983745 -0.0983551 -0.09839 -0.0983682 -0.0984446 -0.098274
internal_weight=0 25.2417 65.3107 63.8167 3.04108 60.7756 12.7968 17.9808 13.7388 10.1092 7.26091 10.0085 9.33449 47.9788 46.5482 41.2075 40.3808 35.0133 33.4585 18.4725 14.986
internal_count=1537 136 1401 1388 40 1348 363 93 70 49 43 337 318 985 971 837 811 741 712 556 156
is_linear=0
shrinkage=0.1


Tree=38
num_leaves=22
num_cat=0
